//Numpy array shape [128, 64]
//Min -0.444955676794
//Max 0.362426668406
//Number of zeros 0

#ifndef W5_H_
#define W5_H_

#ifndef __SYNTHESIS__
dense2_weight_t w5[8192];
#else
dense2_weight_t w5[8192] = {0.0347047746181488, 0.0064140451140702, -0.0359766595065594, 0.0836415141820908, -0.1353673040866852, 0.1162237226963043, -0.0496286451816559, 0.0977145135402679, 0.1956481188535690, 0.1451534926891327, 0.1112605184316635, 0.0916080325841904, 0.1771687269210815, -0.1343177109956741, 0.1064479202032089, -0.0587122589349747, -0.1388321220874786, 0.0015122753102332, -0.0597822368144989, -0.0208820775151253, 0.0810735225677490, -0.2375428527593613, 0.0357773080468178, 0.2760307490825653, 0.0974772796034813, 0.0030738669447601, 0.1071345731616020, -0.0075222328305244, -0.1860826909542084, -0.0376884303987026, -0.0901861265301704, -0.1845203191041946, -0.2170241475105286, -0.2687628269195557, -0.1977107971906662, 0.1743213981389999, -0.1180462390184402, -0.0129220969974995, -0.1145299747586250, -0.1705485284328461, -0.2039902508258820, 0.0474419742822647, -0.0914652198553085, -0.2738899588584900, -0.0138077270239592, -0.0704489275813103, 0.0015952050453052, 0.0532501712441444, 0.0431869067251682, 0.1662158668041229, -0.1278890222311020, -0.0208545736968517, -0.1085004732012749, -0.2329085320234299, 0.0771214663982391, -0.1053821146488190, -0.0597634240984917, 0.0175974089652300, -0.2003895938396454, 0.0262894239276648, -0.1273079961538315, -0.0580804497003555, 0.0910126045346260, -0.1896595060825348, -0.1975665390491486, -0.2503509223461151, 0.0725599974393845, 0.0612168274819851, 0.1705721020698547, -0.0045122350566089, -0.1807314157485962, 0.0952228084206581, 0.1520577669143677, -0.1229060664772987, -0.1911738365888596, -0.0882861316204071, 0.1114643439650536, -0.2526669800281525, -0.1014185622334480, 0.0568722337484360, -0.0876508802175522, -0.2489310950040817, -0.0004767180653289, 0.0081513775512576, 0.1030291467905045, -0.0396751500666142, -0.0953696146607399, 0.1885417699813843, -0.1296568810939789, 0.1945227086544037, -0.0300657786428928, -0.0848247781395912, 0.0137842688709497, -0.1899548918008804, 0.0899195671081543, 0.0263648945838213, -0.1531213372945786, 0.2287685722112656, 0.2512488365173340, 0.0570887327194214, -0.4423849880695343, -0.1800296455621719, -0.0097374683246017, -0.2747759521007538, -0.0522830374538898, 0.0068816705606878, -0.1108209937810898, -0.1021443679928780, 0.0349848270416260, -0.0786544755101204, 0.0706157088279724, 0.0209232848137617, -0.2224897146224976, -0.1429727226495743, 0.0365839041769505, -0.0091642718762159, -0.0754369944334030, -0.1197727471590042, 0.0589995719492435, 0.1155835017561913, 0.0916387960314751, -0.0807538032531738, -0.0208063609898090, -0.0908198133111000, -0.0165089555084705, -0.4126332998275757, -0.1240639016032219, 0.1364684700965881, 0.0860531181097031, 0.1619634181261063, 0.1203131824731827, -0.0485784038901329, 0.0299831740558147, -0.0209982041269541, -0.0040134447626770, -0.1353030800819397, -0.0927026197314262, 0.0073796827346087, 0.0071699148975313, 0.0670653879642487, -0.1926080286502838, 0.0993300527334213, 0.1558569669723511, 0.1264788508415222, -0.0447813831269741, -0.4449556767940521, -0.0839159488677979, -0.2233668118715286, 0.1001941412687302, -0.0956252068281174, -0.2011367976665497, -0.0329261124134064, -0.2314425855875015, -0.0843025743961334, -0.0713567510247231, -0.0399951003491879, -0.2521894872188568, -0.0469469763338566, -0.0829721093177795, -0.1055933013558388, -0.0655387043952942, -0.1953218281269073, 0.0659289509057999, -0.2189478427171707, 0.2085849493741989, 0.0929589867591858, 0.0109571963548660, 0.0300812292844057, 0.2135570794343948, -0.0081220353022218, 0.0234838686883450, 0.0276521220803261, 0.0591388419270515, -0.0911337360739708, -0.1067396253347397, -0.2067532390356064, 0.0662614628672600, -0.1032188460230827, 0.0916664302349091, -0.0625471174716949, -0.0824353396892548, -0.1423512548208237, 0.1042033880949020, 0.1560057550668716, 0.1242258101701736, -0.2209773510694504, -0.0427763573825359, 0.0627774521708488, 0.1389116048812866, -0.1770406663417816, -0.0814062431454659, -0.2252844125032425, 0.0016426140209660, 0.1632788628339767, -0.0568342767655849, -0.0636737197637558, 0.0694913864135742, -0.0028687983285636, 0.1360449194908142, 0.0500933527946472, -0.0567028187215328, 0.1232283413410187, -0.1165530681610107, -0.1926804482936859, 0.1489430665969849, -0.1604185402393341, 0.1149733886122704, -0.1335281580686569, 0.0586138218641281, 0.0090907756239176, -0.0497891232371330, 0.0493418127298355, 0.0866128578782082, 0.1003119498491287, 0.1093874499201775, -0.0400289855897427, -0.0954476371407509, 0.1162278652191162, 0.0538299679756165, -0.0572439134120941, -0.1893522143363953, -0.1022643744945526, 0.0947217717766762, -0.0354385152459145, -0.0082144020125270, -0.0787494629621506, 0.0279438029974699, 0.2002008855342865, -0.1477159410715103, -0.2449784278869629, 0.0193370692431927, -0.0488203987479210, 0.0286673512309790, -0.1659125685691833, 0.0773264169692993, -0.1486981213092804, -0.0583176426589489, 0.1922630369663239, -0.0603890605270863, -0.1085875332355499, 0.0838056877255440, 0.1192622929811478, 0.2313069105148315, 0.1471724808216095, -0.2024660855531693, 0.0201359372586012, -0.1457322537899017, -0.0145749188959599, 0.0276841018348932, -0.1087341904640198, 0.1254405081272125, -0.0542108938097954, 0.2155453413724899, 0.0457462370395660, 0.0582112744450569, 0.0668856576085091, 0.0747709274291992, -0.0665258020162582, 0.0510926358401775, 0.0398737862706184, -0.0452644675970078, -0.1613316088914871, -0.0701539516448975, 0.1155357882380486, 0.1373980790376663, -0.0118943834677339, 0.1209865584969521, -0.1016397625207901, 0.0932933688163757, 0.0855915993452072, -0.1565611958503723, 0.1900848150253296, 0.1382660567760468, -0.1815729290246964, -0.1010653525590897, 0.0084890965372324, -0.0534242354333401, 0.0611392334103584, 0.0614557042717934, 0.0354370102286339, 0.1222196146845818, 0.1188435181975365, 0.0922900959849358, 0.1443312913179398, 0.1721964180469513, -0.0245484467595816, 0.0516183935105801, -0.0509711876511574, -0.1312702149152756, 0.0250224024057388, 0.0725741088390350, 0.0777385979890823, 0.0081269247457385, 0.0034210002049804, -0.0886542201042175, -0.2793463468551636, -0.0479097999632359, 0.0878721401095390, 0.0795889794826508, 0.2106219679117203, -0.0184975471347570, -0.0024429738987237, 0.1684640944004059, -0.0563533902168274, 0.2045132070779800, -0.0255440659821033, 0.0550431460142136, -0.1739296615123749, -0.0447039753198624, -0.0998905673623085, 0.0226634833961725, -0.1145765259861946, -0.0100252777338028, 0.1426883786916733, -0.0234187375754118, 0.1243759691715240, 0.1981513947248459, -0.0589156858623028, 0.2905575335025787, -0.1943731009960175, 0.0938857346773148, -0.0966636911034584, 0.2247453033924103, 0.1316301375627518, -0.2561519742012024, 0.1239919960498810, 0.0724380090832710, -0.0559812113642693, -0.0516279414296150, 0.0432012639939785, -0.0899294242262840, 0.1116779595613480, -0.1159140095114708, 0.0012432149378583, -0.0104786716401577, -0.0172278303653002, -0.0138343609869480, 0.1415791660547256, -0.2474045604467392, -0.0126068275421858, -0.1655109971761703, -0.1717021763324738, 0.0508754700422287, 0.1631027609109879, 0.0140728168189526, -0.0326570793986320, 0.0982832387089729, -0.1223245412111282, 0.1530006229877472, -0.2280887067317963, -0.0528999380767345, 0.2076885104179382, 0.0751469954848289, -0.0892143622040749, 0.1173130273818970, 0.1935930252075195, -0.0362080559134483, -0.0115766506642103, 0.0297559835016727, -0.2888105809688568, -0.0851891934871674, -0.0101975658908486, -0.1728878170251846, 0.0832805484533310, 0.0153349190950394, -0.0687236338853836, 0.0627407431602478, -0.0524500422179699, 0.0769332200288773, -0.1118899062275887, -0.1139653548598289, -0.0862882509827614, -0.1158197075128555, -0.0773194059729576, 0.0132447089999914, 0.0054700784385204, 0.1495376378297806, 0.1869569867849350, -0.2291161864995956, -0.1558070480823517, -0.0751826614141464, -0.0012719078222290, 0.0456356965005398, 0.1260183602571487, -0.1174815073609352, 0.2154162526130676, 0.2060509026050568, -0.0342215821146965, -0.0086119985207915, 0.2162344455718994, -0.1405394673347473, 0.0120043400675058, -0.1032571196556091, -0.0841650739312172, 0.1769909560680389, 0.0301759205758572, -0.0035913246683776, 0.2431985735893250, 0.0256383083760738, 0.0245164595544338, -0.1442322283983231, 0.2375777363777161, 0.0960008800029755, -0.0805422887206078, 0.0388833917677402, -0.1664285659790039, -0.0238420534878969, -0.1719873249530792, 0.1045672371983528, 0.0110366055741906, 0.0479171499609947, 0.0734180361032486, -0.0884386301040649, -0.0852025151252747, -0.2422412484884262, 0.0231596380472183, 0.2153928577899933, -0.1608129739761353, -0.1193492561578751, 0.0956238880753517, -0.1136344745755196, 0.1614374816417694, -0.0711122602224350, -0.1041652113199234, -0.0387070812284946, -0.0126884691417217, 0.1358991563320160, -0.0638010352849960, -0.0135223297402263, 0.0117722963914275, -0.1026136428117752, -0.0003812315699179, 0.0266984589397907, 0.0673739537596703, 0.1010209619998932, -0.1089201271533966, 0.1176154911518097, 0.0103590320795774, -0.0817481353878975, 0.0840501636266708, 0.0900120511651039, -0.1561259627342224, -0.1277076900005341, -0.1813766360282898, 0.2464932799339294, 0.1014182344079018, -0.2502883970737457, 0.0391593761742115, 0.1314601004123688, 0.1667650938034058, 0.1548687070608139, 0.1131277903914452, -0.0290851239115000, -0.0593412108719349, 0.2563544213771820, -0.1880071759223938, 0.1150339320302010, -0.1013359203934669, 0.0632259920239449, 0.2236725836992264, -0.0135798593983054, -0.1529633700847626, 0.1289110779762268, -0.0459275878965855, -0.1094130501151085, -0.1827135533094406, 0.0561077520251274, -0.2200232148170471, -0.0504903234541416, -0.0310669876635075, 0.0715836957097054, 0.0033547854982316, -0.0137457670643926, -0.0195612721145153, 0.1938149631023407, 0.0182457230985165, -0.1124249398708344, -0.0695050060749054, 0.1887175142765045, -0.1571408957242966, -0.0186741072684526, -0.0483674369752407, -0.2638340592384338, 0.0769900530576706, -0.2364246696233749, -0.0687526464462280, -0.0141100091859698, -0.1341298520565033, -0.0091679422184825, 0.1435364782810211, -0.0926948338747025, 0.0719666481018066, 0.0310054104775190, 0.0537568777799606, -0.0581757128238678, -0.0028845833148807, 0.0272653624415398, 0.0861511677503586, 0.0330298431217670, -0.1337439417839050, 0.0587412752211094, -0.0870206654071808, 0.0955526903271675, 0.2352939993143082, -0.1621342897415161, -0.0158443208783865, 0.0858588963747025, -0.0457613021135330, -0.0202008690685034, -0.0242791119962931, 0.0485675260424614, -0.1595375537872314, 0.0733121186494827, -0.0230092983692884, -0.0101082110777497, -0.0620944052934647, 0.1090607047080994, -0.0623810030519962, -0.0543475933372974, 0.0075454078614712, -0.1950396150350571, 0.1354768127202988, 0.1164505705237389, 0.1363404542207718, 0.1168653741478920, 0.0506102927029133, 0.1680040806531906, -0.0449597202241421, 0.0423083640635014, -0.0276322867721319, 0.2120974510908127, -0.0832542032003403, -0.1241960376501083, -0.1118371561169624, -0.2536848485469818, -0.0518828779459000, -0.1673244535923004, -0.0677469447255135, 0.1753940880298615, -0.1588027775287628, -0.0454237349331379, 0.1638444513082504, -0.1441496759653091, 0.0551101379096508, 0.1292617917060852, 0.0183848664164543, -0.1472816616296768, 0.0500593855977058, 0.0654662400484085, 0.1199457719922066, 0.0355314910411835, 0.0425153672695160, 0.0849219486117363, 0.2693232893943787, -0.2166576087474823, -0.0263744629919529, -0.0308689214289188, -0.2319558709859848, 0.0773635506629944, -0.0370464138686657, -0.0850220695137978, -0.0721134543418884, -0.0646488443017006, 0.1616397053003311, -0.0827022269368172, -0.0206479541957378, 0.0387876480817795, 0.1183404773473740, 0.0028804873581976, 0.0447620525956154, -0.1026272177696228, -0.1170757263898849, -0.1736242473125458, 0.0235046893358231, 0.0178932044655085, -0.1575545519590378, -0.1430129259824753, 0.0697476044297218, -0.0219575036317110, -0.0321002043783665, -0.2236905097961426, 0.2255801409482956, -0.2043376415967941, 0.2641245126724243, -0.2104678601026535, -0.1306042671203613, 0.0046478542499244, -0.1550615131855011, -0.0833036452531815, 0.0281138718128204, -0.0711244121193886, -0.2436231672763824, -0.1278103291988373, -0.0248654223978519, -0.0142653770744801, 0.0465362593531609, -0.0321256592869759, -0.0737250447273254, 0.0986237376928329, 0.1545772701501846, -0.0562936589121819, -0.0065775471739471, -0.1787223815917969, 0.2117231190204620, 0.1035297587513924, 0.0909951850771904, -0.0909671932458878, -0.2143717408180237, 0.0543318875133991, 0.0016156127676368, -0.0985190272331238, 0.0699772387742996, -0.2052628695964813, 0.0610956475138664, -0.3104737997055054, 0.1293449103832245, -0.0493378788232803, -0.1198884397745132, 0.0596033483743668, 0.0731625780463219, -0.1953441798686981, -0.0682232007384300, -0.1882107108831406, -0.1041062176227570, -0.0304870493710041, -0.0403414182364941, -0.0865694954991341, -0.1341282427310944, -0.0420489907264709, -0.0441012121737003, 0.0050150165334344, -0.0428832992911339, 0.0097649814561009, 0.0125302262604237, -0.0361133143305779, -0.0043476168066263, -0.1623276621103287, 0.0566292591392994, -0.0629377886652946, -0.1013255938887596, -0.0335931293666363, 0.1282639652490616, -0.0979174673557281, -0.0670352950692177, -0.1760772019624710, -0.1119614839553833, -0.0553553439676762, -0.1017831042408943, 0.0844179540872574, 0.0784740298986435, 0.1255728602409363, 0.1747440546751022, 0.1510175615549088, 0.0066595878452063, 0.1307533830404282, -0.0023401253856719, 0.0510653629899025, 0.0385037176311016, -0.0165461935102940, 0.2049179375171661, 0.0373288094997406, -0.1054131686687469, -0.0694800242781639, -0.1629908829927444, 0.1380604505538940, 0.0942918807268143, -0.0815013274550438, 0.0762498751282692, -0.0519550703465939, 0.2467222660779953, 0.0606217756867409, 0.0551367811858654, 0.0544585809111595, -0.0492015071213245, -0.0723297074437141, 0.0798284262418747, -0.0516696348786354, 0.0217145476490259, -0.1287769228219986, 0.0630060881376266, 0.0042152358219028, 0.1512607783079147, 0.0664505437016487, -0.0361102037131786, -0.0354710146784782, 0.1012046858668327, -0.1526599973440170, 0.1161512807011604, 0.1509773731231689, 0.0178273953497410, 0.1634346693754196, -0.0795205086469650, -0.0824716538190842, 0.1806515008211136, 0.2495326399803162, 0.0648157820105553, -0.0084883719682693, 0.0928778797388077, 0.0238015521317720, 0.1534188240766525, 0.1086110696196556, 0.0534140765666962, 0.0237688198685646, 0.0193631350994110, 0.2093264311552048, -0.1109017878770828, 0.1608011424541473, -0.1612413525581360, 0.2098999321460724, -0.1833537369966507, -0.0720469206571579, 0.1256141364574432, -0.0550258420407772, 0.0595986582338810, 0.0669549033045769, -0.1231456547975540, -0.0342953354120255, -0.1446928083896637, 0.0517155006527901, -0.1598930209875107, 0.1292256414890289, 0.1718142330646515, -0.0589127801358700, 0.0130304526537657, -0.2304604798555374, -0.0650296136736870, 0.1298666745424271, -0.0356474295258522, 0.2122758477926254, 0.0798619464039803, 0.0626926720142365, -0.2424247264862061, -0.1177028343081474, 0.0544937402009964, -0.0514643080532551, 0.0086496155709028, 0.0222616605460644, -0.0255160089582205, -0.0298567637801170, 0.0352077484130859, 0.1632922589778900, -0.1011206060647964, -0.0925219058990479, 0.1052737310528755, -0.0695563554763794, 0.0176271200180054, 0.2147633880376816, 0.2416921705007553, -0.0077440380118787, -0.0158789381384850, 0.0742313489317894, -0.0230941083282232, -0.0311325360089540, 0.0764221325516701, 0.0572265647351742, 0.0038230684585869, -0.2815951108932495, -0.1747586280107498, -0.1042325645685196, 0.1585864126682281, -0.1022394895553589, 0.0942334160208702, 0.1935785561800003, 0.0296060945838690, 0.2004221826791763, 0.0421631485223770, -0.0200532935559750, 0.1291662901639938, 0.1242089495062828, 0.2787627875804901, 0.1336727738380432, -0.1629961580038071, -0.2170251458883286, 0.0832569524645805, 0.1021342650055885, -0.1922250688076019, -0.2255507558584213, 0.0114975851029158, -0.0035858792252839, -0.0050794221460819, -0.1360023766756058, -0.1313024163246155, -0.1234905794262886, -0.1298443078994751, -0.1755880415439606, -0.1042858660221100, 0.0450893007218838, -0.1580758094787598, -0.2895757555961609, -0.3189367949962616, -0.1174844726920128, -0.0328410379588604, -0.0426718369126320, -0.1924710720777512, 0.0313890464603901, 0.0203746296465397, 0.1271786689758301, -0.2732404470443726, -0.0536146499216557, -0.1295205801725388, 0.0308067854493856, 0.1176866441965103, -0.0415612310171127, -0.0801288634538651, 0.1480493396520615, -0.2205120325088501, -0.2806593775749207, 0.2101658731698990, 0.1032416969537735, 0.1263930201530457, 0.2841788828372955, 0.1201637834310532, -0.2527454793453217, 0.1437938660383224, -0.2548012137413025, -0.1212919056415558, -0.0309543125331402, -0.1843269616365433, 0.0131159210577607, 0.1605872809886932, 0.0089115323498845, -0.0622837431728840, 0.1514221131801605, 0.0336671248078346, -0.1415808498859406, 0.0124774230644107, -0.1285601556301117, -0.0916014984250069, 0.1782861500978470, 0.1743740439414978, 0.1697687357664108, 0.0319970920681953, 0.0789239332079887, 0.0833920985460281, -0.1371740996837616, -0.1614735275506973, 0.0399116612970829, -0.1832042932510376, -0.0240602716803551, -0.0225850138813257, -0.0144590176641941, 0.1418758630752563, 0.0026831724680960, 0.0982352197170258, 0.0277010221034288, -0.1208202466368675, 0.0157239008694887, 0.0607179775834084, 0.1139650642871857, 0.0193826854228973, 0.2408280372619629, -0.2013143301010132, -0.0182589236646891, -0.0571446418762207, -0.1139325127005577, 0.0219979509711266, 0.0709865912795067, -0.0945764333009720, -0.2576275169849396, -0.0120133776217699, -0.2014276385307312, 0.0420324914157391, 0.1236863881349564, 0.0343792214989662, 0.1241847947239876, -0.1788516789674759, -0.2862752974033356, 0.0877935811877251, 0.2236226648092270, -0.1997433006763458, 0.1394355446100235, 0.0776003077626228, -0.0731202363967896, -0.0657748654484749, 0.0005515858065337, -0.0118966670706868, -0.0972791165113449, 0.0487474538385868, -0.2820981144905090, 0.2256411612033844, -0.0766186565160751, -0.0100978380069137, -0.1104682385921478, -0.0834561586380005, -0.1958393603563309, -0.0322869010269642, -0.2065442800521851, 0.1594891250133514, 0.2511733472347260, -0.1391208320856094, 0.0431929677724838, 0.1896990388631821, -0.1150136888027191, -0.1666913330554962, 0.0219346135854721, 0.1767938286066055, -0.0468946285545826, -0.0082972133532166, -0.0706826224923134, -0.0395246036350727, 0.0211196783930063, 0.0337279736995697, 0.0244910791516304, 0.0297519732266665, 0.1420314460992813, 0.1375893503427505, 0.1523942947387695, 0.0752643272280693, -0.0080239810049534, -0.0259910300374031, -0.1197853237390518, 0.2457723468542099, 0.1347968578338623, 0.0508745275437832, 0.0311691612005234, 0.0255108624696732, -0.1103382036089897, -0.0338826179504395, 0.0489946901798248, -0.1158500611782074, -0.0090729864314198, 0.1003653705120087, -0.0494851581752300, -0.1020740270614624, 0.1005913466215134, -0.0112922620028257, 0.0027826835867018, -0.1462756693363190, -0.0464399345219135, 0.0278710294514894, 0.1967926472425461, 0.1129929944872856, -0.0534209311008453, 0.0399177670478821, -0.0737985149025917, 0.0662921071052551, -0.1898461729288101, 0.2187520116567612, 0.0776294693350792, 0.0300773382186890, -0.0816781371831894, -0.1640863716602325, -0.0587263293564320, 0.0164800565689802, -0.0713409408926964, 0.1980164796113968, -0.1068508327007294, 0.0355032756924629, -0.0486115179955959, -0.0102234827354550, 0.0708972290158272, -0.0516510717570782, 0.0504061654210091, 0.2425587773323059, -0.0637161582708359, -0.0448444448411465, -0.0442554131150246, -0.0499372892081738, 0.0622560791671276, 0.1096913442015648, 0.0663301125168800, 0.1742562353610992, 0.0080032441765070, 0.0702165439724922, 0.0756591409444809, -0.1097329184412956, 0.1391653269529343, 0.1462765336036682, -0.0095383999869227, 0.1981793642044067, 0.1290516406297684, -0.1102887466549873, -0.0103278178721666, -0.1398127526044846, 0.2694947421550751, 0.0356334187090397, 0.2402532100677490, 0.2535921931266785, 0.0058862874284387, -0.0575698316097260, 0.0254359915852547, -0.2210929542779922, 0.1425471901893616, -0.1317969262599945, 0.1812669038772583, -0.0114043606445193, 0.2391308695077896, 0.0199231840670109, 0.0187081191688776, -0.0159017108380795, -0.0714904516935349, 0.1595558375120163, 0.1530970484018326, 0.1481538116931915, 0.0155175374820828, -0.0178038123995066, -0.0802754759788513, -0.1335549801588058, 0.0030823696870357, 0.0931629687547684, -0.1882585287094116, 0.0778550282120705, 0.0804455131292343, 0.0492849722504616, -0.0540370494127274, 0.0457475259900093, -0.1351729631423950, -0.2065552473068237, -0.1157955080270767, 0.1886485368013382, 0.1119037419557571, -0.0342341437935829, -0.1085732281208038, 0.2781617939472198, -0.1489665061235428, 0.0843978300690651, 0.0211533829569817, -0.0393852367997169, -0.0140352351590991, 0.1117124781012535, 0.0157850086688995, -0.0228811465203762, -0.0687499344348907, -0.2332923263311386, -0.0575632154941559, -0.1991834342479706, 0.0343944206833839, 0.0421084314584732, -0.0788649767637253, -0.1710539609193802, 0.1270200759172440, 0.2797585725784302, 0.0606649741530418, 0.1928718388080597, 0.0287477839738131, -0.1057647094130516, 0.1313530355691910, -0.0082147121429443, -0.1707498580217361, -0.0548046529293060, -0.0667748004198074, 0.2442182600498199, -0.1220189705491066, 0.0532767437398434, 0.1408134251832962, 0.0429207682609558, 0.1508626043796539, -0.0214683767408133, -0.0189896263182163, -0.1916543543338776, 0.0351398847997189, -0.0584132932126522, 0.0364292189478874, 0.0604596771299839, -0.0586895421147346, -0.0747246667742729, 0.1586176753044128, -0.0271975249052048, -0.0273355655372143, -0.1068685278296471, -0.1500282883644104, 0.1251129806041718, 0.1809792518615723, 0.0247890297323465, -0.1210482791066170, 0.1125578954815865, -0.0638779178261757, 0.2451567053794861, 0.1953307539224625, -0.0271711498498917, 0.2051275968551636, -0.0153749631717801, 0.0225385073572397, -0.0648165717720985, 0.0500721298158169, 0.0937526449561119, -0.0671851113438606, 0.1159055158495903, -0.0580367445945740, -0.0510486960411072, -0.1036850586533546, -0.1485118269920349, 0.0408027842640877, -0.1606830954551697, 0.0976668819785118, 0.0992249250411987, 0.0959034562110901, -0.2189352363348007, -0.0971936285495758, 0.0347241014242172, -0.1156531125307083, -0.0289855804294348, 0.1085406616330147, -0.0498584546148777, -0.1396301090717316, 0.1041224449872971, 0.1262707412242889, -0.1693132221698761, 0.0055616004392505, 0.2318907380104065, 0.0536615699529648, -0.0740147978067398, -0.0395574122667313, 0.0609566792845726, -0.1051395386457443, 0.1674930155277252, 0.1072311475872993, 0.1526063382625580, -0.0314157344400883, -0.0351381190121174, -0.1234081834554672, 0.0736243203282356, -0.0755064859986305, -0.1260965913534164, -0.1073944792151451, 0.1466409862041473, -0.0921769216656685, 0.2097491472959518, 0.0032608604524285, -0.1397555619478226, -0.1070480793714523, 0.1050025299191475, -0.0202635806053877, -0.0027861099224538, -0.0076439389958978, -0.0484306178987026, 0.1768529266119003, -0.1660795211791992, -0.0019269465701655, 0.1256669014692307, -0.0276518538594246, 0.1880934685468674, -0.0846648514270782, -0.0166089721024036, 0.0211353078484535, 0.0673102512955666, -0.0495225526392460, 0.0773409157991409, -0.0502160117030144, 0.0446904972195625, 0.2578571438789368, -0.0029604567680508, 0.0017574802041054, -0.1619392037391663, 0.0469887256622314, -0.0375014245510101, -0.0328697264194489, -0.1015153825283051, 0.0160464085638523, 0.1098411902785301, -0.0339945256710052, 0.1526309698820114, 0.1286322176456451, 0.1014296337962151, -0.2409509271383286, 0.0436809286475182, 0.1206516847014427, -0.0276644062250853, -0.1704772412776947, 0.1471923291683197, -0.1049675270915031, -0.1020325869321823, 0.0093937832862139, 0.1302202492952347, 0.1887311637401581, -0.0569826737046242, 0.1912751048803329, 0.0151706542819738, 0.0898447856307030, -0.1516257226467133, -0.1200258880853653, 0.1616546213626862, -0.0428837873041630, -0.0532416552305222, -0.2190160006284714, 0.1350590884685516, 0.1218597590923309, 0.1543486267328262, -0.1209635660052299, -0.0022948270197958, -0.1324898898601532, -0.2705393135547638, -0.1885246187448502, 0.1729046553373337, -0.0516184233129025, -0.1251705586910248, 0.0669341459870338, -0.1309484541416168, 0.1774768233299255, -0.1115338504314423, -0.0574849769473076, -0.0902068838477135, -0.1025826781988144, 0.1107359230518341, 0.1233933344483376, 0.0318180099129677, -0.1549390107393265, 0.2029096037149429, 0.1733689755201340, -0.0073228823021054, 0.0053422627970576, -0.0027589024975896, 0.1119358688592911, 0.0120733035728335, 0.0629970356822014, -0.0328824892640114, 0.0343789942562580, -0.0574886761605740, 0.0757232829928398, -0.0413787998259068, -0.0734742581844330, 0.1137017607688904, 0.2883700430393219, -0.0257139839231968, 0.0526819266378880, -0.0831311717629433, -0.0410477779805660, -0.0301549695432186, 0.1722105741500854, 0.2186738550662994, -0.1043299734592438, -0.0006959700258449, -0.0852306783199310, 0.0921140164136887, 0.1709083914756775, -0.0207427702844143, 0.1320861428976059, 0.0766887590289116, -0.0931732580065727, 0.2046529054641724, -0.0986388474702835, 0.0624843053519726, 0.1144078224897385, -0.0221509318798780, -0.1916700899600983, 0.1010178923606873, 0.1399487406015396, 0.1425842046737671, -0.0364237278699875, 0.0166235528886318, 0.2145458161830902, -0.0205346737056971, 0.0335614420473576, -0.1309462636709213, -0.1306487619876862, -0.2313911169767380, -0.1869071125984192, -0.0866462662816048, 0.0032278310973197, -0.1534917503595352, 0.0621751472353935, -0.0713066533207893, 0.1166505590081215, 0.2646403610706329, -0.0843895897269249, -0.0612287558615208, 0.1810719221830368, 0.1449163407087326, -0.0028924194630235, 0.0427469015121460, -0.1894000172615051, 0.1119351163506508, 0.0947450473904610, 0.0438772998750210, -0.0860815718770027, 0.0265021435916424, 0.0548083074390888, -0.0123231010511518, 0.1795122325420380, 0.0028449941892177, -0.1147278994321823, 0.0199929308146238, -0.0552893355488777, 0.0641546845436096, -0.0353798009455204, -0.1061842292547226, -0.0887168273329735, 0.1358172446489334, 0.2202056497335434, -0.1834412217140198, 0.2829113900661469, -0.2158047109842300, 0.1542482674121857, -0.0509704425930977, -0.1139798834919930, -0.1712713539600372, -0.1184347048401833, -0.0227479860186577, -0.0089234448969364, 0.0252146553248167, 0.2877803444862366, 0.0773715078830719, 0.0176103971898556, -0.0879411399364471, -0.1647021174430847, 0.0465827472507954, -0.3376860916614532, -0.0154886934906244, -0.0905210152268410, 0.0955040976405144, 0.0314234197139740, 0.0792879387736320, -0.0268073510378599, -0.1542159765958786, -0.1315273344516754, 0.1676314771175385, 0.0234508868306875, -0.0631660521030426, 0.0277814660221338, 0.0672802552580833, -0.0235753096640110, -0.1311609894037247, -0.1568605452775955, -0.0217479523271322, -0.0825296118855476, -0.2079981267452240, -0.0952774658799171, 0.0225041396915913, -0.0283630415797234, 0.0696224644780159, -0.1053753867745399, -0.1559516340494156, 0.0461107902228832, -0.1530220210552216, 0.1052656173706055, -0.1177663654088974, -0.0675742626190186, 0.0868635401129723, -0.0398063957691193, 0.0330481417477131, 0.0833390951156616, 0.0740018412470818, -0.0033984861802310, -0.0904254615306854, 0.1504888236522675, -0.0296506863087416, -0.1313734501600266, 0.0076951486989856, 0.0043625840917230, -0.0395463667809963, 0.0137488199397922, -0.1707781106233597, 0.0177195630967617, -0.1452909857034683, -0.0164597779512405, 0.0436168909072876, 0.0961208790540695, -0.0654629766941071, -0.1123638376593590, -0.0212324168533087, -0.0598552674055099, 0.0800868272781372, -0.0278963129967451, -0.0374777801334858, -0.1779525279998779, -0.0053794668056071, 0.0756323859095573, -0.1266666650772095, -0.1045787259936333, 0.0025584415998310, -0.1892668455839157, 0.1135782450437546, 0.2375817298889160, 0.1024907305836678, 0.2340038418769836, 0.0818582475185394, 0.1049871295690536, 0.2312847077846527, -0.0484955050051212, 0.1095772162079811, -0.1248143762350082, -0.0076561365276575, -0.0319366082549095, 0.1675362288951874, 0.0336185880005360, 0.0653721764683723, 0.1356149911880493, 0.0375723205506802, -0.0276001840829849, -0.1621488481760025, 0.1283915042877197, -0.0974946990609169, 0.0082441084086895, 0.0496095716953278, 0.0649981200695038, 0.1416557580232620, 0.0597522109746933, -0.0653811842203140, -0.3343718051910400, 0.1061692014336586, 0.0725883021950722, -0.1008949130773544, 0.0324800685048103, -0.0515350848436356, -0.0225277785211802, -0.1767333000898361, -0.1322903633117676, -0.0308085549622774, 0.0693983361124992, -0.1815460175275803, 0.1461259722709656, 0.0509757697582245, 0.0788390114903450, -0.2936294078826904, 0.0183297675102949, -0.0821087881922722, -0.1038686111569405, 0.1701479852199554, -0.0934114158153534, -0.0176041275262833, 0.1669282466173172, -0.0003647923003882, -0.0819459483027458, -0.2043338418006897, 0.1602776646614075, 0.1505331546068192, 0.0498814359307289, 0.0216026064008474, -0.0534836426377296, 0.1644444167613983, 0.0839058533310890, 0.0618821047246456, -0.0297736600041389, 0.1777908504009247, 0.1630948781967163, -0.1942029744386673, -0.0915462076663971, -0.1176913306117058, -0.1237311437726021, -0.0948031991720200, 0.2167193293571472, 0.0162483118474483, 0.1610322296619415, 0.1297443062067032, 0.0624155849218369, -0.0153406877070665, -0.0074607846327126, 0.0425573810935020, -0.2319479137659073, -0.0855040103197098, -0.1499884128570557, -0.1577516645193100, 0.1992297172546387, -0.0716877728700638, 0.0121531402692199, 0.0333332642912865, -0.1422008424997330, -0.2642526328563690, 0.0445060692727566, -0.1909238845109940, -0.0539573729038239, -0.1390536725521088, -0.1372760385274887, -0.0495872981846333, 0.1259993016719818, 0.0653101801872253, 0.1287414729595184, 0.0888748615980148, 0.1822935342788696, 0.0327794849872589, 0.1428184062242508, 0.1899233162403107, 0.1001621186733246, 0.1129224747419357, -0.0542447231709957, -0.0760764107108116, 0.0540630258619785, -0.1922451257705688, 0.0668726041913033, 0.0479013100266457, -0.1467307507991791, 0.0217768512666225, 0.0715847611427307, 0.1910266876220703, 0.2144448310136795, 0.0486668422818184, -0.0257605817168951, 0.0794306620955467, -0.0261443182826042, 0.0783248394727707, 0.1380006819963455, -0.2137512415647507, -0.0471831001341343, 0.0361003205180168, -0.1574638187885284, -0.1084580570459366, 0.0855692476034164, 0.0047701685689390, 0.0680344402790070, 0.1853781193494797, 0.0876114219427109, 0.2905616462230682, 0.0591956228017807, 0.1712253689765930, -0.0535309910774231, 0.1244367584586143, -0.0535470098257065, -0.2012643814086914, 0.2343540787696838, -0.1612296849489212, -0.1534714698791504, -0.0422693341970444, -0.0889505371451378, -0.1492149829864502, -0.1317901164293289, -0.0036590006202459, 0.0067399092949927, -0.0768774524331093, 0.1980965137481689, 0.0153001658618450, 0.1096886545419693, -0.0152067765593529, 0.1016073897480965, 0.1694182008504868, -0.0116000557318330, -0.0183661635965109, -0.0426682196557522, 0.1580802649259567, 0.1356268525123596, -0.1395679861307144, 0.0559047535061836, -0.1580796837806702, 0.0268288962543011, 0.0770348981022835, 0.0548569224774837, 0.0061550564132631, -0.0635439231991768, -0.0517970770597458, 0.0966321825981140, 0.0522636473178864, -0.1961209625005722, -0.0229620281606913, 0.1451873183250427, 0.1031609252095222, 0.1117328479886055, 0.0247482601553202, -0.0363351590931416, 0.0345696546137333, 0.0294929463416338, 0.1136505305767059, -0.0423112362623215, -0.1259030699729919, -0.0193637832999229, 0.0214338731020689, 0.2081615924835205, 0.0874928757548332, 0.1142563447356224, 0.0032940828241408, -0.0121609941124916, 0.3049480020999908, -0.0887523666024208, 0.1776138097047806, 0.0517212674021721, 0.1264789998531342, 0.1214814111590385, 0.0635145381093025, 0.1815738379955292, 0.0968860089778900, -0.1480268985033035, 0.0254250522702932, 0.0929877981543541, -0.0296835452318192, 0.0063280528411269, 0.0851047039031982, -0.1259559988975525, -0.0360268242657185, -0.2273611873388290, -0.1240256279706955, 0.1385039091110229, 0.0614272467792034, 0.0437182448804379, 0.2338057160377502, 0.1781167089939117, 0.0117286043241620, -0.0795771107077599, -0.0461422055959702, -0.0228462759405375, -0.0016963566886261, 0.2149578779935837, 0.1383891701698303, 0.1093301549553871, 0.0148350261151791, 0.1197290495038033, 0.0199953503906727, 0.1102542504668236, 0.0669469982385635, 0.0378217287361622, 0.0354758687317371, -0.0244600325822830, 0.1676770150661469, 0.0264858733862638, -0.0911626964807510, -0.1823917925357819, -0.2002350538969040, 0.0214828867465258, 0.0460598431527615, 0.1566915959119797, -0.1010113358497620, -0.0162108652293682, -0.0231879930943251, -0.1073810160160065, -0.0595134086906910, 0.0348575972020626, 0.0580883733928204, 0.0929534807801247, 0.2434041053056717, 0.2380217164754868, 0.1430797725915909, 0.1355559378862381, -0.0901146084070206, -0.1327852308750153, -0.0790118202567101, 0.0217962879687548, -0.1119425967335701, -0.0851313099265099, -0.1825516372919083, 0.0145564284175634, 0.0106601230800152, -0.0850766599178314, 0.1043800860643387, -0.0975751355290413, 0.0527111329138279, 0.1661707609891891, -0.1081133931875229, 0.1264932453632355, 0.1075757443904877, 0.1372862011194229, -0.0054256380535662, -0.1567358672618866, 0.1643289923667908, -0.1715727150440216, -0.0507290661334991, -0.1560339629650116, -0.0027990203816444, 0.0483045913279057, -0.0978582277894020, 0.1962292045354843, 0.1609979867935181, -0.2186326682567596, -0.0922356098890305, -0.2420220524072647, -0.0118013443425298, 0.0148790990933776, -0.0887173190712929, 0.2671624720096588, -0.0348981954157352, 0.1040081530809402, -0.0831425264477730, -0.0904715731739998, 0.0342707782983780, -0.2283871024847031, 0.1472097337245941, 0.0648197084665298, -0.1226119995117188, 0.0201609116047621, -0.0994346365332603, 0.1516071110963821, 0.0195631384849548, 0.1147861182689667, -0.0073608080856502, 0.0985148102045059, 0.0893040448427200, 0.0525212027132511, 0.1715565770864487, -0.0594214163720608, -0.0756903439760208, 0.0800083950161934, 0.0183239784091711, -0.0135019272565842, -0.0653734877705574, -0.1423880457878113, 0.0667098984122276, 0.0433155372738838, 0.1716078817844391, 0.0163912102580070, -0.1450281143188477, 0.0038310925010592, 0.1265032589435577, 0.0932928398251534, -0.0093364920467138, 0.0340326875448227, -0.0696871802210808, -0.2492184191942215, 0.0846440047025681, 0.0238249152898788, -0.1060641482472420, -0.1282777190208435, -0.1788425147533417, 0.1077335178852081, 0.0420716330409050, -0.1229338869452477, -0.0152094140648842, 0.2396307736635208, -0.0272802934050560, 0.1782064139842987, -0.0881015583872795, -0.1461262553930283, -0.0267991684377193, 0.0235678032040596, -0.0195167660713196, 0.0429534688591957, 0.1659899652004242, 0.1028235107660294, -0.0943897888064384, 0.0964807495474815, 0.0974576920270920, 0.2435955703258514, -0.0854503810405731, -0.2092927545309067, -0.0554119944572449, 0.2652791142463684, -0.1395573765039444, 0.1764748096466064, -0.0185103826224804, -0.1828176826238632, 0.0091029098257422, -0.0984766334295273, 0.0299127474427223, 0.0740375146269798, -0.1753215193748474, 0.0725879520177841, 0.2791408002376556, 0.0168052203953266, 0.1239420101046562, 0.2066503614187241, 0.2345231771469116, 0.2588694393634796, 0.1810102611780167, 0.1207918375730515, 0.0443072356283665, 0.1029073968529701, -0.2157406061887741, 0.1004390940070152, -0.0129031622782350, 0.0054520070552826, 0.2515575289726257, -0.0558319389820099, -0.0179613977670670, -0.0485510677099228, 0.1570559293031693, 0.0995150655508041, -0.0993337184190750, 0.0299722328782082, 0.0654173344373703, -0.0627208128571510, -0.0354410521686077, -0.1013779938220978, 0.0322764217853546, -0.0341120287775993, -0.0649049878120422, -0.0615271627902985, 0.1039513275027275, -0.1535322964191437, 0.1917912214994431, 0.1997244954109192, -0.0142885278910398, 0.1045647114515305, 0.1118614077568054, 0.1279951632022858, 0.2122557461261749, 0.1651438474655151, 0.1918443143367767, -0.0897213295102119, -0.0770097076892853, -0.1317576915025711, 0.1840984672307968, 0.2118663340806961, 0.0901100933551788, -0.0506924502551556, -0.0636917203664780, 0.1530314534902573, -0.0260179266333580, -0.0704660639166832, 0.0701999366283417, 0.2186777740716934, -0.1368915438652039, 0.1260228753089905, 0.1223838329315186, 0.1179548725485802, -0.0040572774596512, -0.2566673457622528, -0.0626222193241119, 0.2491037845611572, 0.0552497915923595, 0.0956662297248840, 0.1865050941705704, 0.0937249138951302, -0.1112879514694214, -0.0963402763009071, 0.2108858525753021, -0.1717702597379684, -0.1059710532426834, 0.0669021829962730, 0.1324848979711533, -0.2709806859493256, 0.0053842952474952, -0.2765516042709351, -0.0812955945730209, 0.1490297019481659, -0.0006428381893784, -0.0268339421600103, -0.1423472464084625, -0.0820397585630417, -0.0672165974974632, 0.1877217888832092, 0.1154330074787140, 0.1636054068803787, -0.1730157732963562, 0.0206834431737661, -0.1511554569005966, 0.1144968122243881, 0.0638587623834610, -0.2181880176067352, 0.0040873074904084, -0.0403457358479500, -0.1128524392843246, -0.1046801805496216, -0.1226514428853989, 0.3624266684055328, -0.1704052537679672, 0.2632029056549072, -0.0358075760304928, 0.0130546018481255, -0.0518917106091976, -0.2763595283031464, 0.1163650080561638, -0.0025316071696579, -0.1873560696840286, 0.0101154819130898, -0.0411968715488911, -0.0691909715533257, -0.1591079086065292, 0.0357458032667637, -0.2650738358497620, 0.0731145143508911, 0.0975798144936562, -0.0728682503104210, 0.3208700418472290, -0.0666847079992294, -0.1774420738220215, -0.0283736418932676, -0.1311724185943604, -0.0945976227521896, -0.0062798261642456, -0.0552529431879520, -0.2271607071161270, 0.0074864611960948, -0.1301939785480499, -0.0396717190742493, -0.0601732172071934, 0.0789014026522636, 0.0343965440988541, -0.1278982013463974, 0.1079965084791183, 0.1560920923948288, -0.2584926784038544, -0.1493928283452988, 0.1799717247486115, -0.0653848871588707, 0.0816255435347557, 0.0732492357492447, -0.0147667191922665, 0.1312931030988693, 0.1146528571844101, 0.0744309499859810, -0.1275993138551712, 0.2169148325920105, -0.0984215959906578, -0.0484997555613518, 0.1525256633758545, -0.0795608460903168, -0.0325211063027382, -0.0150599135085940, -0.0908273234963417, 0.0255369748920202, 0.0393897220492363, 0.0482990741729736, -0.0334345847368240, 0.0645105391740799, 0.1432411223649979, 0.0066324677318335, -0.0373049266636372, 0.1739262044429779, 0.0307559128850698, -0.0675233751535416, -0.2307431995868683, 0.2085404098033905, 0.0137197105214000, 0.0268594175577164, 0.0762685611844063, 0.0517427399754524, -0.2006466239690781, -0.0086747910827398, -0.2539884448051453, -0.1031447649002075, -0.2790795564651489, 0.0660772547125816, -0.2253304868936539, 0.0768099501729012, -0.0947543978691101, 0.1054314672946930, 0.1598698943853378, 0.0780715271830559, 0.0785383135080338, -0.2901290953159332, 0.0764685124158859, -0.1480395197868347, -0.0889853388071060, -0.2071114033460617, -0.1743462681770325, -0.0126503938809037, 0.1072724461555481, 0.1894231736660004, 0.0421520695090294, -0.1465322822332382, -0.3263916075229645, -0.1104574352502823, 0.2055395096540451, -0.0846873596310616, -0.0918183177709579, 0.0561876073479652, 0.0157362781465054, -0.0215810313820839, -0.0204299353063107, 0.0001023558361339, -0.0825466737151146, -0.0159801244735718, -0.0192111358046532, 0.0313844308257103, 0.0698968246579170, 0.2203971296548843, -0.1699232608079910, -0.0117190955206752, -0.0205840840935707, -0.0617442652583122, -0.0568007677793503, 0.0435860827565193, 0.0037234330084175, 0.0337443724274635, -0.0894162729382515, 0.1136800125241280, -0.0321119241416454, 0.1354782283306122, -0.1903381794691086, -0.1072345450520515, 0.0091751022264361, 0.2861558496952057, -0.0807319432497025, 0.1631732285022736, -0.0497319586575031, -0.1338537931442261, 0.0488023608922958, 0.0558676533401012, 0.1917523294687271, -0.2711118459701538, 0.0056634233333170, -0.0506698936223984, 0.0899880379438400, -0.0566595457494259, -0.1790462732315063, -0.1239221617579460, -0.1816110014915466, 0.1150628998875618, -0.1863619685173035, 0.2357516288757324, 0.0907236859202385, -0.0297015551477671, 0.0822734534740448, 0.1158948913216591, -0.0177258532494307, 0.2172221243381500, 0.0394837781786919, -0.0791330263018608, -0.1171667128801346, -0.0812018364667892, -0.0419948250055313, -0.2200499922037125, -0.1533794403076172, 0.1874300837516785, 0.0499285459518433, 0.0001396692969138, -0.1163727864623070, 0.0723452493548393, -0.0980071276426315, 0.0370109491050243, -0.0373781435191631, 0.2176027595996857, -0.0004337468708400, 0.0368718653917313, 0.0529906600713730, 0.0990534797310829, -0.1178020536899567, -0.2295062392950058, 0.0052242218516767, -0.0488616749644279, -0.0572983063757420, -0.0203526280820370, -0.1185559704899788, -0.0176170878112316, 0.0593899078667164, -0.1278529614210129, 0.0696230828762054, -0.0251642279326916, -0.0752776637673378, -0.2630012035369873, 0.0487080998718739, 0.0326074063777924, 0.0318072102963924, 0.0360890291631222, -0.0271487850695848, -0.0157103985548019, 0.0277338288724422, -0.0309603121131659, 0.0515887476503849, -0.1144402921199799, 0.0609606727957726, -0.1544271856546402, -0.0793762058019638, -0.0425702407956123, -0.1061830297112465, -0.1323533207178116, -0.1646168380975723, 0.2483383119106293, -0.0406896546483040, 0.0077057857997715, -0.0390002392232418, 0.0535392165184021, 0.1707353293895721, 0.0293176043778658, 0.0657463818788528, 0.0498541705310345, -0.0585593096911907, 0.0073822471313179, -0.0710221007466316, -0.1613694429397583, -0.1200348138809204, 0.0339797697961330, -0.2718976140022278, 0.2192190140485764, -0.2000355869531631, -0.0629764869809151, 0.1616654843091965, 0.0526092536747456, 0.0438762940466404, 0.0877403542399406, -0.1352203041315079, -0.0723268166184425, 0.0110112912952900, -0.1636480838060379, -0.0465641282498837, -0.0291288327425718, 0.0010184523416683, 0.1905135214328766, -0.0254358183592558, -0.1953751146793365, -0.0515590868890285, 0.1657643020153046, -0.0608100704848766, -0.0812539383769035, 0.0938625112175941, 0.2823150157928467, -0.1428075134754181, 0.2052699476480484, 0.0880276858806610, 0.1444253176450729, -0.0122820222750306, -0.0499151647090912, 0.1094708144664764, 0.1149445623159409, -0.0939002558588982, 0.1881699264049530, -0.0052005713805556, -0.1658950448036194, 0.1364564746618271, -0.1457392275333405, 0.1003574430942535, -0.1385674774646759, 0.0195229016244411, 0.1159662604331970, -0.1417356431484222, -0.1366417258977890, 0.0893417000770569, -0.0598783940076828, 0.2095287591218948, 0.1232786402106285, -0.2227902412414551, 0.1425757259130478, 0.1274548768997192, -0.1441773474216461, -0.0339767076075077, -0.1474662125110626, 0.0499142333865166, 0.0233583003282547, 0.1887845695018768, -0.0481852255761623, 0.2013043612241745, -0.1379114389419556, 0.0413438230752945, 0.0190019533038139, 0.0152426101267338, -0.2120178639888763, -0.1725012660026550, -0.0754218250513077, -0.0382262468338013, -0.1397204995155334, -0.0407663397490978, -0.2236211448907852, 0.0620027333498001, -0.1635208576917648, 0.0820595100522041, 0.0399521589279175, -0.0483653172850609, -0.2423525005578995, -0.0199949815869331, -0.1037526056170464, 0.1727430075407028, 0.0549225471913815, 0.1550011038780212, -0.1737623810768127, -0.1117548048496246, 0.0281359441578388, 0.2106128036975861, -0.1227634847164154, 0.0821903645992279, -0.1422274112701416, 0.0167272165417671, -0.1145084574818611, -0.2810214757919312, -0.1066360697150230, -0.0111338961869478, 0.0799173787236214, -0.0906348600983620, 0.0525862723588943, -0.1191215962171555, -0.1314767003059387, -0.0746987834572792, -0.3268962502479553, -0.2132863849401474, 0.1605012267827988, 0.0387707352638245, 0.0151029704138637, -0.0667289495468140, 0.0257791392505169, 0.1462379693984985, -0.0702522993087769, 0.1196859851479530, -0.1027382016181946, 0.0902259275317192, -0.2342421114444733, 0.0078745465725660, -0.1720218956470490, 0.0600783824920654, 0.1251640170812607, -0.1347206234931946, 0.1614558100700378, -0.0534445121884346, 0.0777465328574181, 0.0864932388067245, -0.2189855277538300, -0.1536696404218674, 0.0496488288044930, 0.1195019930601120, -0.1910741925239563, -0.1454738378524780, -0.1060385629534721, 0.2674339711666107, -0.0745726823806763, 0.1474558562040329, -0.2167018800973892, -0.1643244028091431, -0.0025017599109560, -0.0739335119724274, -0.0734566897153854, -0.0602927692234516, -0.0235401131212711, 0.1959521472454071, -0.1292877942323685, 0.2526887953281403, -0.0720743313431740, -0.0302463900297880, -0.0532024353742599, 0.0558118447661400, 0.0243152771145105, -0.0865907296538353, 0.0793961137533188, 0.0516113415360451, 0.0925728976726532, 0.0925056338310242, -0.0155966393649578, -0.0572058074176311, -0.0420148968696594, -0.0962162688374519, -0.1848525106906891, 0.0397192239761353, 0.0159202702343464, 0.1552533954381943, -0.0826929062604904, 0.0214517563581467, 0.1630958765745163, -0.1233586966991425, -0.1449267566204071, 0.1890381276607513, -0.0226078405976295, -0.2153781950473785, -0.1826484948396683, 0.0896461308002472, 0.2029125094413757, -0.0246995240449905, -0.1040581986308098, -0.1750212460756302, 0.0339008234441280, 0.0927003026008606, -0.1580733209848404, 0.0654870420694351, -0.2105203568935394, 0.0626176893711090, 0.1380892395973206, 0.1997276097536087, 0.0533715188503265, 0.1337064355611801, -0.1101016253232956, -0.0085950326174498, -0.0216194000095129, 0.0144744617864490, 0.1324470788240433, 0.1506829708814621, 0.1810531914234161, 0.0633712410926819, 0.1021575555205345, 0.0582838393747807, -0.0351230539381504, 0.2364868074655533, 0.1897744536399841, -0.0881614461541176, 0.0405671671032906, 0.1039447933435440, 0.0385329164564610, -0.1004685610532761, -0.1244340464472771, -0.1373286545276642, 0.1563284397125244, 0.1477183252573013, 0.0271542165428400, 0.2568954527378082, 0.0736582204699516, -0.0584764070808887, -0.1026963293552399, -0.2124945521354675, -0.1267003268003464, 0.0241141095757484, 0.0966217815876007, -0.0720441192388535, 0.0876015275716782, -0.1227804943919182, -0.1032890155911446, 0.1134750694036484, -0.1396508663892746, -0.0602193437516689, 0.0242793038487434, -0.0004452004213817, -0.0084096798673272, -0.0799528732895851, -0.1158761009573936, 0.2013073414564133, 0.0307477060705423, 0.0682711601257324, -0.1293531507253647, 0.0198943708091974, 0.1277443915605545, -0.0753107294440269, 0.0539659224450588, -0.2363024204969406, -0.1168117150664330, -0.0177413318306208, 0.0132716819643974, -0.0061968062072992, -0.0318047441542149, 0.0556986406445503, 0.1976731270551682, 0.0999368801712990, 0.1950632035732269, -0.0668253675103188, 0.0835965871810913, -0.0476189814507961, 0.0378993786871433, 0.0390736013650894, 0.0169790945947170, 0.1341875046491623, -0.0307119395583868, -0.2555116713047028, -0.0374573245644569, -0.2263736128807068, 0.1587249338626862, 0.0724918618798256, -0.0740704163908958, 0.0370816402137280, -0.0582773163914680, -0.0315935723483562, 0.1074461936950684, 0.0314009785652161, 0.0641888976097107, -0.0075299330055714, 0.0124718146398664, -0.0629249364137650, -0.0750422850251198, -0.1321240812540054, 0.0913239046931267, -0.0584616027772427, 0.0760854929685593, 0.1142351180315018, -0.0848697647452354, -0.1716498434543610, -0.0866866633296013, -0.0917535200715065, -0.1785768717527390, 0.0172355864197016, -0.0239935982972383, 0.0210151635110378, 0.0354854129254818, 0.2225494384765625, -0.0992854163050652, 0.1502725481987000, 0.0580070652067661, -0.1952105760574341, 0.1118763759732246, 0.0872480869293213, -0.0797211453318596, 0.0827833339571953, 0.1527472585439682, 0.0606052652001381, 0.1078186109662056, -0.0154864480718970, -0.0712568014860153, -0.1149980276823044, 0.0705380588769913, 0.0564297810196877, 0.1081029400229454, 0.1112125888466835, -0.0075177359394729, 0.2105543762445450, 0.1580104529857635, 0.1139224097132683, 0.0523936711251736, 0.0775421857833862, 0.0572653077542782, 0.0377765819430351, -0.0155332908034325, 0.1210433468222618, -0.1408583670854568, -0.0710098221898079, -0.1189645901322365, 0.0253026355057955, 0.0165872760117054, 0.0503267757594585, 0.1327927261590958, 0.0710533782839775, 0.0826292037963867, -0.0784336552023888, 0.0083013596013188, 0.0706406459212303, 0.1901725977659225, -0.0784735307097435, -0.0788414403796196, 0.0135434223338962, -0.1915346831083298, -0.2179110199213028, 0.1874056607484818, 0.1714549958705902, 0.0822014212608337, -0.0676469728350639, -0.0108375167474151, 0.0428571663796902, 0.0263861585408449, -0.1287406384944916, -0.0753472968935966, 0.0095260078087449, -0.0922315046191216, -0.1150514632463455, 0.1395218372344971, -0.0698621124029160, 0.2623844146728516, 0.0937535911798477, -0.0328575298190117, 0.1563654839992523, -0.2059719562530518, 0.1017513796687126, -0.0891915708780289, -0.0280911065638065, 0.0821997225284576, 0.1126607581973076, -0.1379625350236893, -0.0324885733425617, -0.1558152586221695, -0.1524811983108521, 0.1613939255475998, -0.1754832267761230, -0.0924384444952011, -0.2184965461492538, -0.1446403861045837, 0.0773065686225891, 0.1567025184631348, 0.0638718977570534, 0.0504590384662151, 0.0959076881408691, -0.0935876518487930, 0.1840992867946625, 0.1931264847517014, -0.1298745274543762, -0.0699803084135056, -0.1677116453647614, 0.0977005586028099, 0.0087725929915905, -0.1467608660459518, 0.0571811646223068, -0.2036698609590530, 0.1065187603235245, 0.0466004349291325, -0.0137791410088539, -0.1618487536907196, -0.1341645568609238, -0.0712618902325630, -0.0292236283421516, -0.0149430474266410, -0.0943387970328331, 0.1561982780694962, -0.1215793043375015, -0.2127885818481445, 0.0508805848658085, 0.2153228223323822, -0.0649446770548820, 0.0394258089363575, -0.1004235520958900, 0.0422898195683956, 0.0994418188929558, -0.0635059103369713, 0.0375553742051125, -0.0413974262773991, -0.1116477772593498, 0.0996296703815460, -0.1560869067907333, 0.0596797578036785, -0.0003552153648343, -0.0199933648109436, 0.1757183372974396, 0.1629223078489304, -0.2248733937740326, 0.1949806660413742, -0.0597491636872292, 0.0679317712783813, -0.0036096312105656, -0.0403959415853024, 0.0140802646055818, -0.1189348176121712, -0.2033573836088181, -0.1632038205862045, 0.2241110354661942, -0.0176149867475033, 0.2364352047443390, -0.0390405021607876, -0.0017039735103026, -0.0408497788012028, -0.1077703312039375, -0.0724659487605095, 0.0384410060942173, -0.0303723718971014, 0.2078117579221725, 0.0958060622215271, -0.0627246201038361, 0.0394325964152813, -0.0063550695776939, -0.0704130455851555, -0.1366033554077148, -0.0106365866959095, -0.0078301979228854, -0.0507818236947060, 0.0885139778256416, 0.1247661560773849, 0.0649235844612122, 0.0827230811119080, 0.0363646298646927, 0.2506630718708038, -0.1557367891073227, -0.1040220260620117, -0.1585993319749832, 0.1389586031436920, 0.0378568246960640, 0.0362350568175316, 0.0069910814054310, 0.0759742185473442, 0.0019664396531880, -0.0799650326371193, -0.0806963220238686, -0.2365601211786270, 0.0290135741233826, 0.1321476846933365, -0.1102645024657249, -0.0472665950655937, -0.1042125895619392, 0.1474146097898483, -0.0734820961952209, -0.0910199582576752, 0.1451880186796188, 0.1179805025458336, -0.0756168365478516, -0.1017404571175575, -0.0000538730892004, -0.0435489527881145, 0.0332451574504375, 0.0290859490633011, 0.1376682221889496, -0.0568487234413624, 0.1039714366197586, -0.0356405079364777, 0.0085881631821394, -0.1372742652893066, -0.1918397396802902, 0.0185434017330408, 0.0178274624049664, 0.1132335215806961, -0.1636749058961868, 0.0938740000128746, 0.0098640387877822, 0.1051054596900940, 0.1071296706795692, 0.0455379746854305, 0.0086500896140933, -0.0147807216271758, -0.0524991452693939, -0.1897882968187332, 0.1991361081600189, -0.0082329958677292, 0.0292151905596256, -0.0722818523645401, -0.0074577941559255, 0.1054397895932198, 0.1730158478021622, 0.0965145006775856, 0.0854558423161507, 0.0827501267194748, 0.1911747008562088, 0.1081742420792580, 0.0366576798260212, 0.0220088083297014, 0.1180127710103989, 0.0213939845561981, -0.0044071292504668, 0.0444653443992138, -0.0723867937922478, 0.1217375248670578, -0.1002056226134300, 0.1049815043807030, -0.1878112405538559, 0.1300973743200302, -0.0978658348321915, 0.0937443971633911, 0.1322102844715118, 0.1274572759866714, 0.1668256670236588, -0.0889029651880264, 0.1323092132806778, 0.0325000509619713, -0.3002844452857971, 0.1268739104270935, -0.2602063715457916, 0.0101167662069201, 0.1283670365810394, -0.0155334724113345, -0.0163344554603100, 0.0511045269668102, -0.1673353612422943, 0.1348125338554382, 0.1461403965950012, 0.0093060703948140, -0.0256040282547474, -0.1337756514549255, 0.1054103374481201, -0.1167647987604141, 0.0938811525702477, -0.1888319849967957, -0.0356879867613316, 0.1134456470608711, 0.1095164492726326, 0.1006168723106384, -0.0817852020263672, 0.0940720289945602, 0.0998021960258484, -0.2005117982625961, 0.0494009479880333, 0.1069484725594521, -0.1667101979255676, 0.0682058408856392, -0.2140679210424423, -0.3008508980274200, 0.0542034097015858, 0.1302974075078964, -0.3118080794811249, -0.0868187248706818, -0.1697014421224594, 0.0993763804435730, -0.0288196466863155, 0.1603923887014389, -0.0362946465611458, -0.1235286667943001, -0.2136002331972122, -0.2521886229515076, -0.0790481567382812, -0.0242828465998173, -0.0750524178147316, 0.0226516406983137, 0.0284855067729950, 0.0425798408687115, 0.0024073389358819, -0.1181121692061424, -0.0763517394661903, 0.0217355117201805, -0.0340783335268497, -0.0429101213812828, -0.0681740939617157, -0.0854384526610374, -0.1055317670106888, -0.0119625991210341, 0.0312435626983643, -0.0803149268031120, 0.0602173842489719, 0.0387345887720585, 0.2171124964952469, -0.1654701977968216, -0.1733356416225433, 0.1057775393128395, 0.1021359637379646, -0.1366875618696213, -0.0833949372172356, -0.0521251559257507, 0.0156537946313620, -0.0571622587740421, 0.1439451575279236, 0.0376398377120495, -0.0708364769816399, 0.0048356847837567, -0.0714822635054588, -0.1101181209087372, 0.0017846353584900, -0.0310599580407143, 0.1545981317758560, 0.0037545051891357, -0.0722343400120735, 0.1890994459390640, 0.1070420965552330, -0.0109766535460949, 0.0160915814340115, -0.2149585485458374, -0.2672319114208221, -0.0797489807009697, 0.2405286282300949, -0.1005326583981514, -0.0868214443325996, 0.0462271682918072, 0.0754258409142494, -0.1168387979269028, -0.1115175560116768, -0.0699870809912682, 0.1842472255229950, -0.2629145085811615, -0.0367826670408249, 0.1926520764827728, 0.1535631269216537, -0.1388100683689117, -0.0005925367004238, 0.0042470823973417, -0.1509017348289490, -0.1233360469341278, -0.0705069676041603, 0.0752607136964798, -0.0271826293319464, 0.0002248636301374, 0.0805534720420837, -0.0401034392416477, -0.0238837562501431, 0.0951593145728111, 0.0255490671843290, 0.0271077156066895, -0.0327391885221004, -0.2042349576950073, 0.0585167370736599, -0.0827790722250938, -0.0560451000928879, 0.2715165615081787, 0.0420048125088215, 0.2953684329986572, 0.0548833683133125, 0.0878426209092140, 0.1585280448198318, 0.2164179086685181, -0.0029278961010277, 0.1013227924704552, 0.2723932564258575, 0.0987811908125877, -0.0926483348011971, -0.0075889178551733, -0.1358534395694733, 0.2076784968376160, 0.1525733619928360, 0.1038364693522453, -0.0253289546817541, 0.0379509627819061, 0.0067018144764006, 0.1303504258394241, -0.0356166735291481, -0.0983924940228462, 0.0495863780379295, -0.0179986059665680, -0.1336431950330734, 0.1569928228855133, 0.0199708901345730, -0.0288989935070276, 0.0117327542975545, 0.0860058218240738, -0.1004656106233597, -0.1553800106048584, -0.0206279885023832, -0.0608708113431931, -0.0173402652144432, 0.1384834647178650, -0.1246159896254539, -0.0654193162918091, -0.0734991654753685, 0.0842397809028625, -0.0723628178238869, 0.0195753574371338, -0.0449405908584595, 0.1253437399864197, 0.1392097175121307, -0.0553312152624130, -0.0409068278968334, 0.1225271001458168, -0.0617565959692001, -0.1221455633640289, 0.1741746515035629, -0.1845568418502808, -0.0741731375455856, 0.1369115710258484, -0.0366908945143223, 0.1913435012102127, 0.0983213558793068, -0.0102152917534113, 0.2105518728494644, 0.0513240247964859, -0.0179138407111168, -0.1684764176607132, -0.1305141299962997, 0.0101885627955198, 0.0746394172310829, -0.2262560278177261, -0.0641434863209724, -0.0959928408265114, -0.0577648542821407, -0.0627562925219536, 0.1215981915593147, -0.0198559351265430, -0.0015604757936671, -0.0409513600170612, 0.0231899209320545, -0.0367158241569996, 0.1101401150226593, 0.1633488386869431, 0.0509561225771904, -0.1273605823516846, 0.0105059295892715, -0.1098520532250404, 0.1414239257574081, 0.0894427448511124, 0.0938770249485970, 0.0839478746056557, -0.0252785179764032, 0.1612876951694489, -0.0486197248101234, -0.0783181264996529, -0.0146950241178274, 0.0833485201001167, -0.1205333992838860, 0.0429119504988194, 0.2197728902101517, 0.0540664419531822, -0.0517369061708450, 0.1564051806926727, -0.1630193293094635, -0.0342686101794243, -0.1688442230224609, 0.1579090058803558, 0.0417369715869427, -0.0944798737764359, 0.1457302272319794, -0.1916977316141129, -0.1306607872247696, -0.0874480754137039, -0.0167107693850994, -0.1286881268024445, 0.0024623915087432, 0.1602193415164948, -0.1240571811795235, -0.0819150879979134, 0.0717930868268013, 0.1519139111042023, 0.2583265304565430, -0.0244597997516394, 0.0364259183406830, 0.0677081942558289, 0.0655830502510071, -0.0399871356785297, 0.1236941665410995, 0.0184159241616726, 0.1146444976329803, -0.1057278588414192, 0.1054393947124481, 0.0443312376737595, 0.0132985776290298, 0.0557731613516808, 0.0931274965405464, -0.0696140527725220, -0.0011311352718621, -0.0800567418336868, -0.1093153953552246, 0.0243122261017561, -0.1058445796370506, 0.0794912576675415, 0.0933747813105583, -0.1037148684263229, -0.1638020873069763, -0.0059808730147779, 0.0438255555927753, -0.0890014469623566, -0.0856429040431976, 0.2155833393335342, 0.1121859177947044, -0.0734509602189064, -0.2960632145404816, -0.0688427090644836, -0.0573776550590992, 0.1867463290691376, 0.0970704928040504, -0.0718586593866348, 0.1288426518440247, -0.0860255211591721, -0.1023377925157547, 0.1017082408070564, 0.1912153512239456, -0.0744567289948463, -0.0294207111001015, -0.2532825171947479, -0.0554506443440914, 0.1123461946845055, 0.2240607142448425, -0.1614384800195694, 0.0458655990660191, -0.0575358904898167, 0.0197946485131979, -0.0852902010083199, 0.0937663018703461, -0.1814054995775223, -0.0676366016268730, 0.1484593600034714, 0.2227417528629303, 0.0125600965693593, -0.1594853252172470, -0.0601386614143848, 0.0341009795665741, -0.1142749413847923, -0.1076006814837456, 0.0001214025542140, -0.1510169357061386, -0.0278025157749653, -0.0206858329474926, 0.0821204334497452, -0.0052562011405826, -0.0827920660376549, 0.0888817980885506, 0.0567376315593719, -0.1277763843536377, -0.0694775283336639, -0.0667096823453903, -0.0390624366700649, -0.0536945313215256, -0.2152752280235291, -0.0690977349877357, -0.0448148213326931, 0.1914961040019989, 0.1712446063756943, -0.1274664103984833, 0.1068122684955597, -0.0697451606392860, -0.1926884651184082, -0.0183646026998758, 0.2420249581336975, 0.0006630421266891, 0.0058832364156842, -0.0763702690601349, -0.0794430896639824, 0.0554321333765984, -0.1825678497552872, 0.0506890453398228, -0.0257895458489656, -0.1580154448747635, -0.1441214978694916, 0.1443087458610535, 0.0227433629333973, -0.1748031526803970, 0.0867054611444473, 0.0744523853063583, -0.1425154358148575, -0.0093105612322688, -0.0593070127069950, 0.0215898975729942, -0.0679363235831261, 0.1793055981397629, -0.2755187451839447, -0.0929780080914497, 0.0648622065782547, 0.2383576035499573, 0.1422002464532852, -0.0901032537221909, 0.0766686946153641, -0.0620882473886013, -0.0954363346099854, 0.1097564175724983, -0.0893473476171494, 0.0505832284688950, 0.1690591871738434, -0.1756909042596817, 0.1357236057519913, -0.1817389577627182, -0.1522860676050186, 0.2397301048040390, -0.0469123311340809, -0.0928344652056694, -0.1997320652008057, -0.0103788105770946, 0.0296022482216358, 0.0830789729952812, 0.1653275936841965, 0.0453278794884682, -0.0362521819770336, -0.0161999911069870, 0.0187893342226744, -0.2999172806739807, -0.1243240460753441, -0.0230684820562601, 0.0896565020084381, 0.0730887427926064, -0.1408298760652542, 0.0930548310279846, 0.0505250990390778, -0.1306516081094742, -0.0700833350419998, -0.0032483525574207, 0.0660773664712906, -0.1017268151044846, -0.1272317618131638, 0.0315396077930927, -0.2772323489189148, -0.0433267243206501, -0.1467791944742203, 0.0346067138016224, 0.2165360599756241, -0.1861391514539719, 0.2196517884731293, -0.0845617577433586, -0.2993049621582031, 0.0294567812234163, -0.2587937414646149, 0.0546209886670113, -0.2262623161077499, 0.1942899078130722, -0.0900429040193558, -0.1324349939823151, 0.0907107293605804, -0.0549752339720726, -0.0205676667392254, -0.1688751429319382, 0.0306112971156836, -0.1952341645956039, -0.1450839340686798, 0.1607806235551834, -0.0978130325675011, -0.1739336699247360, 0.0345461070537567, -0.1243628934025764, -0.0063314959406853, 0.1155310645699501, 0.0406409651041031, 0.0235636830329895, -0.2762189209461212, 0.0185177009552717, 0.0485673584043980, -0.0303600914776325, -0.0746748074889183, 0.0523887202143669, 0.0046262023970485, 0.0356769785284996, -0.0664360001683235, 0.0798003599047661, -0.0860181301832199, -0.1377130746841431, 0.2550456523895264, 0.0601203739643097, 0.0539412200450897, -0.1273811608552933, -0.1213499009609222, 0.1005387827754021, 0.0749202966690063, -0.2404657304286957, -0.1096142083406448, 0.0069009927101433, 0.0639207139611244, -0.0340801104903221, -0.0389659330248833, -0.2409630864858627, 0.1566521376371384, 0.1746968924999237, 0.0267007909715176, -0.1647307723760605, 0.1523492485284805, -0.1640503257513046, 0.0542293079197407, 0.0192357823252678, -0.0842885747551918, -0.0963992923498154, 0.2462764829397202, -0.2175601720809937, 0.0413516685366631, -0.0169512424618006, -0.0567336305975914, 0.2261811941862106, -0.0325877442955971, -0.2135884016752243, 0.0649993345141411, 0.1300428658723831, -0.0862869396805763, -0.1214000135660172, 0.1147692576050758, -0.1957187801599503, -0.0304490514099598, -0.1559951156377792, -0.1930802464485168, -0.0786047503352165, 0.1963421553373337, -0.0249133668839931, -0.0387028716504574, -0.2264486998319626, 0.0388835445046425, 0.2204675972461700, -0.1420806050300598, -0.1927532255649567, -0.1672302782535553, -0.1481126844882965, 0.0634062141180038, 0.1355660855770111, -0.1723459810018539, -0.2153454869985580, -0.1421804130077362, -0.2666719853878021, -0.0289355032145977, -0.0059248562902212, -0.1184178665280342, -0.0866576507687569, 0.1183354556560516, -0.1885803490877151, -0.2738545238971710, 0.0321285985410213, -0.1974522173404694, 0.0234448723495007, -0.0507348142564297, 0.1095334887504578, 0.2013144493103027, 0.0397717021405697, -0.0884762406349182, 0.0012328565353528, -0.0619499683380127, -0.0886144340038300, -0.0479247085750103, 0.0473300591111183, 0.0849797874689102, 0.1730460375547409, -0.0310851670801640, 0.2163641899824142, 0.0015220867935568, 0.0730848088860512, -0.0702837780117989, 0.1731521338224411, 0.1562204211950302, 0.0580750927329063, -0.1076408624649048, 0.0691015124320984, -0.2143397182226181, 0.0916185602545738, 0.1257644146680832, -0.0177779458463192, 0.0157019831240177, -0.0597186572849751, -0.0927649214863777, -0.1374475359916687, -0.1188054829835892, -0.1380058974027634, 0.2410858124494553, 0.0311368089169264, -0.1729017794132233, 0.1027056649327278, 0.0105260265991092, 0.1605160087347031, -0.0574354268610477, 0.0988122746348381, 0.0380242653191090, 0.0270861648023129, 0.2192936390638351, -0.0287743099033833, 0.0208544172346592, -0.1185167878866196, 0.0842997133731842, 0.1385963857173920, 0.2014962434768677, -0.1445004940032959, 0.0899619534611702, -0.1063492149114609, 0.3050422966480255, -0.0166926644742489, 0.2416273802518845, 0.0125738773494959, 0.0124662574380636, -0.0769712626934052, 0.2005690634250641, 0.0828410312533379, 0.0571446940302849, -0.0162842497229576, -0.0983039960265160, 0.1371899545192719, -0.0046386471949518, 0.1224135383963585, 0.1502110809087753, -0.1362346559762955, 0.1448625773191452, -0.1136704385280609, 0.1827167421579361, 0.2095482647418976, 0.1285119354724884, 0.2835749983787537, 0.1615326851606369, -0.0294097624719143, -0.1258423030376434, 0.1868034899234772, 0.1407169699668884, -0.1166949346661568, 0.1134477928280830, -0.1071812584996223, 0.0945440754294395, 0.1310021877288818, 0.1207369193434715, 0.0749478340148926, 0.0903711318969727, 0.1847275048494339, 0.2124073505401611, -0.0653511881828308, 0.1821713894605637, 0.1021674647927284, 0.3606476187705994, 0.0776448026299477, 0.2045903652906418, 0.1028585806488991, -0.0462750159204006, -0.0630014464259148, 0.0604843460023403, 0.0138540696352720, 0.1147680357098579, 0.0910891517996788, 0.1977820247411728, -0.1084127202630043, 0.0378113128244877, 0.0817242264747620, -0.1997493654489517, 0.1251727342605591, -0.0216067135334015, -0.2732813656330109, 0.2030134052038193, 0.1263861358165741, 0.2148495912551880, 0.0522807165980339, -0.1169544309377670, -0.1520481556653976, 0.0004659529076889, 0.1136047169566154, -0.1649092584848404, -0.0346748083829880, 0.0642933398485184, 0.1697404533624649, -0.1367626190185547, 0.0138830151408911, -0.0708569809794426, 0.1437967568635941, -0.0052458094432950, 0.1343240737915039, -0.0859280452132225, 0.0241478439420462, 0.1819296330213547, -0.2015822231769562, 0.0006867875345051, -0.0511786043643951, -0.0494709573686123, -0.1311233937740326, 0.0405175834894180, 0.0009100541356020, 0.1782396584749222, -0.1033181771636009, 0.0480452999472618, 0.1560595482587814, 0.0498849079012871, -0.0980857089161873, 0.0837024897336960, -0.0612133368849754, -0.1705624759197235, 0.1429713815450668, -0.1701870858669281, -0.0224485434591770, -0.0024323959369212, -0.1559861302375793, 0.1545313447713852, 0.1919119358062744, -0.2666988968849182, -0.0978509336709976, -0.1837972104549408, 0.2586483359336853, -0.0546437017619610, 0.0806421414017677, 0.1458913236856461, 0.1881078481674194, 0.1680118888616562, 0.0092534851282835, -0.0972205996513367, -0.0381465665996075, -0.1251701712608337, -0.0781523585319519, -0.1783567816019058, -0.1777412742376328, 0.2212567031383514, -0.0291000697761774, 0.1478958427906036, -0.0836388915777206, -0.1117303818464279, -0.0149833858013153, -0.1353887319564819, -0.0604207664728165, -0.0831261724233627, 0.0871474817395210, 0.0191886294633150, 0.0699486881494522, -0.0543119646608829, -0.0771499276161194, -0.0134122977033257, -0.0584031492471695, 0.2444041073322296, 0.0633403435349464, 0.0221453104168177, 0.0938644185662270, 0.0204848870635033, -0.0351766347885132, -0.0597485266625881, -0.2102684080600739, -0.0069423234090209, 0.0555643737316132, 0.0853258073329926, -0.0368218421936035, -0.0731774717569351, 0.1457213014364243, -0.0718064233660698, 0.0579543597996235, 0.0706331953406334, 0.1090482175350189, -0.0746664032340050, 0.1028451323509216, 0.0703214928507805, -0.0501553975045681, 0.0040512369014323, -0.1727627813816071, 0.1933139711618423, 0.0627545118331909, 0.0439311340451241, -0.1218546256422997, 0.1776493191719055, -0.0571231506764889, 0.0588867552578449, -0.1882076561450958, -0.0174359660595655, -0.0116601809859276, -0.0644261017441750, 0.0007355861598626, 0.0747567340731621, 0.1072505265474319, 0.1784008443355560, -0.0091280872002244, 0.0666507706046104, 0.1070534959435463, 0.1043565496802330, 0.0695781037211418, -0.2282754331827164, -0.0541600547730923, 0.0299685448408127, 0.0681527480483055, -0.0750717967748642, -0.2119405418634415, -0.2259764522314072, -0.0154854943975806, 0.0606996715068817, 0.2316560745239258, 0.0956879556179047, -0.1234414801001549, -0.1123227477073669, -0.2524075210094452, -0.0399990715086460, -0.1478226780891418, -0.0388660542666912, 0.0288948900997639, 0.1597026586532593, 0.0688102766871452, -0.2164491415023804, -0.0998904183506966, -0.1394423991441727, 0.0402343533933163, -0.0868514925241470, -0.1945221722126007, 0.0401431024074554, 0.1924831420183182, -0.0318797789514065, -0.0945449396967888, -0.0226602815091610, 0.1894368082284927, 0.0172736383974552, 0.0244747158139944, 0.0693852454423904, -0.0129072461277246, -0.1000374108552933, -0.0972567275166512, -0.0343340374529362, -0.1813936829566956, 0.1330244541168213, -0.0625158548355103, 0.0545631684362888, 0.1691649407148361, 0.0155533459037542, -0.1088426709175110, 0.1365346163511276, -0.0845279693603516, -0.1392575353384018, 0.0345621295273304, -0.0295160654932261, -0.2417623400688171, 0.1073962375521660, 0.1055387035012245, 0.0699074342846870, 0.1130834817886353, 0.0291519444435835, 0.0823964402079582, -0.0827957987785339, -0.0111095616593957, -0.0520390979945660, 0.1597479730844498, -0.0887342393398285, 0.0396555624902248, 0.0273177027702332, 0.1310475021600723, 0.0690729916095734, -0.2583560645580292, -0.0011813752353191, -0.0572368092834949, 0.1474955081939697, -0.1604187637567520, -0.0569991245865822, -0.0094106737524271, 0.0802481397986412, -0.0277361385524273, 0.2142472714185715, 0.0468751341104507, 0.1439200341701508, -0.0243315920233727, 0.1324077844619751, 0.0061050597578287, 0.0307533126324415, -0.1436301618814468, 0.0135589428246021, -0.0544831566512585, -0.0738168209791183, 0.0903809145092964, -0.0977593213319778, 0.0419777892529964, -0.0348046645522118, -0.0407440625131130, -0.0491638705134392, -0.0025597764179111, -0.1226896122097969, 0.1651172190904617, 0.2199482023715973, 0.0793552622199059, 0.0414789915084839, 0.1919371485710144, 0.1361694037914276, -0.0535039752721786, -0.0940648540854454, 0.0689357072114944, -0.0354653969407082, 0.1206266954541206, 0.0714072883129120, 0.2299297004938126, 0.0237066242843866, -0.0505429767072201, -0.1585601717233658, 0.2435229420661926, -0.1097070425748825, 0.0527863651514053, -0.0504834577441216, -0.0952653810381889, 0.0678189843893051, -0.0460255071520805, 0.2177493125200272, 0.2366545796394348, 0.0035771252587438, -0.1229855194687843, 0.0523462817072868, -0.0531826503574848, -0.1646997928619385, -0.0971162617206573, 0.1600132435560226, 0.0022048479877412, 0.1517608165740967, 0.0822732076048851, -0.1191019788384438, 0.1689877361059189, -0.2001888453960419, -0.0625955760478973, -0.1799255013465881, -0.2625429034233093, 0.2495102286338806, 0.2426202297210693, -0.1533012241125107, 0.0637064650654793, 0.1364483982324600, -0.2585485875606537, 0.0327988043427467, 0.0574750602245331, -0.1375998705625534, -0.1160723865032196, -0.0919345542788506, 0.1491342633962631, -0.1309514492750168, -0.0171223450452089, 0.2317612469196320, 0.0827749818563461, 0.0992041677236557, 0.0458067692816257, 0.2513442039489746, 0.1251889169216156, 0.0117648309096694, 0.0479323342442513, -0.0548425614833832, 0.1257249414920807, -0.0113448286429048, -0.0343129374086857, 0.1138258799910545, 0.1102423965930939, -0.0483149215579033, -0.0654241740703583, 0.0772056207060814, 0.1009888276457787, 0.0686222016811371, -0.0827430114150047, -0.2124756425619125, -0.0422785207629204, 0.0720927938818932, -0.2472501844167709, 0.1962276399135590, -0.0381377786397934, -0.1987471282482147, -0.2458136975765228, -0.2147484272718430, -0.0723698288202286, -0.1335075795650482, -0.1896864324808121, 0.0837697461247444, 0.1348720490932465, -0.0763659328222275, 0.1666707098484039, -0.1307256370782852, -0.2047452032566071, -0.1036880835890770, -0.0152753544971347, -0.0344934724271297, 0.0229729712009430, 0.0827157050371170, -0.0365330278873444, -0.0067124124616385, 0.0896766856312752, 0.1293611228466034, -0.0838103815913200, 0.1987692117691040, -0.1039526388049126, 0.0727793276309967, 0.0347224883735180, -0.0440693683922291, 0.1034246757626534, 0.2009869515895844, -0.0054586972109973, 0.0736834406852722, -0.2019391357898712, -0.0124066667631269, 0.0072732567787170, 0.0861541852355003, 0.1123058274388313, -0.1334871947765350, 0.1001788601279259, -0.0744374096393585, 0.2613316178321838, 0.0728705152869225, 0.1402465403079987, -0.1907839328050613, -0.0612888112664223, -0.1660155504941940, 0.0615288950502872, 0.1097005605697632, 0.0921737924218178, 0.0033225722145289, -0.0899558514356613, -0.0925567448139191, -0.0597047246992588, -0.1180111989378929, 0.0683817416429520, 0.1414354294538498, 0.0683210715651512, -0.1063443124294281, -0.0147628849372268, 0.0693954154849052, -0.0686041414737701, -0.0585011839866638, -0.1275856941938400, -0.1335079669952393, -0.1675674766302109, -0.0127260871231556, -0.1131240278482437, 0.0866976156830788, 0.1716267913579941, 0.0172621216624975, -0.0446398034691811, -0.0974526479840279, 0.2293553203344345, -0.0817090645432472, -0.1421176642179489, 0.2161994874477386, 0.0014357721665874, 0.0627836808562279, 0.1793070435523987, -0.0015518851578236, -0.0405608117580414, 0.0832179933786392, -0.0839831307530403, 0.0515708886086941, 0.0572619214653969, 0.0424825474619865, 0.0354472063481808, -0.0796130001544952, 0.0937281027436256, -0.1479261666536331, 0.0934304073452950, -0.0206176601350307, -0.0411780364811420, 0.0389621369540691, 0.1036519780755043, -0.0396996885538101, -0.0555129945278168, -0.1235587447881699, 0.0311172809451818, -0.0345789454877377, 0.1638011485338211, 0.1891635060310364, 0.1289681196212769, -0.2131999433040619, -0.0955986827611923, 0.1069066449999809, 0.1214677467942238, 0.0031700762920082, -0.1790735572576523, 0.1042545214295387, 0.1285250186920166, -0.0597951523959637, 0.1750175058841705, 0.1225980669260025, 0.0437326803803444, 0.1317422986030579, -0.1608087122440338, 0.0743012204766273, -0.2234441787004471, 0.0929824933409691, 0.1060092672705650, -0.2087976485490799, -0.1294980347156525, -0.2542540729045868, -0.1303894668817520, -0.0305244848132133, 0.0255567468702793, 0.0903632864356041, -0.0861937329173088, -0.0499156564474106, -0.1817260384559631, 0.1535978615283966, 0.2193186730146408, 0.1251262426376343, 0.0955183282494545, -0.0525025464594364, 0.2065379172563553, -0.0206979978829622, -0.0321161039173603, -0.0569198355078697, 0.1192332729697227, -0.2211971879005432, 0.0215862654149532, 0.0836172103881836, -0.0782104060053825, 0.0100738639011979, 0.1567417830228806, -0.0313305631279945, -0.0503164343535900, 0.2415943443775177, -0.2385381758213043, -0.0874091088771820, -0.0265350397676229, 0.1056636273860931, 0.1121403574943542, 0.2130126506090164, -0.1576882302761078, -0.0968195945024490, 0.0153688360005617, 0.0925300642848015, 0.0076707340776920, 0.0930913314223289, 0.1409802734851837, 0.0735782831907272, 0.1784831434488297, -0.0390056893229485, -0.1381097733974457, 0.0455629639327526, -0.1328015327453613, 0.1637976914644241, -0.0538132935762405, 0.1337511241436005, -0.0425478853285313, -0.0408571027219296, -0.0440788082778454, -0.0509396679699421, 0.0426184050738811, 0.0198410116136074, -0.2381718754768372, 0.0279207564890385, 0.1347200870513916, -0.1019834429025650, 0.0689767226576805, 0.0775018185377121, 0.1452376097440720, -0.1624689251184464, -0.1308777630329132, -0.0862483084201813, -0.0136618399992585, 0.0545893721282482, 0.0856834799051285, 0.0128343300893903, -0.1740632206201553, -0.0147704361006618, -0.1659140288829803, 0.1823358088731766, -0.0094410991296172, -0.0212970133870840, -0.0756796225905418, -0.0930943042039871, 0.1462469398975372, -0.2559881508350372, -0.0748737975955009, -0.0816987380385399, -0.0891523212194443, -0.1009187251329422, 0.1098145768046379, 0.0148118948563933, -0.1212513819336891, 0.0977963358163834, -0.0278360545635223, 0.1072987914085388, 0.1266407519578934, -0.0333496555685997, -0.0463364906609058, 0.2465270310640335, 0.0156228123232722, -0.0790652930736542, -0.0757256522774696, 0.1145010814070702, -0.1016197875142097, -0.0620228052139282, -0.0734237506985664, -0.0311519224196672, 0.2253406792879105, 0.1146881878376007, -0.1901317834854126, -0.1697005480527878, 0.0366436094045639, -0.0491124056279659, -0.0066798385232687, 0.1101431325078011, -0.0979520902037621, 0.0028179646469653, -0.0947658568620682, 0.1728391647338867, -0.1481300443410873, 0.1891085803508759, -0.1571207344532013, 0.0686997920274734, -0.0120735699310899, 0.1108703017234802, -0.1013567745685577, -0.0639893934130669, 0.0617189705371857, 0.1003380939364433, -0.1526293009519577, 0.0025533614680171, -0.1277544349431992, 0.1123494654893875, -0.1209080740809441, -0.0264894720166922, -0.1062571778893471, -0.2137923091650009, -0.1402167975902557, 0.0080403983592987, 0.0551897138357162, 0.0894855409860611, -0.0330719649791718, 0.1962225437164307, 0.0451410412788391, -0.0351130738854408, 0.0885102674365044, -0.1954901218414307, -0.2737667858600616, 0.1499264836311340, 0.0110001070424914, 0.1080145165324211, 0.0482405275106430, 0.1405111253261566, -0.0840299800038338, -0.1640503555536270, -0.0903373137116432, 0.0064834579825401, -0.2456249296665192, 0.0636095628142357, -0.0921178087592125, 0.0539094768464565, 0.0612723268568516, 0.0492653511464596, -0.1334732919931412, 0.1134187206625938, 0.1424069851636887, -0.1021909266710281, 0.1001218035817146, -0.2642530500888824, -0.1074454486370087, 0.0288283564150333, 0.0542416386306286, 0.0993068441748619, -0.2379485666751862, 0.1045521795749664, 0.0979721173644066, 0.0647026300430298, 0.0485453382134438, -0.0249136872589588, -0.1831962317228317, -0.0346079878509045, 0.1851933002471924, -0.1376331001520157, -0.0512227900326252, -0.0330831855535507, 0.1256438940763474, 0.0053927288390696, -0.1834749281406403, 0.1489037573337555, 0.1516910493373871, -0.0747735276818275, -0.1419409960508347, -0.0631186813116074, 0.0194102209061384, -0.1767497658729553, -0.0659187883138657, 0.0243498589843512, -0.0167257562279701, -0.0599289685487747, -0.0108689935877919, 0.1192188337445259, -0.0107021499425173, -0.0448363237082958, -0.0785062015056610, -0.0527494661509991, -0.1369588673114777, 0.1169388815760612, 0.0164509974420071, 0.0505597479641438, -0.0534703731536865, 0.1083404272794724, 0.1181437075138092, -0.1472156494855881, -0.1020231321454048, -0.0463549569249153, -0.1053914874792099, 0.0519929341971874, -0.1059759035706520, 0.0332081168889999, -0.0192535761743784, -0.0942720547318459, -0.1109339147806168, -0.0372280329465866, -0.1926339566707611, 0.0348755195736885, 0.1293414980173111, -0.0935994461178780, -0.2499111145734787, -0.1840028762817383, 0.0738448575139046, 0.2155469059944153, -0.2648435831069946, -0.1069472059607506, 0.1000836119055748, 0.0563971661031246, -0.2201387435197830, 0.0854226201772690, 0.1206596046686172, -0.0667802989482880, 0.0983308330178261, 0.0210117101669312, -0.1207002103328705, -0.0488937385380268, 0.0325889065861702, -0.2388090193271637, 0.0036192003171891, 0.0348736532032490, 0.0727751553058624, 0.0084990914911032, 0.2380431294441223, 0.0212104469537735, 0.0934631600975990, -0.1467926800251007, 0.2142875939607620, 0.1218489855527878, -0.1445638835430145, 0.0448766984045506, 0.0163023341447115, 0.1389342993497849, -0.1623492687940598, 0.1828728914260864, -0.0570738017559052, -0.0750547498464584, -0.2658545672893524, -0.1343291103839874, -0.3747900128364563, 0.1024938747286797, -0.1005873754620552, 0.2146254479885101, -0.0073237703181803, -0.0425979383289814, 0.0722960382699966, 0.1015542671084404, 0.0997995585203171, 0.2195089757442474, -0.0663836747407913, -0.1630401164293289, -0.0933624655008316, -0.1668275445699692, -0.0218024477362633, -0.1787579953670502, 0.0680122971534729, 0.1253962516784668, -0.1015207991003990, 0.0143004488199949, 0.0095512252300978, 0.0901305601000786, -0.0304756741970778, 0.1042158976197243, -0.1431241482496262, -0.0226706173270941, -0.0797724425792694, 0.1231381371617317, 0.0941984429955482, -0.1489768773317337, -0.0718493983149529, 0.1572548896074295, -0.1630316823720932, 0.0376475155353546, 0.0988669544458389, -0.1959941238164902, -0.0240241531282663, 0.0055366912856698, -0.2244263589382172, -0.1091516315937042, -0.0653099194169044, -0.2497797012329102, 0.0646388977766037, -0.0236713960766792, -0.0522536374628544, -0.1675454527139664, 0.0487362109124660, -0.3144559562206268, 0.1443800032138824, -0.0812556147575378, 0.1080432683229446, 0.0147101301699877, 0.0283882208168507, 0.0064056641422212, 0.0899455472826958, 0.0230008531361818, -0.0895892828702927, 0.0155579056590796, 0.0498897880315781, -0.2578023374080658, 0.0229625925421715, 0.2509791254997253, -0.0624882988631725, 0.2344336360692978, 0.0181854851543903, 0.0350867323577404, -0.2140074968338013, -0.1159970983862877, -0.0906670987606049, -0.1574712246656418, -0.0498352013528347, 0.0238876957446337, 0.1215100586414337, -0.1067732498049736, 0.1687405407428741, -0.2103358358144760, 0.0251371581107378, -0.1219497844576836, 0.1269822269678116, 0.0920262411236763, 0.0650907382369041, 0.0232711490243673, -0.0469072833657265, 0.0233802087605000, 0.0096685346215963, -0.0172186549752951, -0.1151698604226112, -0.0053480509668589, -0.0618894211947918, -0.0661162808537483, -0.2540878057479858, -0.0295544844120741, 0.0507407449185848, 0.0491520054638386, -0.1025699749588966, -0.0758765488862991, -0.0070999688468874, 0.1934319436550140, 0.0042273434810340, -0.1274976581335068, -0.0292826313525438, -0.0521687008440495, -0.1027930378913879, -0.0155073544010520, 0.1873539984226227, -0.0464568771421909, -0.0003478567814454, 0.1562708765268326, -0.2010249346494675, 0.0422482714056969, -0.0460327938199043, 0.0153177920728922, -0.0691399052739143, 0.0649681836366653, -0.1210148259997368, -0.0373890995979309, 0.0853144600987434, -0.0586376413702965, -0.0639987811446190, -0.1417232155799866, 0.0440178960561752, -0.2519388794898987, 0.1434880942106247, 0.0147746065631509, -0.0729660838842392, 0.0585127137601376, -0.0802098214626312, -0.2123614698648453, -0.0631044656038284, -0.0921337828040123, 0.2098919898271561, 0.0052645378746092, -0.1426734477281570, -0.1339405179023743, 0.0817709341645241, 0.0908244028687477, -0.1664493978023529, -0.0440341681241989, -0.0297203734517097, 0.0735500380396843, -0.1232925280928612, -0.0004863446520176, -0.1692360341548920, 0.1201754659414291, -0.0204969644546509, 0.0056318971328437, -0.1056493967771530, -0.1660699397325516, 0.1084277108311653, 0.1555537730455399, -0.0021167006343603, 0.0776933282613754, -0.0958387926220894, 0.0256220232695341, -0.1273088455200195, 0.1640932410955429, -0.0044401958584785, 0.1014456227421761, -0.0534789189696312, -0.0790125131607056, -0.0238716583698988, 0.0390580333769321, -0.0754375085234642, 0.1729616075754166, -0.0056936847977340, -0.0363970734179020, -0.1288594752550125, 0.2561209797859192, 0.0996551513671875, 0.1847230792045593, -0.2075333446264267, 0.1837786436080933, 0.0420153513550758, 0.1667828112840652, 0.2042946070432663, -0.0047710342332721, -0.0085291406139731, 0.0653793513774872, -0.0975659117102623, 0.1398923993110657, 0.2033703178167343, 0.0911629721522331, 0.0739648267626762, -0.0267553701996803, 0.0982682630419731, -0.1127714440226555, -0.0520427748560905, 0.0455821976065636, -0.0175310168415308, 0.0899038463830948, -0.1423903405666351, -0.0107296295464039, -0.0431857891380787, 0.1266953051090240, 0.1337549835443497, -0.1310885250568390, 0.0599192790687084, 0.1349992156028748, 0.1322119683027267, -0.0880120694637299, -0.0694987252354622, -0.0085277333855629, -0.1202636286616325, 0.0207384489476681, 0.0980841964483261, -0.0192810744047165, 0.2732259631156921, 0.1368252485990524, -0.1333286613225937, 0.1139223799109459, 0.1712321788072586, -0.0590686686336994, 0.1943301707506180, 0.1903987079858780, -0.1055828854441643, 0.0638641715049744, -0.0701827406883240, 0.1603044867515564, 0.1194666773080826, 0.1268539726734161, 0.1360116302967072, -0.1988765746355057, -0.0949779599905014, 0.1334822624921799, 0.0596535503864288, 0.0153273660689592, 0.1319244503974915, 0.0455837696790695, 0.1006920114159584, -0.0025663035921752, 0.2501190602779388, 0.0575562380254269, 0.1570375263690948, 0.1516158431768417, -0.0267687905579805, -0.0929930880665779, 0.0129940761253238, -0.1713363826274872, -0.0281815472990274, 0.1728360056877136, -0.0874335691332817, -0.1507394909858704, 0.0247914995998144, -0.0572637803852558, 0.2427768409252167, -0.1411353349685669, -0.0178759042173624, 0.1283040046691895, -0.0231273956596851, 0.0254089049994946, -0.1229480654001236, -0.0302998628467321, -0.1423726528882980, 0.2036882638931274, -0.2134865373373032, 0.0151054812595248, -0.0292312204837799, -0.1504523009061813, 0.0623352937400341, -0.0157776679843664, 0.1544324606657028, 0.0102805625647306, 0.0338117443025112, -0.0245253611356020, 0.0904741510748863, -0.0240165125578642, -0.0070134508423507, -0.0972511246800423, 0.1176281943917274, 0.1117311418056488, 0.1721345633268356, 0.0764488801360130, 0.1192351505160332, 0.0107047567144036, -0.1398393511772156, -0.0112831220030785, 0.0918887034058571, 0.2157093584537506, 0.0921714305877686, 0.1616556644439697, 0.1470241546630859, 0.1627540290355682, 0.1719471961259842, -0.0759864449501038, 0.1489937007427216, -0.0839354842901230, -0.0694955438375473, -0.0601553283631802, 0.0774188712239265, 0.0676936656236649, -0.0636673197150230, 0.0360368229448795, 0.2238319516181946, 0.0844476521015167, 0.1075253263115883, -0.0316156819462776, 0.0181398503482342, -0.1339094042778015, 0.0192035306245089, 0.0208431147038937, 0.1802023798227310, -0.0169517491012812, -0.1556597799062729, 0.1769785732030869, 0.0282780267298222, -0.2614464759826660, -0.0498624294996262, -0.0410267747938633, 0.2556562423706055, -0.0681397616863251, 0.1895686984062195, 0.2244514375925064, 0.0072447159327567, 0.0864762663841248, -0.0282672680914402, -0.2302701324224472, 0.0687116086483002, 0.0655795559287071, 0.1965615302324295, -0.0454154759645462, -0.0210850313305855, 0.0052862009033561, 0.1683595329523087, -0.0446436889469624, 0.0018951784586534, 0.0924909561872482, 0.1103758662939072, -0.0187361110001802, -0.0380233451724052, -0.1928366422653198, 0.1432446986436844, 0.0834115967154503, 0.0754673555493355, -0.1253554224967957, -0.0659559816122055, 0.0019429825479165, -0.2580412030220032, -0.0911551564931870, 0.0692565962672234, 0.1707260608673096, 0.2200419008731842, -0.1573683172464371, 0.1816126853227615, -0.0529785528779030, 0.2564610838890076, -0.0095250271260738, 0.0857074335217476, 0.0436806157231331, -0.0080519523471594, -0.0178710259497166, -0.0312056597322226, -0.1925680935382843, -0.2169262915849686, 0.0296567473560572, -0.1656805425882339, -0.0303223524242640, -0.1924861669540405, -0.0469202324748039, -0.1012489199638367, 0.0478303767740726, 0.1531489193439484, -0.1179335862398148, 0.1459420174360275, 0.0648751929402351, 0.2548971772193909, -0.0116916932165623, 0.0699560642242432, 0.1674651503562927, -0.1072095260024071, 0.0934318453073502, 0.2971734404563904, 0.1717964261770248, 0.0444904454052448, 0.0509689934551716, 0.1805536448955536, -0.1315332055091858, -0.0385898947715759, -0.1348081827163696, -0.1757141202688217, -0.0399039871990681, 0.0507547482848167, -0.0531442351639271, 0.1000635698437691, 0.1713803559541702, 0.0531296133995056, 0.0507749840617180, 0.1938313692808151, -0.2560677230358124, 0.2364945709705353, -0.1601283848285675, -0.0523674972355366, -0.0830065310001373, 0.0991491228342056, -0.1140516996383667, 0.2663386762142181, 0.1681150645017624, -0.1802028119564056, -0.1625109016895294, -0.0549553819000721, -0.1016914397478104, 0.1763558536767960, 0.1232035011053085, 0.2184423655271530, 0.0439724139869213, 0.0219252519309521, 0.2152717262506485, -0.0657592192292213, 0.0222284439951181, 0.1395202279090881, -0.2190723717212677, 0.0418793261051178, -0.1460323184728622, 0.0831085145473480, 0.1773373186588287, 0.0238014161586761, 0.1513576060533524, 0.1251731514930725, 0.1102345064282417, 0.1628521382808685, -0.1804382503032684, -0.0340583585202694, 0.0272339526563883, -0.0352425090968609, -0.2442056983709335, 0.0282270386815071, 0.1624488383531570, 0.1699182689189911, -0.2063992321491241, -0.1043981835246086, 0.0541012510657310, 0.1347954720258713, 0.0206158440560102, 0.1072171926498413, -0.0097392890602350, 0.3241838812828064, 0.1346920281648636, 0.0598019622266293, 0.0685034543275833, -0.0080022690817714, 0.1149115264415741, 0.0262580960988998, 0.0841117277741432, 0.1959824711084366, 0.1803326457738876, -0.1360161006450653, -0.0269663315266371, -0.1051130667328835, 0.2129434049129486, 0.2917056977748871, 0.1872059404850006, -0.0114258686080575, 0.0406948626041412, -0.1037959679961205, -0.0405203551054001, 0.1108266934752464, -0.0984532386064529, -0.1538410037755966, 0.1861923485994339, -0.1738930940628052, 0.1200834810733795, 0.0214360207319260, 0.1316617131233215, 0.0120119433850050, -0.0425677336752415, -0.1174321919679642, 0.2984772622585297, 0.1279593855142593, -0.0077823773026466, -0.1203546300530434, 0.0630533024668694, 0.0870879143476486, -0.1190119311213493, 0.2369602918624878, -0.1930267810821533, 0.1860394924879074, 0.0088997678831220, 0.1562724411487579, -0.0186885893344879, 0.0065419659949839, 0.0203711390495300, -0.1842357963323593, -0.1131882965564728, -0.1782685816287994, 0.2104573100805283, -0.0671444237232208, -0.1269671618938446, -0.1829709708690643, 0.0467847436666489, 0.1801257580518723, 0.0712739750742912, -0.0393127761781216, 0.0924124643206596, 0.1826476007699966, 0.1010965481400490, -0.0690120086073875, -0.1080711483955383, -0.1013467460870743, 0.1869294345378876, -0.2349617481231689, -0.2599876523017883, -0.1071855351328850, -0.0527419187128544, -0.0736395344138145, -0.1750454008579254, 0.0710424259305000, 0.1206777319312096, -0.1990597844123840, 0.0726101174950600, -0.0911069661378860, 0.1421586573123932, -0.0326549224555492, -0.1514818519353867, -0.0960661172866821, -0.1861946433782578, 0.0562437660992146, -0.2923833131790161, 0.0880331918597221, 0.1249895170331001, -0.0512627102434635, 0.0073128622025251, -0.0281380247324705, 0.1960937678813934, -0.0499034374952316, -0.0489264875650406, -0.0176411177963018, 0.1591676324605942, 0.2878550589084625, 0.1163126751780510, 0.1477954387664795, 0.0761980637907982, -0.0480994433164597, -0.0056044668890536, -0.2360877841711044, -0.1501088291406631, -0.1510822921991348, 0.0257465131580830, -0.0005509841139428, -0.1655016988515854, 0.0115412566810846, 0.0481177419424057, -0.0523986928164959, -0.1770986616611481, -0.1956604421138763, -0.0327821709215641, 0.0918249338865280, -0.0392555557191372, -0.0834100320935249, 0.0426384471356869, -0.1533811837434769, -0.1450332403182983, 0.0017069835448638, -0.1308699101209641, 0.2051625400781631, 0.1928897649049759, -0.0168893001973629, -0.1286867707967758, -0.0838867574930191, -0.0304581858217716, 0.0842033475637436, -0.0019156417110935, -0.0540023818612099, 0.0127382706850767, 0.1805393248796463, -0.0362523533403873, -0.2163822501897812, -0.0290262568742037, 0.0259671267122030, -0.0370824225246906, 0.0050242771394551, -0.1199320107698441, -0.1013706550002098, 0.0685689970850945, 0.0198073685169220, -0.1484836041927338, -0.1317260116338730, -0.0211731214076281, -0.0517108961939812, 0.0194619391113520, -0.0337409079074860, 0.1418292671442032, -0.0670884922146797, 0.0066828150302172, 0.0194746609777212, 0.1254288256168365, 0.0231524128466845, 0.0009282692335546, 0.1730342656373978, -0.2379011660814285, -0.0912183746695518, -0.1174811497330666, -0.1080635637044907, 0.1460750102996826, 0.0095269894227386, -0.0986368283629417, -0.0773299261927605, 0.0859393700957298, -0.1634635329246521, 0.2266578376293182, -0.2120797932147980, -0.0909058302640915, -0.1486884951591492, 0.0070268958806992, -0.0048609068617225, -0.0872248113155365, 0.0501278564333916, 0.1785434633493423, -0.1839728802442551, 0.0016698769759387, 0.2065688073635101, 0.0547110289335251, 0.0692058503627777, 0.1923513561487198, 0.2159551978111267, -0.0499775558710098, 0.0833834633231163, 0.0674514323472977, -0.1055553331971169, 0.0123239802196622, 0.0136154834181070, 0.0477091260254383, -0.2218636721372604, -0.0375363081693649, 0.0078462371602654, -0.0318576730787754, 0.2804118394851685, 0.1781811118125916, -0.1458214968442917, 0.0194767154753208, 0.1293089687824249, 0.1006796061992645, -0.0261180028319359, 0.0039610075764358, 0.1483078747987747, -0.0734194740653038, 0.1697436720132828, 0.0423745624721050, 0.2760643959045410, 0.0070147411897779, -0.1806863099336624, -0.0140942260622978, 0.0072496416978538, -0.2334353774785995, 0.0979594662785530, -0.1657040864229202, 0.0186154078692198, -0.0964176058769226, 0.0111192008480430, -0.0094415415078402, -0.1843686699867249, -0.2732018828392029, -0.1574724912643433, -0.1972298771142960, -0.0536187589168549, 0.1392607241868973, -0.0462688952684402, -0.1063237711787224, 0.0019594647455961, 0.0055065131746233, 0.1974161416292191, 0.1020979136228561, -0.0360470376908779, -0.1730006784200668, 0.0055281715467572, 0.0243467018008232, -0.0729068592190742, -0.1725458353757858, -0.1620195358991623, 0.2105451971292496, -0.0977204144001007, -0.0322161689400673, 0.2361556887626648, 0.1509616523981094, -0.1728938966989517, 0.0443285740911961, 0.0881804153323174, -0.1287829428911209, -0.3046145737171173, -0.1040901169180870, 0.1139531582593918, -0.0439647659659386, -0.0406879186630249, -0.1062874421477318, -0.0560409799218178, -0.0175949651747942, -0.0233533121645451, -0.0359038002789021, 0.1224020346999168, -0.0374743007123470, -0.1879424899816513, -0.1624804288148880, 0.1757221966981888, -0.1129586994647980, 0.1247152909636497, -0.0856036990880966, -0.1611817181110382, -0.2354013919830322, 0.0248399227857590, 0.0687473043799400, 0.0253015067428350, -0.1487085521221161, 0.0563172176480293, -0.0461733192205429, 0.1925148367881775, -0.0729143917560577, 0.1098623648285866, 0.0138608887791634, 0.0561789758503437, -0.1110705807805061, -0.0094220126047730, 0.1219005286693573, -0.0558948628604412, -0.0625806823372841, -0.0081962672993541, -0.2021851837635040, -0.0620864816009998, 0.1026061847805977, 0.1192078590393066, -0.1070071905851364, -0.1771310865879059, 0.1836628764867783, 0.2525591552257538, -0.2125287353992462, 0.0778369829058647, -0.1092237755656242, 0.2062750607728958, -0.1431610137224197, -0.0152093730866909, 0.0371758975088596, 0.1402247697114944, -0.0896684750914574, -0.2917889952659607, -0.1837664991617203, 0.1631185263395309, 0.1274847090244293, -0.1403111666440964, -0.0595685616135597, -0.0583141744136810, 0.2392503768205643, -0.1105880290269852, 0.1619214415550232, 0.1028756275773048, 0.2105806171894073, 0.0644350349903107, 0.0483482144773006, -0.0509741753339767, -0.2461878359317780, 0.0165093839168549, 0.2059115618467331, -0.0863947123289108, -0.1307182461023331, -0.0742752850055695, -0.0531408488750458, 0.1967596411705017, 0.1943967491388321, 0.0694034993648529, 0.1147520095109940, 0.0105654001235962, 0.0562386065721512, 0.0652103573083878, 0.0025891861878335, -0.2371394187211990, 0.1817157119512558, 0.0444818027317524, -0.0380101315677166, 0.2383460700511932, -0.1327976435422897, 0.0803877413272858, 0.1708530634641647, 0.0070423800498247, 0.0963376685976982, -0.1779406964778900, 0.0432462431490421, 0.0987260267138481, 0.1690729856491089, -0.0162204895168543, -0.1489028185606003, 0.0986133962869644, -0.0891421064734459, 0.0793594345450401, -0.0200547706335783, 0.0889946594834328, 0.0733641758561134, 0.0255536045879126, 0.1066222712397575, -0.0198428686708212, 0.0705312192440033, -0.0961173921823502, -0.0756947547197342, -0.1642012298107147, -0.0765714272856712, -0.0391941592097282, 0.1211979538202286, 0.0075080087408423, 0.0397570803761482, -0.0857687667012215, 0.0003553771821316, -0.0109904129058123, 0.1044736802577972, 0.1746788471937180, -0.2167084664106369, 0.0602490678429604, -0.0262759290635586, -0.1092168167233467, -0.2326630949974060, -0.0753930434584618, 0.0164177976548672, -0.0742094144225121, 0.1391582041978836, 0.0558855086565018, -0.1221746206283569, 0.0786711275577545, -0.0508886873722076, 0.2165743410587311, -0.2026247233152390, 0.0048107760958374, 0.1828946620225906, 0.1267276406288147, 0.2146312445402145, -0.0712544098496437, -0.1741025000810623, -0.0360259823501110, -0.2192797511816025, -0.0361538305878639, 0.0989065542817116, 0.1049249619245529, -0.0376944877207279, -0.0615150481462479, 0.0055117639712989, -0.0040453206747770, -0.0861736759543419, 0.0634693577885628, -0.0554425716400146, 0.0175102166831493, 0.1346935480833054, 0.1174874827265739, 0.0247410107403994, -0.0352830253541470, -0.0771979540586472, 0.0387418083846569, 0.0223001744598150, -0.1583442836999893, -0.1769495308399200, 0.1027205660939217, -0.0845668539404869, -0.0394571647047997, -0.1395155340433121, -0.0100464345887303, -0.0000351132257492, 0.0722734406590462, -0.0482065193355083, 0.0040646716952324, -0.0005045007565059, -0.0899489074945450, -0.0716262608766556, -0.1975384354591370, -0.2078699618577957, 0.0959222391247749, -0.0709674581885338, 0.0545154586434364, 0.1501463800668716, -0.1877477318048477, 0.1714663058519363, 0.1692226529121399, -0.1045873686671257, 0.0546672083437443, 0.0177388954907656, 0.1006371006369591, -0.1238013356924057, 0.1177332922816277, 0.0300935581326485, 0.1286689639091492, 0.0545460842549801, 0.1110438778996468, -0.0691202580928802, 0.0741155669093132, 0.0180949084460735, -0.0190549958497286, 0.0860197246074677, 0.1390092670917511, 0.0751853287220001, 0.0045377286151052, -0.0042810752056539, -0.0800117403268814, -0.1833426207304001, -0.0378445088863373, -0.1316453665494919, -0.1668713688850403, -0.0524392761290073, 0.1179511919617653, 0.1142381429672241, -0.0999453142285347, -0.1055077165365219, -0.0268286317586899, -0.0636850222945213, 0.0307539962232113, -0.0835785046219826, -0.2043095380067825, 0.0516520775854588, 0.2123508006334305, 0.0034766746684909, 0.1467887312173843, -0.0726197287440300, -0.1093266010284424, -0.0489239469170570, 0.1001738160848618, 0.0215579904615879, -0.1382395774126053, -0.1342827379703522, 0.0479288324713707, -0.0751283541321754, 0.0364927574992180, 0.1733220517635345, 0.0599485933780670, -0.1727589517831802, -0.0237380303442478, -0.0440811552107334, -0.2198826819658279, -0.1639453172683716, -0.2087755501270294, 0.1419787257909775, -0.1966216713190079, -0.1343538463115692, 0.0913008451461792, -0.0833037048578262, -0.0879604741930962, -0.0355828627943993, 0.0788632258772850, -0.0042890491895378, -0.0302105713635683, 0.2158297300338745, -0.1378084570169449, -0.1514503210783005, 0.0128577146679163, 0.1630415916442871, -0.0751299113035202, -0.1240890845656395, -0.0060538640245795, 0.0035982602275908, 0.0953502207994461, -0.1116154566407204, -0.0303289275616407, 0.1583255082368851, 0.0524171479046345, 0.0851427614688873, 0.0210655722767115, 0.0615344084799290, -0.0460895709693432, -0.1578932851552963, 0.1877017021179199, 0.1093818396329880, 0.1321585476398468, -0.2262447178363800, 0.0862519815564156, -0.0103951198980212, -0.0252332184463739, -0.0853279083967209, -0.1240014657378197, -0.0397286675870419, -0.0296133793890476, -0.1786877065896988, 0.2079316377639771, -0.0506298281252384, -0.1882592141628265, -0.1221252977848053, 0.1150057166814804, 0.0734929516911507, 0.2236129939556122, -0.0440817102789879, -0.1163721084594727, -0.1499867886304855, 0.0166999194771051, -0.0112974066287279, 0.0574704632163048, -0.1775132119655609, -0.1118940487504005, -0.0517822988331318, 0.0415535047650337, -0.0925864949822426, 0.0271208044141531, -0.2276322096586227, 0.0598030276596546, -0.0104791354387999, 0.1873053312301636, -0.0957650467753410, -0.0249988492578268, -0.2059576660394669, 0.0370430052280426, -0.0393283702433109, 0.1301720291376114, -0.1420420408248901, -0.0497192479670048, -0.1992135196924210, 0.1119105219841003, 0.1880251020193100, 0.1996692419052124, 0.1033890619874001, 0.2061371654272079, 0.1078682690858841, 0.1112516447901726, -0.0989919975399971, -0.1071753501892090, 0.0155247747898102, 0.0471082665026188, -0.0980175286531448, 0.1716801375150681, -0.1176617890596390, 0.0268633831292391, 0.0431987605988979, 0.0927553698420525, -0.0723265334963799, 