//Numpy array shape [32, 16]
//Min -1.972078084946
//Max 0.826919615269
//Number of zeros 0

#ifndef W5_H_
#define W5_H_

#ifndef __SYNTHESIS__
dense2_weight_t w5[512];
#else
dense2_weight_t w5[512] = {-0.5001885890960693, -0.0530416592955589, 0.0725402384996414, -0.1452158689498901, 0.0923595800995827, 0.3755982220172882, 0.2777804136276245, 0.0800229609012604, 0.3977205157279968, -0.1378185451030731, -0.3272117674350739, 0.1027175039052963, -0.1288400888442993, 0.3091769218444824, 0.0793438330292702, 0.2305928468704224, -0.1581483632326126, 0.0951669737696648, -0.0206720493733883, -0.2701015472412109, 0.0560647323727608, 0.2691600620746613, -0.5099547505378723, 0.1855535507202148, 0.0068122707307339, -0.2881824374198914, -0.0723497793078423, 0.3181487321853638, -0.0956117436289787, -0.2981283366680145, -0.1377627253532410, 0.3228819072246552, -0.5747601985931396, -0.0878342986106873, -0.2034401297569275, 0.2825782895088196, 0.0170890968292952, -0.1625281870365143, 0.2084988802671432, -0.3055983185768127, 0.2159188538789749, 0.1549287587404251, 0.1230898201465607, 0.3209970295429230, -0.4547617435455322, -0.5160396695137024, 0.0050607463344932, 0.2905021905899048, -0.0501936227083206, 0.1229562237858772, -0.4089496135711670, 0.2017259448766708, 0.1736087948083878, 0.0396296642720699, -0.2065094411373138, 0.1736165732145309, 0.0418482720851898, -0.1474014967679977, 0.0137366028502584, -0.1654129177331924, 0.5658043026924133, -0.2564778625965118, -0.0617581680417061, 0.0017740787006915, -0.4042570292949677, 0.5006759762763977, -0.3722891807556152, 0.3447670042514801, -0.1778789907693863, -0.2634304165840149, 0.1589440703392029, -0.1768327802419662, 0.1379336118698120, 0.0436129383742809, 0.0066822427324951, -0.0756580829620361, 0.4296003282070160, 0.1965276151895523, 0.3921883702278137, 0.3417650163173676, -0.4874241948127747, 0.5264017581939697, -0.0392203405499458, -0.6353185772895813, -0.2107520103454590, 0.3109475076198578, -0.5778715014457703, -0.1106700524687767, 0.3548786342144012, -0.4264909625053406, -0.0935309231281281, 0.3410048484802246, 0.1503842324018478, 0.2526357471942902, 0.7009898424148560, -0.5516642332077026, 0.5138320922851562, -0.0860428139567375, -0.2257812768220901, 0.0212023630738258, -0.0593608617782593, -0.0121029578149319, -0.2225908786058426, 0.1374178081750870, -0.0681800320744514, 0.1126369312405586, -0.0090232081711292, 0.1379905492067337, 0.6564912199974060, -0.1013914868235588, -0.2342958450317383, -0.1591537594795227, 0.0645198151469231, 0.4460272789001465, -0.3903070092201233, -0.0693025365471840, -0.0335381329059601, -0.0870183855295181, 0.1083112135529518, 0.0160117913037539, 0.0767182335257530, -0.1880363970994949, 0.1140179708600044, 0.2371880412101746, 0.2310151308774948, 0.1021076738834381, 0.6716307401657104, -0.6505133509635925, 0.3041132688522339, 0.0724149793386459, 0.0032000672072172, -0.2119500637054443, 0.2709087133407593, 0.3022073805332184, -0.4004005491733551, -0.1957963854074478, -0.3373113870620728, -0.1114753559231758, 0.2476200610399246, 0.3189354538917542, 0.3112439215183258, -0.1279172599315643, -0.1493542343378067, -0.1879049986600876, 0.1052678003907204, 0.5850063562393188, 0.3208024501800537, -0.3379398286342621, 0.0596644431352615, 0.0602551810443401, -0.5339387059211731, -0.0264100953936577, 0.0856401249766350, 0.2248978316783905, -0.0297764334827662, 0.1438468843698502, -0.0366645120084286, 0.0789621695876122, -0.2890459001064301, 0.2938968837261200, -0.2223091274499893, -0.1336067020893097, -0.1034330725669861, -0.1754535287618637, -0.1762137562036514, 0.2898999154567719, -0.1314202994108200, -0.1794532686471939, 0.2638458609580994, -0.2245253920555115, -0.3605962693691254, -0.0472217127680779, -0.2875457108020782, 0.3679072558879852, 0.2443419992923737, -0.0355287455022335, 0.0837161689996719, 0.2861611247062683, -0.0489087365567684, 0.2508857250213623, 0.1035452857613564, 0.4377000033855438, -0.3659011721611023, 0.3068941533565521, 0.0080246590077877, 0.2181656658649445, -0.3620592057704926, -0.0258802566677332, 0.2913214564323425, -0.0493075996637344, -0.3970623910427094, 0.5098320841789246, 0.2278779149055481, -0.1773092001676559, 0.0261757187545300, -0.2617512941360474, 0.1133040785789490, 0.7232050895690918, 0.1336544305086136, -0.0895088985562325, -0.3204487860202789, 0.1511963307857513, 0.1298601180315018, 0.2930295765399933, 0.5723120570182800, 0.3088941872119904, 0.6567429304122925, -1.9720780849456787, -0.0153453750535846, 0.4389370381832123, 0.1173182353377342, 0.2366864979267120, -0.4448045492172241, 0.6556184887886047, 0.0522563941776752, -0.1851977258920670, -0.0700441002845764, -0.0811178609728813, 0.2722325921058655, 0.4865672588348389, -0.5333278179168701, 0.3204921782016754, -0.3790344595909119, 0.0590260773897171, 0.1325271278619766, -0.0028796428814530, -0.0373108424246311, -1.3316590785980225, -0.0350106395781040, -0.2375126332044601, -0.8232094645500183, 0.0157628990709782, 0.1378357857465744, -0.0647532343864441, -0.1554747372865677, -0.1448282599449158, -0.5150024294853210, -0.0499087087810040, 0.1254903525114059, 0.2149526923894882, -0.2977100014686584, -0.8559161424636841, -0.1409513354301453, -0.3001850545406342, -0.1314000189304352, -0.2891640663146973, 0.1559268832206726, -1.6776478290557861, 0.0411537960171700, -0.3320151865482330, 0.3401792645454407, 0.3234294354915619, -0.0658826529979706, 0.0455322042107582, 0.0544393137097359, 0.0123880766332150, -0.2576116621494293, 0.2959222495555878, 0.0406242273747921, -0.2247340232133865, 0.1036858782172203, 0.2028011828660965, -0.3611091673374176, 0.6062670350074768, 0.0636648312211037, 0.5123313069343567, -0.0584323331713676, 0.2867193222045898, 0.0015707185957581, -0.0381147824227810, -0.1083830967545509, -0.0479132011532784, 0.2235604375600815, 0.2055053412914276, 0.0069824941456318, -0.2170693874359131, 0.1401717066764832, -0.1471875160932541, -0.2871180176734924, -0.4091134071350098, -0.0258152522146702, -0.3673837780952454, 0.2216000407934189, 0.3667435050010681, -0.2829442918300629, -0.2106451988220215, 0.3213482201099396, 0.1293984651565552, -0.0586696937680244, -0.1078949794173241, -0.0684012025594711, -0.4771726429462433, 0.0815324634313583, 0.4221727550029755, -0.2068246603012085, 0.0443090237677097, 0.0035774377174675, -0.2988656163215637, 0.5609533190727234, -0.2628394961357117, -0.1408315449953079, -0.1501787304878235, 0.2789047658443451, 0.2223242968320847, 0.1056636348366737, 0.0577412508428097, 0.4306344091892242, 0.2562437057495117, 0.2575643062591553, 0.3954683542251587, 0.2300754636526108, 0.3329193294048309, 0.0636534169316292, 0.4893406033515930, 0.2174575328826904, 0.3095505237579346, -0.4247983396053314, -0.6288237571716309, -0.0381891205906868, -0.1983968019485474, -0.1327080279588699, 0.3387010395526886, 0.0273342635482550, 0.1947738379240036, 0.0565376952290535, -0.0281762275844812, 0.3960632383823395, -0.0712380334734917, -0.1324227154254913, -0.3747363686561584, 0.1604558527469635, -0.0670208856463432, -0.1933794468641281, -0.0684536322951317, -0.0675793960690498, -0.1610304117202759, -0.0473367534577847, -0.4286346733570099, -0.1096087545156479, 0.2799437940120697, -0.2063862532377243, 0.3680576384067535, 0.0479766316711903, -0.2150020897388458, 0.2519721090793610, 0.3200107812881470, -0.1646614521741867, 0.4744015634059906, 0.0594099797308445, -0.5290401577949524, 0.0982673242688179, 0.0094693368300796, -0.1733386218547821, 0.6488986611366272, 0.3583239018917084, -0.2093164324760437, 0.2390739470720291, 0.0517883747816086, -0.3839697539806366, 0.3758606314659119, -0.2419888824224472, 0.2735279500484467, 0.1554680168628693, 0.4577043056488037, 0.2568134665489197, -0.1029968708753586, 0.0654840245842934, -0.5096512436866760, 0.1350793391466141, -0.0785455033183098, 0.3425291478633881, 0.2123334407806396, -0.0239866469055414, 0.0320241078734398, 0.0071482360363007, -0.3833447992801666, 0.1232984364032745, -0.4016370773315430, 0.0515609085559845, -0.0000044224916564, 0.1992873251438141, 0.1055597066879272, -0.0030125353951007, 0.1991462260484695, 0.4501043260097504, 0.1086468547582626, -0.1424072831869125, 0.1400675475597382, -0.0760147497057915, 0.3963522017002106, -0.0709934309124947, -0.1500698328018188, 0.0027269509155303, -0.1494647711515427, 0.0728900656104088, -0.3323303461074829, 0.2227328419685364, 0.3300022482872009, 0.5440678596496582, 0.2214032560586929, -0.3613280951976776, -0.4310631453990936, -0.2430471628904343, 0.4667810797691345, 0.0878425016999245, -0.3939323127269745, 0.3464806973934174, -1.4062542915344238, -0.2640350759029388, -0.0294673219323158, 0.5107141137123108, 0.0139834024012089, -0.0458911582827568, 0.0740978792309761, 0.1727858334779739, -0.0748629197478294, -0.0050320215523243, 0.0640586391091347, -0.2289922982454300, 0.1718635857105255, -0.3879261016845703, 0.8269196152687073, 0.3143168985843658, -0.7171477079391479, -0.0422888509929180, -0.1750087887048721, 0.1632566899061203, -0.4521544575691223, 0.3289004266262054, 0.1713549047708511, 0.6195608973503113, -0.0882547274231911, -0.6232352256774902, -0.0106774801388383, 0.1708274185657501, 0.0695622339844704, -0.2368908226490021, 0.2030463218688965, 0.4410889148712158, 0.2538117766380310, 0.1952315717935562, 0.3694443404674530, 0.1411644518375397, 0.2594088017940521, -0.1861163079738617, -0.2116210758686066, -0.5706638097763062, -0.4946641027927399, -0.3534368574619293, 0.0213510878384113, 0.1352813243865967, 0.3639015555381775, 0.0971376523375511, -0.1032616347074509, 0.1597624123096466, 0.0083581525832415, 0.2644356191158295, 0.1320328265428543, -0.0236374922096729, 0.5472899079322815, -0.6663528680801392, -0.4716364145278931, -0.3163470923900604, 0.4028314054012299, 0.2195758372545242, 0.2775184810161591, -0.1019305288791656, 0.2152887433767319, -0.4265080690383911, 0.3748714923858643, -0.0250177867710590, -0.2759782075881958, 0.0687220916152000, -0.0010095719480887, 0.7562479972839355, -0.0682462006807327, 0.5491725802421570, -0.0390507578849792, -0.1537488251924515, -0.0361416675150394, -0.2186748981475830, 0.1588661968708038, 0.0414684861898422, 0.0002907899324782, 0.0948114916682243, 0.4179924726486206, -0.4309787750244141, 0.4972326159477234, 0.0737035796046257, 0.4674850404262543, -0.1918204724788666, 0.1578909754753113, -0.1996432691812515, -0.0446947552263737, 0.0435692444443703, 0.4494350552558899, 0.2288656532764435, 0.1585482954978943, -0.0729700997471809, -0.3584046363830566, -0.0742403790354729, -0.4174832105636597, -0.2327220290899277, -0.9426042437553406, 0.1530810296535492, -0.3673398196697235, 0.1940308064222336, 0.5255420207977295, -0.1750747710466385, -0.0405701026320457, -0.0652145519852638, 0.0465237833559513};
#endif

#endif
