//Numpy array shape [57, 32]
//Min -1.753026366234
//Max 1.044320225716
//Number of zeros 0

#ifndef W2_H_
#define W2_H_

#ifndef __SYNTHESIS__
dense1_weight_t w2[1824];
#else
dense1_weight_t w2[1824] = {-0.0270568784326315, 0.0163224339485168, -0.0102364392951131, 0.0253359060734510, -0.0078224027529359, -0.0113306231796741, -0.0471723042428493, 0.0134493801742792, 0.0301437806338072, 0.0214409176260233, -0.0230156257748604, 0.0064037516713142, -0.0143342912197113, -0.0007414768333547, -0.0059666247107089, 0.0004064175300300, -0.0322712771594524, 0.0175111312419176, 0.0187145825475454, 0.0401676259934902, 0.0331909544765949, 0.0284234900027514, 0.0465708561241627, -0.0035725312773138, 0.0198359303176403, -0.0243666991591454, -0.0009658088674769, -0.0117745148018003, -0.0117393732070923, 0.0155452322214842, -0.0418935231864452, 0.0241580922156572, -0.1530804336071014, -0.1781657636165619, -0.0598700419068336, 0.0516660548746586, -0.2448256909847260, -0.1075750887393951, -0.0561499968171120, 0.3510701060295105, -0.0937939658761024, 0.1600673198699951, -0.0414496250450611, -0.1454499810934067, 0.2834898829460144, 0.1436020284891129, -0.4217603206634521, -0.0667697861790657, 0.3304998576641083, -0.0696534290909767, -0.0649721920490265, -0.3116794526576996, -0.2118334174156189, -0.0080838119611144, -0.3065237104892731, 0.1877228766679764, -0.0544801168143749, -0.3893507719039917, -0.0796930044889450, -0.0209848880767822, 0.3239891231060028, 0.4195810258388519, -0.0371451228857040, 0.1133100539445877, -0.0226614661514759, 0.0073188808746636, -0.0188162308186293, 0.0005363898817450, 0.0080452691763639, -0.0363407842814922, -0.0493386872112751, 0.0390792302787304, 0.0881910398602486, 0.0211863610893488, -0.0234340466558933, -0.0293520949780941, 0.0075425230897963, 0.0085931327193975, -0.0085384231060743, -0.0742051377892494, 0.0334840714931488, 0.0185146238654852, -0.0001087709679268, 0.0072847832925618, 0.0272953696548939, -0.0591427944600582, -0.0493074171245098, 0.0681440234184265, 0.0228516850620508, -0.0170108657330275, -0.2099648118019104, -0.0289038531482220, -0.0320001728832722, 0.0676618814468384, -0.0283545795828104, -0.0037509007379413, -0.0090354774147272, -0.0522466339170933, 0.0110953785479069, -0.0039980346336961, 0.0156688522547483, -0.0548360459506512, -0.0514649003744125, -0.0095259398221970, 0.0261996444314718, 0.0114748291671276, 0.2980978190898895, -1.4916485548019409, -0.0029203435406089, -0.0549774803221226, -0.0536428503692150, -0.0075178532861173, 0.0718272998929024, 0.0287292767316103, 0.0403850413858891, 0.1314502805471420, 0.0929752290248871, 0.0142064718529582, 0.0549388527870178, 0.0813569724559784, 0.0524825900793076, 0.0167496744543314, -1.2890787124633789, 0.0178227759897709, -0.0006311744218692, 0.0362596921622753, -0.3912506699562073, 0.0728750601410866, -0.0403101816773415, 0.0475640334188938, 0.0220735743641853, 0.1262199729681015, 0.0244845133274794, 0.0811604559421539, -0.0119250854477286, -0.0437641479074955, -0.0237051006406546, 0.0062210317701101, 0.0666445493698120, -0.0369485132396221, 0.0420471504330635, 0.0007036437164061, 0.0363397747278214, -0.0910324826836586, -0.0114531992003322, 0.0645131915807724, 0.0130696762353182, 0.0748207345604897, 0.0150841781869531, 0.0863166227936745, 0.0984311029314995, -0.0011022643884644, 0.1704080551862717, -0.0129957208409905, 0.0138232717290521, 0.0294725522398949, -0.0024554396513849, 0.0087395710870624, -0.0648815110325813, 0.0079178437590599, 0.0178970694541931, 0.0013145699631423, -0.0318560451269150, -0.0002762166841421, -0.0404527001082897, 0.0870077162981033, 0.0537857115268707, -0.0208766628056765, -0.1325819343328476, -0.0273536816239357, -0.0418215915560722, 0.0881889089941978, -0.2845270037651062, -0.0093904109671712, -0.0074126822873950, 0.1339036971330643, 0.0494158454239368, 0.0015593389980495, -0.0373564101755619, -0.0360276438295841, -0.1170973032712936, -0.0639790743589401, 0.0198803674429655, -0.0950140953063965, 0.0939476191997528, 0.0550679489970207, 0.0504216141998768, -0.0848372802138329, 0.0006663789390586, 0.0032929766457528, 0.0486511290073395, -0.0178376343101263, -0.0083423042669892, -0.4228579401969910, 0.3549636602401733, -0.1471476107835770, 0.3782054483890533, 0.6949713826179504, -0.3997208774089813, 0.6655635237693787, 0.3607525229454041, -0.2267249077558517, 0.1005167290568352, -0.4063421785831451, -0.6156325340270996, -0.2256989330053329, -0.1737635582685471, 0.1233784109354019, -0.8863916397094727, 0.4729129076004028, 0.4794214069843292, -0.7068311572074890, -0.0558156929910183, -0.0617872104048729, -0.0772418752312660, -0.1210823878645897, -0.1658099740743637, 0.5278578400611877, -0.3427253067493439, -0.7206918597221375, -0.2410937696695328, -0.1270661205053329, -0.0106999622657895, -0.5136274099349976, 0.0556861683726311, -0.1814738512039185, -0.0101730423048139, 0.0655954852700233, 0.2920467853546143, -0.1024803221225739, -0.0068507227115333, -0.1085242331027985, 0.0719468593597412, -0.0142193250358105, 0.1795494407415390, -0.0254464447498322, -0.0895080417394638, -0.0634271502494812, 0.0134194120764732, 0.0402895212173462, -0.0721858739852905, 0.0864807516336441, 0.3364899456501007, 0.0310523454099894, 0.0656313076615334, -0.0187838058918715, 0.0107664624229074, 0.1837798804044724, 0.0279761310666800, -0.1321718245744705, 0.0170303210616112, -0.0125966062769294, -0.1451171785593033, 0.0283074118196964, -0.1789554804563522, -0.0258256848901510, 0.2257544100284576, -0.0669521987438202, 0.0203237347304821, 0.0417919047176838, 0.0546634681522846, 0.0476300083100796, 0.1375726908445358, -0.0536932200193405, -0.0587098523974419, 0.1126879081130028, 0.7147301435470581, 0.0160741228610277, -0.0184729900211096, 0.0719756409525871, -0.3074475824832916, 0.3579539656639099, 0.1908043175935745, -0.0961752533912659, 0.0716401711106300, 0.1347533017396927, -0.0431212075054646, 0.2967632710933685, 0.1027363911271095, 0.2222404927015305, -0.0624683536589146, -0.0629320219159126, 0.0407850705087185, -0.0084426281973720, -0.1006081849336624, 0.1203341037034988, 0.0356261730194092, -0.0081482408568263, -0.2105864882469177, -0.1488788276910782, 0.3727948069572449, 0.2040944546461105, -0.0988932177424431, -0.2117499709129333, -0.0748151242733002, 0.1016899794340134, -0.0193588994443417, 0.0532484054565430, -0.5157780051231384, -0.1004918962717056, -0.4079234898090363, -0.1969394087791443, -0.3439438939094543, 0.7733555436134338, -0.3068977296352386, 0.0518352799117565, 0.0602261349558830, -0.3401764333248138, 0.0990562811493874, 0.4765812456607819, -0.5748243927955627, 0.2763070762157440, -0.0574660263955593, 0.8205256462097168, -0.2411680221557617, 0.1846875101327896, 0.0294885989278555, 0.7320479750633240, -0.3057909309864044, 0.6489550471305847, -0.0525855496525764, 0.0584044307470322, -0.1082163378596306, -0.0978719145059586, -0.0642316415905952, -0.0097055891528726, -0.0323299020528793, -0.1309962421655655, 0.1631294637918472, 0.0018213144503534, 0.0610009580850601, 0.1569370627403259, -0.0113356159999967, 0.0642473846673965, -0.0333588421344757, 0.0156246377155185, -0.0569832697510719, -0.0612365752458572, -0.1269801259040833, 0.0138320969417691, -0.1094239056110382, -0.0048362188972533, 0.0353639237582684, -0.0790038928389549, -0.0276986956596375, -0.0025983843952417, -0.0197871830314398, 0.2376405298709869, 0.2158459424972534, 0.0566468387842178, -0.0310391392558813, 0.0417028218507767, -0.1478569209575653, -0.1884906142950058, -0.1004452481865883, -0.1499880999326706, -0.2115302681922913, -0.0247722342610359, 0.3062751293182373, 0.0699512064456940, -0.0149392187595367, 0.0462771430611610, 0.0176868569105864, -0.0496490076184273, 0.0016794176772237, -0.0675668939948082, 0.1113638430833817, 0.0086019793525338, 0.0234864335507154, 0.0486433729529381, -0.1094515696167946, -0.0387165620923042, 0.1929601281881332, 0.1126979365944862, -0.0035627926699817, -0.3108632266521454, -0.0091871116310358, -0.0380434691905975, -0.0582491122186184, 0.1916281729936600, 0.0416035577654839, -0.0480874478816986, -0.1723439246416092, -0.0193971171975136, -0.1057927161455154, 0.5110742449760437, 0.3005187809467316, -0.1891662627458572, -0.1510057747364044, -0.0053907171823084, -0.1441536694765091, -0.3137919604778290, 0.0870983600616455, 0.3490763902664185, -0.1256071180105209, -0.2239666879177094, -0.4911836087703705, -0.2270489186048508, -0.0469861589372158, 0.4375950694084167, -0.3723013401031494, 0.5830838084220886, -0.1264640241861343, -0.2072479426860809, -0.0509022288024426, 0.1361575871706009, -0.1748642176389694, -0.1504068225622177, -0.1357236802577972, 0.0780967473983765, 0.0955196917057037, -0.0175427570939064, 0.5546557307243347, -0.4081577360630035, 0.1214570328593254, 0.5438358187675476, -0.0819286406040192, 0.2164609730243683, 0.1799732893705368, -0.0000650051297271, -0.0112675717100501, 0.5165390968322754, 0.0227856282144785, -0.0760147273540497, -0.0747768431901932, 0.1591965109109879, -0.0011165303876624, 0.3801766037940979, 0.1850097328424454, 0.1239199638366699, 0.0163625795394182, 0.1276076287031174, -0.1019516140222549, -0.0219127144664526, -0.1421342641115189, 0.3678377866744995, 0.5261133313179016, -0.0797761604189873, -0.1149316132068634, 0.1643247157335281, 0.1174338832497597, 0.0851913318037987, 0.0169415604323149, -0.0039878692477942, -0.1047475710511208, 0.1954684853553772, 0.2119631767272949, -0.2154984176158905, 0.1686949431896210, -0.1653487086296082, 0.3965620100498199, 0.0724604353308678, 0.0176214873790741, 0.3340038955211639, 0.0194009002298117, -0.1113571673631668, -0.1982994228601456, 0.1236835941672325, -0.0123937427997589, 0.3639313578605652, 0.2654258310794830, 0.0309490673243999, -0.1233616769313812, -0.2845479846000671, -0.1592357307672501, 0.1176675111055374, 0.0461430065333843, 0.3464768230915070, 0.0095244254916906, 0.3408064842224121, 0.0132916308939457, -0.0176125578582287, 0.1223223879933357, -0.1899120807647705, 0.0146622359752655, 0.2043132483959198, -0.2925365567207336, 0.5914320945739746, 0.0556480176746845, 0.1376191377639771, 0.0070925066247582, 0.0456434264779091, -0.0394855886697769, 0.0288888588547707, -0.0457430891692638, -1.7530263662338257, -0.0257939957082272, 0.0093962838873267, 0.0001727835915517, 0.0181414950639009, -0.4296112656593323, -0.0095405364409089, 0.0607116036117077, 0.0192491915076971, 0.0023505238350481, -0.8364513516426086, -0.1850754022598267, 0.0032713101245463, -0.0335904732346535, 0.0324976891279221, -0.1213935688138008, 0.0331409052014351, 0.0167623888701200, -0.1935245990753174, -0.0531533434987068, -0.0207261778414249, 0.0106220077723265, -0.0277350675314665, -0.0167436990886927, 0.0329721383750439, 0.0466983094811440, -0.0346835516393185, -0.1427211612462997, 0.0070451991632581, 0.0192713122814894, -0.0289258938282728, -0.0089155333116651, -0.0137363402172923, -0.0738773196935654, 0.0670966878533363, -0.0503161996603012, 0.0302545223385096, 0.1168043464422226, 0.0765525251626968, -0.1859538108110428, -0.0450967103242874, 0.0429415814578533, 0.0362711921334267, -0.0110972980037332, -0.0098530659452081, -0.0069911917671561, -0.0383505262434483, 0.1260766685009003, -0.1059226244688034, 0.0304359141737223, 0.0498178005218506, 0.1619752645492554, -0.0557310096919537, -0.0816823393106461, 0.0005636122077703, -0.0012535395799205, 0.1093787476420403, -0.1746477931737900, 0.0580940470099449, -0.0481468811631203, 0.1081444025039673, -0.0099781202152371, 0.0163894295692444, -0.0700179263949394, -0.0554187744855881, -0.1356213092803955, -0.0058550550602376, -0.1708025038242340, 0.0130243245512247, 0.0846404209733009, -0.0511611327528954, 0.0713892430067062, -0.0528828464448452, 0.0562773793935776, 0.0020319886971265, -0.0053086010739207, 0.0406381562352180, 0.0460217334330082, -0.0366143025457859, -0.0041818278841674, 0.1030906513333321, 0.1118114292621613, -0.0054820161312819, 0.1033095270395279, -0.0212799794971943, 0.0344613119959831, -0.1235008537769318, 0.0060120089910924, 0.0915382131934166, -0.0182238649576902, 0.0194666720926762, 0.4486092627048492, 0.0566044151782990, -0.0876158475875854, -0.1448296904563904, 0.4825316071510315, -0.1363774836063385, -0.1970063745975494, -0.3755164146423340, -0.2477742731571198, 0.6310045719146729, 0.2324943691492081, 0.0220999494194984, -0.1454161107540131, 0.3909666240215302, -0.8126996159553528, 0.0098813977092505, -0.1854349523782730, -0.5343040823936462, 0.0499516054987907, 0.7129890918731689, -0.5769129395484924, -0.4808242917060852, 0.6154062151908875, 0.2490796595811844, 0.2614129483699799, -0.1664634197950363, -0.4854974448680878, 0.7314888834953308, 0.0209084395319223, 0.0492506921291351, 0.1177223548293114, -0.1814632117748260, 0.0941032469272614, -0.1719409823417664, 0.0157403163611889, 0.0054907849989831, 0.1981912851333618, -0.1371453106403351, -0.2032558023929596, 0.0070084901526570, 0.1099724173545837, -0.1015708819031715, -0.4810394644737244, -0.5425117611885071, -0.0238458178937435, 0.0434219725430012, 0.0115349143743515, -0.1415787190198898, 0.0337978750467300, -0.0064266659319401, 0.1006076037883759, -0.1167544573545456, -0.1390735954046249, 0.0232350472360849, 0.1715745329856873, 0.0968593880534172, 0.0344180017709732, -0.0420212857425213, 0.0641561076045036, 0.1886523067951202, 0.1097396388649940, 0.0126180043444037, -0.4492005109786987, 0.0277968607842922, 0.0058945273049176, -0.2125926464796066, 0.1112307906150818, -0.0479478091001511, 0.0838233754038811, 0.1505724489688873, -0.1263252943754196, 0.2977023422718048, 0.1039886251091957, -0.2759373486042023, -0.0552293248474598, 0.1001144573092461, -0.0091385161504149, 0.2750745713710785, -0.0529535859823227, 0.0207112487405539, 0.2913067936897278, 0.0246146917343140, -0.0307569652795792, -0.2070929408073425, 0.0722454711794853, 0.0388555303215981, 0.0123624568805099, -0.0540298186242580, 0.1994656175374985, 0.0169098265469074, -0.0054172221571207, 0.0167994312942028, 0.0372907705605030, -0.0983167588710785, -0.0649037063121796, -0.0022519605699927, 0.0512262955307961, -0.1373479068279266, 0.6299723386764526, 0.3352267444133759, 0.2613008618354797, 0.0372918918728828, 0.0642063468694687, -0.0213778875768185, -0.2590892016887665, -0.5294764637947083, -0.4698773920536041, -0.1841737031936646, 0.0631871894001961, 1.0443202257156372, -0.2206394821405411, -0.2638439536094666, 0.4046907424926758, -0.2078484594821930, -0.5808792710304260, 0.2644808888435364, 0.2571984827518463, -0.0296168085187674, -0.3559589087963104, 0.0915732011198997, -0.1404058188199997, 0.2949973940849304, 0.1156204417347908, 0.0032274445984513, 0.3507155179977417, 0.6136032938957214, -0.2917040884494781, -0.0829435810446739, -0.1981720477342606, 0.0840461999177933, -0.1599741578102112, 0.0667150393128395, -0.2584960758686066, -0.1098769605159760, -0.0735896900296211, 0.2003732174634933, 0.2143575251102448, 0.3067136704921722, 0.2017619311809540, 0.0666341781616211, -0.0050330762751400, -0.2551741003990173, 0.0309312809258699, 0.1006692126393318, 0.0805705264210701, 0.0294984225183725, 0.2374050170183182, -0.1294071078300476, 0.2771186232566833, -0.0227151364088058, 0.0642891153693199, 0.1697448790073395, 0.1026874259114265, 0.1536182314157486, -0.2444772571325302, 0.3165694177150726, 0.2282948046922684, 0.0299336854368448, 0.0120743224397302, -0.1474203169345856, -0.2478783130645752, 0.0573070757091045, 0.0251999758183956, 0.3837394714355469, 0.2078211903572083, 0.2642051875591278, -0.2048819065093994, 0.0860054939985275, 0.0628980621695518, 0.0955176502466202, -0.2617889344692230, -0.0060788136906922, 0.0174426026642323, -0.0735860317945480, 0.0504033304750919, -0.0114461546763778, -0.0122229736298323, 0.0380358658730984, -0.0770459100604057, 0.0848526358604431, -0.1236721351742744, -0.0036753471940756, 0.0906334370374680, -0.3969038426876068, -0.1736343801021576, 0.0947285518050194, -0.2627554833889008, 0.4014256000518799, -0.3765875697135925, 0.1624167412519455, -0.1936863660812378, -0.2540061473846436, -0.1865136623382568, -0.1142166107892990, -0.0779219716787338, 0.1047278940677643, -0.4791026115417480, -0.3905917108058929, 0.5416177511215210, -0.0401998311281204, -0.2630842626094818, -0.3383890986442566, 0.1462214142084122, -0.7323837876319885, 0.0379619039595127, -0.0963707342743874, -0.2686898708343506, -0.0868314653635025, -0.1254012435674667, -0.0811070203781128, -0.0247367173433304, -0.1650541126728058, -0.1371286809444427, -0.0919991582632065, -0.2362552434206009, 0.5183683037757874, 0.6247205138206482, 0.3779560327529907, 0.0717982128262520, -0.1676347106695175, 0.0707130953669548, 0.7744074463844299, 0.0886014699935913, -0.2830234467983246, 0.2628730237483978, 0.1362077742815018, -0.3098609447479248, 0.1643232256174088, 0.0166014209389687, -0.2829413414001465, -0.2624844908714294, 0.0117343934252858, -0.4017219543457031, -0.2495134472846985, 0.0024520980659872, -0.5208579897880554, -0.1050793975591660, -0.0950406044721603, 0.2156755179166794, -0.0846905857324600, 0.1215015351772308, 0.2310760617256165, -0.4048691689968109, -0.0471499338746071, -0.2031049430370331, -0.0116081982851028, 0.1353141069412231, -0.1114972680807114, 0.1449336856603622, 0.1254826337099075, 0.3570412397384644, 0.0051297396421432, -0.0251911450177431, -0.1250819712877274, -0.1780907958745956, -0.0108620924875140, -0.1288756430149078, 0.0546231530606747, 0.2222227007150650, -0.1755106598138809, -0.1326822042465210, 0.0900866538286209, 0.2385031282901764, 0.0115472208708525, -0.1687553972005844, 0.0601969063282013, 0.1024619117379189, -0.3885037302970886, 0.3287382423877716, -0.2038284689188004, -0.1867548376321793, 0.0348960012197495, 0.0801857337355614, 0.1133532524108887, -0.2663986086845398, -0.0910763740539551, -0.0751492455601692, -0.0160271879285574, 0.0914766862988472, -0.0183478668332100, 0.1642231345176697, -0.0933210626244545, -0.0752013698220253, 0.1935672014951706, 0.2234350889921188, -0.0507309064269066, 0.0856361463665962, 0.0452136918902397, -0.0670251473784447, 0.0175783839076757, 0.0213383007794619, 0.0294670984148979, 0.0141807366162539, 0.1098086312413216, -0.0435286797583103, 0.0052878134883940, 0.0637099072337151, 0.0171167906373739, 0.0338121689856052, 0.0098777581006289, 0.0276724323630333, 0.0025495938025415, -0.0025010001845658, -0.0177719257771969, -0.0112376371398568, -0.0022057632450014, 0.0226162280887365, 0.0387929901480675, 0.0065804221667349, 0.0213096812367439, 0.1208168938755989, -0.0248677693307400, -0.0215771291404963, -0.0250555537641048, 0.0298090539872646, 0.0120612075552344, -0.0060339099727571, 0.0205305833369493, -0.0508323758840561, 0.0288739316165447, -0.0228660516440868, -0.0070544420741498, 0.0014762770151719, 0.0620058476924896, 0.0107865985482931, -0.0086758388206363, 0.0090260347351432, -0.0124802170321345, 0.0173584129661322, -0.0019258351530880, 0.0025730435736477, 0.0083642695099115, -0.0112861348316073, -0.0303926710039377, 0.0208089035004377, -0.0318651832640171, -0.0005828750436194, -0.0019899094477296, 0.0080899624153972, 0.0089671136811376, -0.0169956739991903, -0.0030893324874341, 0.0270966105163097, 0.0310291778296232, 0.0316305905580521, -0.0022803249303252, -0.0557633750140667, 0.0043453508988023, -0.0034392990637571, 0.0462520308792591, -0.0362584553658962, 0.0200780499726534, -0.0274289045482874, 0.0825245827436447, 0.0657095685601234, 0.0012953815748915, 0.0077740992419422, 0.0918155014514923, -0.0614886321127415, -0.0383856743574142, -0.0389404743909836, 0.0054562450386584, 0.1792514771223068, 0.0788486227393150, 0.1195428445935249, 0.0184579193592072, -0.0069794892333448, 0.0163494739681482, -0.0687851384282112, -0.0220667142421007, -0.0168069209903479, 0.0067166225053370, -0.0981556773185730, 0.0147352693602443, -0.0239812508225441, 0.0014161971630529, -0.0167681090533733, -0.0005230054375716, 0.1096605658531189, 0.0849717706441879, -0.0095545556396246, -0.1008571684360504, 0.0559600703418255, -0.0095891859382391, -0.0551811866462231, 0.0281831864267588, 0.1419959068298340, 0.0074091381393373, -0.0857369154691696, -0.1960614174604416, 0.2154391407966614, 0.1163843721151352, 0.0271405074745417, 0.0542751438915730, 0.1238784566521645, -0.0425061620771885, -1.2037863731384277, -0.0524874888360500, -0.2085242122411728, -0.0414814278483391, -0.3933046162128448, -0.0673845335841179, 0.0256263017654419, 0.0909493491053581, 0.1944183856248856, 0.0071336627006531, 0.2910875976085663, -0.0107795707881451, -0.2197559326887131, -0.1397022902965546, -1.4443725347518921, 0.0467927418649197, 0.0127439266070724, 0.0962902233004570, 0.0436840392649174, 0.0540552251040936, -0.1346152275800705, -0.1962309777736664, 0.0253007039427757, -0.0033089113421738, 0.2386033982038498, -0.0025569591671228, 0.0656948536634445, -0.0343474410474300, -0.0416571311652660, -0.0649360418319702, 0.0650541335344315, 0.1935267001390457, 0.0623985230922699, -0.0631016343832016, 0.0230922270566225, 0.0523277558386326, 0.1685003638267517, 0.0417897216975689, -0.0440375022590160, -0.0727424398064613, -0.0529839470982552, 0.0203878600150347, -0.0097268838435411, 0.0120149375870824, 0.0819653272628784, 0.0685828030109406, -0.0316788703203201, -0.0426911339163780, 0.1150136217474937, -0.0260210856795311, 0.0173380561172962, 0.0132980486378074, 0.5253699421882629, 0.0568792931735516, -0.0405494458973408, -0.0427003838121891, -0.1058960407972336, -0.3580039143562317, 0.0092065231874585, 0.0017529700417072, 0.3178987503051758, -0.0187390502542257, -0.6094593405723572, 0.0102827297523618, 0.1672319322824478, -0.0536465123295784, -0.0127868736162782, -0.0066683143377304, -0.0164952855557203, -0.0356266461312771, -0.0240700412541628, 0.3864923119544983, 0.3383562862873077, 0.2416460663080215, -0.0434943847358227, 0.2279714494943619, -0.1749186068773270, -0.0127349542453885, -0.0641091614961624, 0.2477052360773087, 0.2085879594087601, 0.0105240782722831, -0.0143635626882315, -0.0366150736808777, -0.2584564387798309, -0.0785408616065979, 0.1423556357622147, 0.0322062186896801, -0.0543668456375599, -0.4851664304733276, 0.0489245615899563, 0.1355255097150803, 0.0613895952701569, -0.0206223856657743, 0.2126162350177765, -0.6401179432868958, -0.4561308920383453, 0.0516435243189335, 0.5363227725028992, -0.2544309198856354, 0.0483368746936321, 0.1597736179828644, 0.0716119408607483, 0.1880189329385757, -0.0367793999612331, -0.1776989996433258, 0.5181705355644226, 0.3515394926071167, -0.3761656880378723, 0.0330552645027637, -0.6281680464744568, 0.0372763536870480, 0.2209396064281464, 0.0205370374023914, 0.0218158420175314, 0.0541355572640896, 0.3550287485122681, 0.0207671821117401, 0.0177579522132874, -0.0217914301902056, 0.0078230639919639, 0.0817912518978119, 0.0802896395325661, 0.0094403438270092, 0.0034151442814618, 0.1286356300115585, 0.0559208467602730, 0.0328679233789444, 0.0874763801693916, -0.0658780410885811, -0.5090021491050720, 0.0328718796372414, 0.2816069722175598, -0.0196348428726196, 0.1418076753616333, 0.2177454233169556, 0.0973405092954636, 0.0911392420530319, -0.1311497390270233, 0.0290597602725029, 0.0046929595991969, 0.1779995560646057, 0.0191966705024242, 0.3266834318637848, -0.0272684898227453, 0.0101432139053941, 0.1600398123264313, 0.1517893671989441, 0.0523024834692478, 0.4027262926101685, -0.0636978819966316, 0.0209488179534674, -0.0135280014947057, 0.0125233680009842, 0.0823170170187950, 0.0264259465038776, 0.0637556239962578, 0.0681379735469818, -0.6318615674972534, 0.0873602256178856, -0.0029585568699986, 0.0056996480561793, -0.0913367792963982, 0.0211100056767464, 0.2412685155868530, -0.3624557852745056, -0.0121963415294886, 0.7006400823593140, -0.3870501816272736, 0.0579411834478378, 0.0426229536533356, -0.5260302424430847, -0.0140933459624648, -0.0128601053729653, -0.0241867825388908, 0.1475129574537277, 0.0011446200078353, 0.0018720950465649, 0.7412524819374084, -0.1628790795803070, -0.3076269626617432, -0.2561520338058472, -0.0019482078496367, -0.1656985431909561, -0.1797607690095901, -0.0474497377872467, 0.1918039321899414, 0.1777208000421524, 0.4161446392536163, 0.0890258029103279, -0.5432565808296204, -0.2837870121002197, 0.1505046337842941, -0.2409653514623642, -0.0954902693629265, -0.2251525670289993, 0.0882080644369125, 0.0946807190775871, -0.1615002900362015, 0.2511356472969055, -0.2982043623924255, -0.2650161087512970, 0.5075350999832153, -0.1317423284053802, -0.0636389255523682, -0.0138764735311270, -0.0512528121471405, -0.3362178504467010, 0.4178419113159180, -0.0680036917328835, -0.3844856619834900, -0.0346010699868202, 0.4988060295581818, 0.0325244255363941, -0.1136064827442169, 0.0198281891644001, -0.0277170743793249, -0.1326352953910828, -0.0117568457499146, 0.0418803691864014, 0.0996858179569244, 0.0271698664873838, -0.1783650815486908, 0.0251417234539986, -0.0538998022675514, 0.0256844647228718, 0.7084845304489136, 0.0584326833486557, 0.0160328466445208, -0.1068673655390739, 0.0529914274811745, 0.3865340352058411, 0.1523095518350601, 0.0759917721152306, -0.0538721829652786, 0.0897005870938301, -0.0541374571621418, -0.0672455877065659, -0.0334108620882034, 0.1922965198755264, 0.2012622654438019, 0.2564424276351929, 0.0719545036554337, 0.1132696419954300, 0.0387682914733887, -0.4111054539680481, 0.1104482039809227, -0.0212354920804501, 0.0405466817319393, 0.0138052916154265, -0.0667968913912773, 0.1899090558290482, 0.0223785676062107, -0.2983832359313965, 0.2074870765209198, 0.0108462357893586, -0.0608038082718849, 0.0200857464224100, 0.0805351585149765, 0.0342946238815784, -0.8507761955261230, -0.0110980626195669, 0.0165223255753517, -0.1705576926469803, 0.2779433727264404, 0.0346328839659691, 0.2316523194313049, 0.2075946480035782, -0.0164266191422939, -0.0641375854611397, 0.0159179046750069, 0.0651583746075630, 0.0471240356564522, 0.0156748872250319, -0.2772228717803955, 0.1269710659980774, -0.3368176221847534, 0.0987066179513931, 0.1648536026477814, 0.0343459695577621, -0.1639285087585449, -0.2195506989955902, -0.1093580722808838, 0.0681238248944283, 0.3471102416515350, 0.1262612491846085, -0.6526408791542053, -0.4037808775901794, 0.1694977581501007, -0.2717661261558533, -0.3940549492835999, -0.3316329121589661, 0.0732167214155197, 0.2093771398067474, -0.1032280623912811, 0.0377673655748367, 0.0809496045112610, -0.3732964098453522, 0.4993876218795776, 0.0206445921212435, -0.0038150860927999, -0.0846541523933411, -0.2143818438053131, -0.2619923055171967, 0.2407377511262894, -0.0218697842210531, -0.1728520244359970, -0.1181076690554619, 0.2196680903434753, -0.0796103700995445, -0.0152602968737483, -0.0379743613302708, -0.0530061796307564, 0.2173630595207214, -0.0293846279382706, 0.0594909936189651, 0.1007862985134125, -0.0403624400496483, 0.0118523454293609, -0.0814337134361267, -0.0450961925089359, -0.0247246772050858, 0.7954995632171631, 0.1401499360799789, -0.2198085933923721, -0.1197680681943893, -0.0167681332677603, 0.0962031111121178, -0.0649242401123047, 0.1148690655827522, 0.0179124623537064, 0.1291657686233521, -0.0402718372642994, -0.0119320061057806, 0.1784929335117340, 0.0342608615756035, 0.2368359565734863, 0.1545231044292450, -0.1196770742535591, 0.0389204807579517, 0.0687205940485001, 0.3140468001365662, -0.0230830870568752, -0.0734185054898262, -0.1285447925329208, -0.0872149690985680, 0.0589583292603493, -0.0535253547132015, 0.0663267076015472, 0.2204849720001221, -0.2356618642807007, -0.1251139044761658, -0.0167026035487652, -0.0917564406991005, -0.1264123916625977, -0.0174611322581768, 0.4424697756767273, -0.1999267637729645, -0.0523834414780140, 0.2617349922657013, -0.1157977432012558, 0.0573638975620270, -0.1105367168784142, -0.2410412132740021, 0.0238760579377413, 0.0625212490558624, -0.0332775413990021, 0.0333976671099663, 0.0584848560392857, 0.0003103601920884, 0.2932779490947723, -0.0822952315211296, -0.5540033578872681, 0.1305902153253555, 0.2357592731714249, 0.2198107838630676, -0.0435684397816658, -0.2483788579702377, -0.0104918833822012, -0.0005885215941817, -0.0179104525595903, 0.0500213950872421, -0.4769284725189209, -0.5961747765541077, -0.0801039934158325, -0.2891824245452881, -0.5513964295387268, -0.3243218064308167, -0.0786436721682549, 0.3125349283218384, 0.0140592949464917, 0.2376766055822372, 0.1754132658243179, -0.2297057658433914, 0.4799290895462036, 0.1249267235398293, 0.0273100882768631, -0.0648143962025642, -0.0475007556378841, -0.1729196906089783, -0.1132895126938820, -0.0276252459734678, 0.0413603000342846, -0.0291603859513998, -0.0555982366204262, -0.2303907871246338, 0.0199617650359869, -0.0024486866313964, 0.0661521032452583, 0.0409143306314945, 0.0467556044459343, 0.1705880612134933, -0.0385694429278374, -0.2164980173110962, 0.0775215700268745, -0.0466266199946404, -0.0459860377013683, 0.0001981699315365, 0.1408018022775650, 0.0442696921527386, -0.1502063125371933, 0.0501044467091560, -0.0324014648795128, -0.1203106641769409, 0.0188207551836967, 0.0663980916142464, 0.0943765714764595, 0.1628815680742264, 0.0148881571367383, -0.0095562208443880, -0.0155914826318622, 0.0753548741340637, 0.0621829666197300, 0.0144929587841034, 0.1590877771377563, 0.0697435736656189, 0.0327865853905678, -0.1086809113621712, -0.0246056336909533, -0.0333672948181629, 0.0437947995960712, -0.0967013314366341, -0.0862324014306068, 0.2034747451543808, -0.0791569575667381, -0.1966378837823868, 0.0905691608786583, 0.0241556912660599, -0.0212435089051723, -0.0380481220781803, 0.0414482429623604, -0.0241015814244747, -0.1325176209211349, 0.0833899900317192, -0.0219384338706732, -0.1983175724744797, 0.0734527856111526, 0.0032528154551983, 0.1146561577916145, 0.2636449635028839, 0.0810527056455612, 0.0218258611857891, 0.1133455187082291, 0.0340445302426815, -0.0027649172116071, -0.0085433972999454, 0.0595626048743725, -0.0302066076546907, -0.7201982140541077, 0.1706067621707916, -0.1094201281666756, 0.2114555984735489, -0.1838124692440033, -0.1762866824865341, 0.0116690499708056, 0.2900185883045197, 0.1573284566402435, 0.3528350591659546, -0.0022014514543116, -0.1594632267951965, 0.0472206398844719, -0.2700113952159882, 0.0068652643822134, -0.3329272866249084, 0.0242096818983555, 0.3256497383117676, 0.1329350322484970, 0.2750870585441589, 0.4594268500804901, -0.0373900160193443, 0.3338342308998108, -0.0327688232064247, -0.0813049599528313, -0.4003219306468964, -0.2075945138931274, -0.5344074964523315, -0.8947926163673401, -0.3953388035297394, 0.0952183231711388, -0.4586786031723022, -0.0083661042153835, 0.0290820654481649, 0.2547903358936310, 0.0139542547985911, 0.0241825357079506, 0.1189000755548477, -0.0052822395227849, 0.0075594494119287, -0.0059564206749201, -0.0478103086352348, -0.0062132375314832, 0.0716822519898415, 0.0460358709096909, 0.1000481247901917, -0.1610268354415894, 0.0631783828139305, 0.2982243299484253, -0.0954491347074509, 0.0183101780712605, -0.0652317628264427, 0.0834041535854340, 0.0055960183963180, 0.0396204032003880, 0.0307759158313274, -0.0735028907656670, 0.0224558953195810, 0.0994083210825920, 0.0970722809433937, 0.0346120521426201, -0.0430886596441269, 0.0440505407750607, -0.0145984711125493, -0.1230376884341240, -0.1855667978525162, 0.0515174195170403, 0.0781504884362221, -0.0307064224034548, 0.2605765461921692, -0.0106378709897399, 0.1998953819274902, -0.0036723609082401, -0.1777490228414536, 0.0121754053980112, 0.0402179956436157, -0.0311601087450981, 0.0697167068719864, 0.2341641634702682, 0.1350441724061966, 0.0617432966828346, -0.0328950509428978, -0.0794093459844589, -0.0030439666006714, -0.0209216978400946, -0.0311364941298962, -0.0284307450056076, 0.1632051616907120, 0.0066746021620929, -0.0383660830557346, -0.1917758733034134, 0.0049708560109138, 0.1080823615193367, 0.0050845574587584, -0.0499156974256039, -0.0208180993795395, 0.1118856370449066, -0.2938992679119110, -0.5273032784461975, 0.5392687916755676, -0.1103331744670868, -0.2066184282302856, -0.1517350673675537, -0.0675492286682129, 0.1239816844463348, 0.6546984910964966, 0.2278873771429062, -0.1467259824275970, 0.2950378060340881, -0.2991434037685394, 0.0126641234382987, 0.0277931690216064, -0.3203187286853790, 0.0549769215285778, 0.0217243302613497, -0.3710598647594452, 0.5634438991546631, 0.0038391239941120, 0.0489280335605145, -0.1629958450794220, 0.0643406137824059, -0.0091166971251369, 0.0231434721499681, -0.1280505806207657, -0.4549227058887482, -0.1744338870048523, 0.3196682035923004, -0.1686466485261917, -0.1641560494899750, 0.1347490996122360, 0.1206210255622864, 0.1131941452622414, -0.1366384178400040, -0.0119892535731196, 0.0537794157862663, 0.0717823579907417, -0.1709942221641541, -0.0563251115381718, 0.2302776277065277, 0.2004693150520325, -0.0292279962450266, -0.0260085128247738, -0.0340136289596558, 0.0103439865633845, 0.0448398292064667, 0.1296932250261307, 0.1012970879673958, -0.2002955824136734, -0.0469419248402119, 0.0362222082912922, 0.0660986080765724, -0.4522615671157837, -0.0610741786658764, 0.0934520140290260, -0.0339383371174335, -0.0308190528303385, -0.1395147293806076, -0.0815314799547195, -0.0638853758573532, 0.1133030802011490, 0.0068132956512272, 0.1666396260261536, -0.0593712292611599, -0.0125694619491696, 0.1214763373136520, -0.0893738567829132, 0.0029840066563338, 0.1130264550447464, -0.0785469338297844, -0.1599549353122711, -0.3164995014667511, -0.1860257834196091, -0.0221516974270344, 0.2224331498146057, 0.0976472496986389, 0.0198797173798084, -0.4270859658718109, 0.0521385222673416, -0.0143182585015893, 0.0598092451691628, 0.0788481011986732, 0.0306677669286728, 0.1051645502448082, -0.1248807162046432, 0.0657741501927376, -0.1158742234110832, -0.0760658159852028, 0.0833544284105301, 0.0591389127075672, 0.1175193637609482, 0.1681651771068573, 0.0806681886315346, -0.2255080938339233, 0.0727149471640587, -0.2666433453559875, 0.4249345064163208, 0.0656694173812866, -0.3536745309829712, 0.5788202881813049, 0.1764436960220337, 0.5082632303237915, 0.2878246903419495, -0.0064439848065376, -0.1899121254682541, 0.0946194455027580, 0.0095588415861130, -0.1745334118604660, -0.5642032027244568, -0.2889352440834045, -0.2707659304141998, 0.2116043567657471, -0.2281195670366287, 0.0023545611184090, -0.6217018961906433, -0.2759608328342438, -0.1549267470836639, 0.5556293129920959, -0.4162465035915375, -0.1685140728950500, -0.4968329966068268, 0.0030554900877178, -0.7507553100585938, -0.1144664958119392, -0.2760040760040283, 0.0895622372627258, 0.0864872708916664, -0.0662519037723541, 0.1094760745763779, 0.0931553915143013, 0.0225276667624712, -0.0994241014122963, 0.2010393291711807, -0.0743740275502205, -0.0665625110268593, -0.1716479361057281, -0.3236832320690155, 0.0528968274593353, 0.0670518279075623, 0.0291001163423061, 0.0936421677470207, -0.0295325107872486, 0.0480221547186375, -0.1061354503035545, 0.0610287487506866, 0.0093319471925497, -0.0709161907434464, 0.1474148780107498, 0.0956227108836174, -0.1157893612980843, -0.2717904746532440, -0.0362045466899872, -0.1710533946752548, 0.1148372292518616, 0.1201267093420029, -0.2414343953132629, 0.0137438336387277, 0.2381626963615417, 0.1910668164491653, -0.0444209836423397, -0.0445310138165951, 0.1854322254657745, -0.2182450145483017, 0.0548781380057335, -0.0924061015248299, -0.0441233925521374, -0.2569713890552521, 0.0895378887653351, 0.1394547969102859, -0.0027636676095426, -0.2000804990530014, -0.1923990547657013, 0.0805479288101196, -0.1157600432634354, 0.1899102181196213, 0.1205303519964218, -0.0441882424056530, 0.0344867184758186, 0.1551494598388672, 0.1681119352579117, -0.0472572892904282, 0.1954829096794128, -0.0894872024655342, -0.0414244718849659, -0.2123840749263763, -0.1334649473428726, 0.1164480522274971, -0.2496398538351059, 0.1167007163167000, -0.4851145446300507, -0.3142541944980621, -0.2071248739957809, -0.0564850866794586, 0.4196259677410126, 0.2918832302093506, 0.2693658173084259, 0.3782816529273987, 0.3046194016933441, -1.3340140581130981, -0.2142361551523209, -0.1389686465263367, 0.9979320764541626, -0.2443055808544159, -0.2442833483219147, -0.2912327945232391, -0.2833269834518433, 0.4361799061298370, 0.8637186884880066, 0.3038332760334015, -0.5977655053138733, -0.1697354167699814, -0.1053904518485069, -0.3261659741401672, -0.1360281407833099, -0.1787773817777634, -0.1767295897006989, -0.2755094468593597, -0.2604471445083618, -0.2218980789184570, -0.3809214532375336, -0.2175863534212112, 0.0673894360661507, 0.1105374246835709, -0.1698207259178162, 0.1559050679206848, 0.1646040976047516, 0.3613605797290802, -0.1379051357507706, 0.0616812892258167, 0.0587314441800117, 0.1523643434047699, -0.0092639606446028, 0.0889630466699600, 0.0802627578377724, -0.1066242903470993, 0.0108330491930246, 0.1431361138820648, 0.1289771497249603, -0.0131259812042117, -0.1412652879953384, 0.0535946637392044, -0.1130491718649864, 0.0980696827173233, 0.2227848619222641, -0.0202203523367643, -0.1416914463043213, -0.1244994550943375, 0.1720196157693863, 0.1067439466714859, 0.1007130369544029, -0.0277404803782701, -0.0019315485842526, 0.0117031047120690, 0.0841973125934601, 0.3992563486099243, -0.1109830588102341, 0.3456068634986877, -0.0404441840946674, 0.1544987261295319, -0.0262027308344841, 0.3351874947547913, -0.2226915359497070, 0.0176059287041426, -0.4261677265167236, -0.1354814916849136, 0.1736947894096375, -0.1272620707750320, 0.0225476529449224, 0.1007143035531044, -0.0517238266766071, -0.0168501250445843, -0.4111737608909607, 0.0019349678186700, -0.1488492041826248, 0.1243176981806755, -0.0755448713898659, 0.0294002406299114, -0.2176228761672974, -0.0535606853663921, 0.0284258183091879, 0.0130675463005900, -0.0633046403527260, 0.0446542650461197, -0.3030795753002167, -0.0781098604202271};
#endif

#endif
