//Numpy array shape [64]
//Min -0.354924172163
//Max 0.610263288021
//Number of zeros 0

#ifndef B5_H_
#define B5_H_

#ifndef __SYNTHESIS__
dense2_bias_t b5[64];
#else
dense2_bias_t b5[64] = {-0.2671005725860596, -0.2222969830036163, 0.2622536122798920, -0.0429603941738605, -0.2077810317277908, 0.1193831339478493, -0.2170376628637314, 0.2147909253835678, 0.1173147931694984, 0.1788555234670639, -0.0698668956756592, 0.2061315923929214, 0.1480533182621002, 0.2062656730413437, 0.1287370473146439, 0.2466576099395752, -0.0249749757349491, 0.1097654998302460, 0.0170401874929667, 0.2766113579273224, -0.1677397638559341, 0.3638880848884583, -0.1239209324121475, -0.0510918907821178, 0.2552960515022278, -0.1138168349862099, 0.1251143813133240, 0.0870022401213646, -0.0898630693554878, -0.0105527322739363, 0.1747466027736664, -0.0229148752987385, 0.2119378298521042, 0.0766897797584534, -0.0284711327403784, -0.1139260381460190, 0.0620684511959553, -0.2075781971216202, 0.3787356615066528, 0.1012212187051773, 0.2613458037376404, 0.2515402734279633, 0.1270178109407425, 0.3346205353736877, -0.2943409383296967, 0.3635339438915253, 0.1499142348766327, 0.1897081434726715, 0.2056761384010315, 0.2722806036472321, -0.3549241721630096, -0.3494656980037689, 0.0833226814866066, 0.0237100571393967, 0.3538171052932739, 0.6102632880210876, 0.1264607459306717, 0.4786185324192047, 0.1504983454942703, 0.1955697834491730, -0.0963364914059639, 0.0087712751701474, 0.2064466774463654, 0.1159651726484299};
#endif

#endif
