//Numpy array shape [57, 128]
//Min -0.746474683285
//Max 0.579271078110
//Number of zeros 0

#ifndef W2_H_
#define W2_H_

#ifndef __SYNTHESIS__
dense1_weight_t w2[7296];
#else
dense1_weight_t w2[7296] = {-0.0640830621123314, -0.0612567365169525, 0.0018920161528513, 0.0776146501302719, 0.0608565881848335, -0.0148977860808372, 0.1610860079526901, -0.1139481365680695, 0.0917749181389809, -0.0492677874863148, 0.1884984523057938, 0.0554647855460644, -0.0633606687188148, -0.0174756310880184, 0.0495028197765350, 0.0521371662616730, 0.0645537674427032, 0.0090744867920876, -0.0067341402173042, -0.0510484203696251, -0.0363734476268291, 0.0023094178177416, 0.0059556020423770, 0.0790705457329750, -0.0615940429270267, -0.0216343179345131, -0.0170914661139250, 0.0039246571250260, -0.0175376348197460, -0.0952807962894440, -0.0365005321800709, 0.0012820251286030, 0.0566280782222748, 0.1252380162477493, -0.0613815970718861, 0.0097759785130620, -0.0695822015404701, 0.0103715853765607, 0.0121801132336259, 0.0053266831673682, 0.0478006675839424, -0.0910287201404572, -0.1361120939254761, -0.0826114416122437, -0.0068514305166900, -0.0007813464617357, -0.0314551331102848, 0.2206528484821320, -0.0049732197076082, 0.0035478791687638, 0.0609760209918022, 0.0141351660713553, -0.0080492002889514, 0.0510434694588184, -0.0460424534976482, -0.0410490185022354, -0.0012643127702177, -0.0202648881822824, -0.0262633468955755, 0.0539402440190315, 0.0368538647890091, 0.1877728998661041, -0.1477103233337402, 0.0395048707723618, -0.0216251593083143, -0.0044228001497686, 0.1236038431525230, -0.0007898020558059, 0.0225078221410513, 0.0918451994657516, 0.0303334631025791, 0.1251340359449387, -0.0211720727384090, -0.0433874763548374, -0.0715344250202179, 0.0134226502850652, -0.0078399023041129, 0.0124488361179829, -0.0189549177885056, 0.1013411507010460, 0.0762774348258972, -0.0708223730325699, -0.0098863905295730, 0.0698610916733742, 0.1847914755344391, 0.1356917321681976, 0.0017784162191674, -0.0223691649734974, -0.0893429070711136, -0.0064056990668178, -0.0181686524301767, -0.0135563723742962, 0.0037152902223170, 0.0014566939789802, -0.0249003767967224, -0.1181500405073166, -0.0501856729388237, 0.0017836645711213, 0.0235632061958313, 0.0077364384196699, 0.0070418557152152, 0.0467672087252140, 0.0012566741788760, 0.0151703022420406, -0.0005031002801843, -0.0044868108816445, 0.0595481730997562, -0.1219414696097374, 0.3075667023658752, -0.0596046485006809, -0.0191054083406925, 0.0360240973532200, -0.0268935449421406, -0.0059743565507233, -0.0349296405911446, 0.0035291819367558, 0.0533831790089607, -0.0918961688876152, 0.0082755368202925, 0.0522267073392868, 0.1240823566913605, -0.0612247213721275, -0.0008893226622604, -0.0307593233883381, 0.1509668529033661, 0.0385789982974529, 0.0523452237248421, 0.0566357970237732, -0.0655649229884148, -0.0724663138389587, -0.0163134727627039, -0.2614672482013702, 0.0539994575083256, 0.1752510964870453, 0.1563264578580856, 0.2894517183303833, -0.1202340796589851, -0.1390940099954605, 0.0117847425863147, 0.0350103154778481, 0.1864624768495560, -0.0009875656105578, 0.2414163947105408, 0.1711230576038361, -0.0066516012884676, -0.3452469110488892, -0.0341714173555374, -0.0636778324842453, 0.3744075298309326, -0.1536052674055099, 0.0553809851408005, -0.2787660062313080, -0.2217925488948822, -0.0657867193222046, -0.1087004840373993, -0.0360351540148258, -0.3727039098739624, -0.0819328278303146, 0.0266242735087872, 0.1903783679008484, -0.1995411515235901, -0.4012534320354462, 0.0840877890586853, 0.2154308110475540, -0.1922082602977753, 0.4207230210304260, -0.3810212314128876, -0.4118702113628387, -0.1888281702995300, 0.1084368079900742, 0.3483054339885712, -0.0558177679777145, -0.1004426479339600, 0.0127105675637722, 0.1099910065531731, -0.2821317017078400, -0.1111956089735031, 0.0595703944563866, -0.1981879621744156, 0.0245561040937901, -0.0938348546624184, 0.2375493347644806, 0.2369048595428467, -0.0852578431367874, 0.2212908864021301, -0.0747647583484650, -0.1174943968653679, 0.2169772833585739, 0.0217084344476461, -0.4166154265403748, -0.0884217843413353, 0.0229632202535868, -0.0465036332607269, -0.0108277909457684, 0.2585864365100861, 0.3290652632713318, 0.1600934565067291, -0.0113669410347939, -0.1127018108963966, 0.0288610290735960, -0.1060134172439575, -0.2232097089290619, 0.2228495180606842, 0.0423177443444729, 0.0131223779171705, -0.1106469258666039, -0.0400105267763138, -0.2930587828159332, 0.1712177395820618, 0.0631946846842766, -0.0337111540138721, -0.4019033610820770, 0.2304786592721939, 0.2442091256380081, 0.2658972442150116, 0.1150312796235085, -0.3209920823574066, -0.1340712457895279, 0.0647094547748566, 0.1655463874340057, -0.2039210498332977, -0.4193029701709747, 0.1767348349094391, -0.0318135209381580, -0.0830974504351616, 0.1304083466529846, -0.2761801481246948, 0.1337193697690964, 0.1992705613374710, 0.3625436127185822, -0.1119261905550957, -0.1110242605209351, 0.1065016239881516, 0.0079266941174865, 0.0006754151545465, 0.2407841533422470, 0.1579008251428604, 0.0025135604664683, 0.1389876157045364, -0.1505882292985916, -0.4128002822399139, 0.0864872708916664, -0.0849243402481079, 0.1026871725916862, -0.2199165523052216, 0.2085897922515869, -0.2194857746362686, 0.1034475564956665, 0.0436546355485916, -0.0750704482197762, 0.1118665859103203, 0.1654407382011414, 0.1560311466455460, 0.0704022273421288, -0.0667625814676285, 0.0563869588077068, 0.0111942347139120, 0.0602399371564388, 0.0161490347236395, -0.0338037870824337, 0.0070713898167014, -0.0129484767094254, 0.0795314535498619, -0.0843074023723602, -0.0237951092422009, -0.1584147959947586, 0.0059201484546065, -0.0277358405292034, 0.1200029850006104, -0.0255484227091074, 0.0606702864170074, -0.0337104722857475, 0.0446758419275284, 0.0286448094993830, 0.0960656255483627, 0.1105271279811859, 0.0570224933326244, -0.0181832723319530, 0.0608235187828541, -0.0192882753908634, 0.0086418222635984, -0.0530993789434433, 0.0339126810431480, 0.0644655302166939, -0.0946013703942299, 0.2168796807527542, -0.0032699226867408, 0.0022792776580900, 0.0587307363748550, 0.0804171189665794, 0.0198311060667038, 0.0779641121625900, -0.1298957914113998, -0.0036737469490618, 0.0411664880812168, -0.0755020603537560, 0.0011868346482515, 0.0440458543598652, 0.0208268277347088, -0.0196690578013659, 0.0315100327134132, -0.1016442552208900, -0.1438210010528564, 0.0652251243591309, -0.0006529883248731, -0.0832873582839966, -0.0138200232759118, 0.0697694718837738, 0.0757287070155144, 0.0409184284508228, 0.1476408392190933, 0.0274602770805359, -0.0822380408644676, -0.0502820312976837, -0.0120839532464743, 0.1986372619867325, -0.0315303131937981, -0.1081548556685448, 0.0745788067579269, -0.0113721126690507, 0.0066232313401997, -0.0808017551898956, -0.0831850767135620, 0.0425476245582104, 0.1411929130554199, -0.0555551983416080, 0.0064101940952241, -0.0509046651422977, -0.0271364431828260, 0.0381288528442383, 0.0090591264888644, 0.1012359485030174, -0.0116817615926266, -0.0140314921736717, -0.0339065231382847, -0.1020827516913414, 0.0169251244515181, -0.0302149187773466, 0.0152636086568236, -0.0831488221883774, -0.0139822242781520, -0.0238032620400190, 0.1060157194733620, -0.0158338770270348, 0.0771783068776131, 0.0365349687635899, -0.0275183133780956, -0.0730874538421631, 0.0369582064449787, 0.0090965991839767, -0.0240562465041876, 0.0106727518141270, -0.0470642112195492, 0.0895877629518509, 0.0033106245100498, 0.0928784906864166, -0.0361906178295612, -0.0970698371529579, 0.0031625248957425, 0.0333611778914928, 0.0317967757582664, -0.0127589628100395, 0.0763588398694992, 0.0458304956555367, -0.0073083168826997, -0.0557411946356297, -0.0218351129442453, 0.0217214860022068, 0.0097706783562899, -0.0040114647708833, -0.0151457227766514, -0.0474489182233810, -0.0215530358254910, -0.0522270016372204, -0.0856320187449455, 0.0687707886099815, 0.0855078175663948, 0.0339842960238457, -0.0005133580416441, 0.0389731824398041, 0.0070004519075155, 0.1311094015836716, 0.0280767232179642, 0.0672548189759254, 0.0123517485335469, -0.0980112776160240, -0.0273233279585838, 0.1273671239614487, 0.1669719964265823, 0.0219772122800350, 0.0360541790723801, 0.0433471649885178, -0.0254105720669031, 0.2336862683296204, 0.1324759572744370, 0.3070099055767059, 0.3409088551998138, -0.0447305850684643, 0.0995053201913834, 0.1937668323516846, -0.0834470987319946, 0.0946786329150200, -0.0079741869121790, -0.1725790053606033, 0.1142634004354477, 0.1350015550851822, 0.0327350646257401, -0.2450641244649887, 0.1909199953079224, 0.3236921727657318, -0.1049038767814636, -0.0963062196969986, -0.0253863595426083, 0.1517956554889679, 0.0581422783434391, 0.0179673898965120, 0.1749400049448013, -0.0409018322825432, -0.4164181351661682, 0.1606835871934891, -0.0133188841864467, 0.1795954853296280, 0.5184322595596313, 0.0215708594769239, 0.1881491988897324, -0.2849428355693817, -0.0642747730016708, 0.2073698490858078, -0.1296135336160660, 0.0402591191232204, 0.2638224363327026, -0.1082932725548744, 0.3492272496223450, -0.0975750163197517, -0.0321694873273373, -0.0087699498981237, 0.1006517708301544, 0.2510325610637665, 0.0036031913477927, -0.0153989400714636, -0.0115847345441580, -0.0859579518437386, -0.2041725963354111, -0.1153278946876526, -0.0067492434754968, 0.3143197000026703, -0.0269182063639164, -0.0263667646795511, 0.1444739103317261, -0.0491142235696316, -0.2520366609096527, 0.0241111218929291, -0.0673285424709320, 0.2799551188945770, 0.0112863825634122, 0.2026527971029282, 0.3070785701274872, 0.1571978777647018, -0.1046736389398575, 0.1683622300624847, 0.3474212288856506, -0.0954855233430862, 0.1973769664764404, -0.0175254847854376, -0.0772090107202530, -0.0162775274366140, -0.0509015694260597, 0.0551427938044071, 0.0276182089000940, -0.0803482457995415, 0.0161137469112873, 0.0233177933841944, -0.0219637583941221, 0.2353093177080154, 0.2064961642026901, 0.2315248101949692, -0.1467964947223663, -0.0992217808961868, 0.1584713160991669, -0.2443777173757553, 0.0319129377603531, 0.3767021894454956, -0.0329545587301254, 0.0566289201378822, 0.4591409564018250, -0.1876457184553146, 0.0786151736974716, 0.1689063757658005, 0.0231921356171370, 0.2732768356800079, 0.1482928097248077, 0.2175163030624390, 0.0066038263030350, -0.4814932644367218, 0.3184404373168945, 0.1867441236972809, -0.0615033283829689, 0.0094592692330480, 0.2949310839176178, -0.0371670834720135, 0.0814746171236038, -0.1086164563894272, 0.0727700218558311, -0.0949420630931854, -0.0508994720876217, 0.0061969486996531, 0.0741054415702820, 0.1525888890028000, 0.4041406214237213, -0.2064358144998550, 0.0466056093573570, 0.2222129404544830, -0.0216695237904787, 0.0050941202789545, -0.0011362717486918, 0.1259242892265320, 0.0157977286726236, -0.0564484111964703, -0.0415513888001442, 0.0389470048248768, -0.1076407283544540, 0.0608925931155682, 0.0007831493276171, 0.0990637615323067, -0.0756427049636841, 0.0114311585202813, 0.0022874306887388, 0.0189572889357805, 0.0057568475604057, 0.0146740842610598, 0.0386693477630615, 0.0574228502810001, 0.0357848107814789, -0.0212286692112684, 0.0167681779712439, 0.0068850084207952, -0.1932391524314880, -0.1472283899784088, -0.1219145730137825, 0.0497830733656883, -0.0091281225904822, -0.0278811156749725, 0.0069882893003523, -0.0671341642737389, 0.0465161725878716, 0.0061591500416398, 0.0711831003427505, 0.1319335103034973, 0.0657579749822617, -0.0422991588711739, -0.1464609354734421, -0.0195482615381479, 0.0039126528427005, -0.0105679724365473, 0.0550624765455723, 0.0258056875318289, -0.0172339230775833, 0.0168679803609848, 0.1062571555376053, 0.0087803220376372, 0.0338135883212090, -0.0172897037118673, -0.1118392199277878, -0.0227425731718540, -0.0343734622001648, -0.0505728386342525, 0.0472749583423138, 0.0260814614593983, -0.0174419712275267, -0.0544911846518517, 0.0249553844332695, -0.0034592305310071, -0.0266478173434734, 0.0027617455925792, -0.0318561755120754, 0.0329624339938164, -0.0823545455932617, 0.0266796555370092, 0.0214725397527218, -0.0159850865602493, 0.0330350175499916, -0.0033625017385930, 0.0265769474208355, -0.0820424333214760, 0.0285287182778120, 0.0263041630387306, 0.0245122890919447, -0.0421092845499516, 0.1929080635309219, -0.0510195530951023, -0.0401447378098965, -0.1394309550523758, -0.0499809719622135, -0.0580230355262756, -0.0198989268392324, -0.0931691899895668, -0.0041898540221155, 0.0069748703390360, 0.0784409865736961, -0.0929571017622948, 0.0795956701040268, 0.0761976540088654, -0.0855259597301483, -0.2046975344419479, 0.0082376748323441, -0.0005070787156001, -0.0369689166545868, -0.0525843612849712, -0.0839111879467964, 0.2861801385879517, -0.0059023625217378, -0.0093917595222592, 0.1438155174255371, -0.0310231950134039, 0.0027459922712296, -0.0808031558990479, 0.0611563995480537, -0.0553454235196114, 0.2153066545724869, -0.0625198930501938, 0.0104241473600268, -0.0863852947950363, 0.1259389817714691, -0.0432175919413567, 0.0031061791814864, 0.1589068323373795, -0.1299057453870773, 0.0074636093340814, 0.0079794405028224, 0.0746854171156883, 0.0161225814372301, -0.0906224548816681, -0.0144664477556944, 0.0547550022602081, -0.0135017521679401, 0.0308298170566559, -0.0050659733824432, 0.0183972660452127, -0.0237392764538527, 0.2330609560012817, -0.0300576146692038, 0.0532948784530163, 0.0164293870329857, 0.1207834556698799, 0.0370533019304276, -0.0017453174805269, 0.0785453990101814, 0.0998186022043228, 0.0082041230052710, 0.0383161865174770, 0.0775927528738976, 0.0338306427001953, -0.0605153776705265, 0.0009022413287312, -0.0231290776282549, -0.1761854588985443, -0.0396000668406487, 0.0489446334540844, 0.0663970634341240, 0.1000691875815392, 0.0376066528260708, 0.0551298782229424, 0.0207629129290581, 0.0556124486029148, 0.0587944574654102, -0.1717774122953415, 0.0041412175633013, 0.0382850356400013, -0.0470889657735825, 0.2352293282747269, 0.1338727623224258, -0.0012406604364514, -0.0403539165854454, -0.0476804189383984, 0.0357791483402252, 0.0670558586716652, -0.0377509556710720, 0.0275134295225143, 0.1177048236131668, 0.0135707054287195, 0.0273869056254625, 0.0225920025259256, 0.1002949699759483, -0.0256960783153772, 0.1056828424334526, -0.0365667715668678, -0.1136644110083580, 0.1459949463605881, 0.1516608148813248, 0.0337311252951622, 0.0415341481566429, 0.0185135155916214, -0.0184431672096252, -0.0402409844100475, 0.0987646952271461, 0.0146288853138685, -0.0890815109014511, 0.0475904047489166, 0.1074144840240479, -0.0269633587449789, -0.0059866397641599, 0.0217483136802912, -0.0151735069230199, 0.0346996672451496, -0.0533066913485527, 0.0336709618568420, -0.0120096830651164, 0.0015487794298679, 0.0033716042526066, -0.0621587410569191, 0.0057684700004756, 0.0526598058640957, 0.1253639012575150, -0.0305028818547726, 0.0109189376235008, 0.0007883699145168, 0.0566317811608315, 0.0070962710306048, -0.0715264454483986, -0.0238455794751644, -0.0231119003146887, 0.0124496174976230, 0.0455247126519680, -0.0256460774689913, -0.0453509576618671, 0.0916897207498550, 0.0044270278885961, -0.0299927629530430, -0.1389559209346771, -0.0915486142039299, 0.2006412893533707, -0.1377525180578232, 0.0423626042902470, 0.0998773276805878, -0.0306707043200731, -0.0506342872977257, -0.1620315313339233, -0.0203021932393312, -0.0094546992331743, -0.0469731986522675, 0.1306817978620529, -0.0319807045161724, -0.0044111795723438, -0.1540463417768478, -0.0144780417904258, -0.1351051926612854, 0.0056241680867970, 0.0051983972080052, -0.0206252541393042, -0.0052439710125327, -0.0113146547228098, -0.0571550056338310, 0.0092159323394299, -0.0171468704938889, -0.0833173319697380, 0.0403710231184959, 0.0343338362872601, 0.0081406813114882, 0.0777548402547836, 0.0676820501685143, -0.0781862884759903, -0.0903039351105690, -0.0002072274364764, -0.0677778869867325, 0.0017578867264092, -0.0821737349033356, 0.0138775128871202, -0.1302161365747452, -0.0527411699295044, 0.4482596516609192, -0.0007921960786916, -0.0020396453328431, 0.2955448031425476, 0.1368874609470367, 0.3848830759525299, -0.3716292679309845, -0.2511987388134003, -0.1354510188102722, 0.4046648442745209, 0.3386491835117340, -0.0652771964669228, -0.1595219969749451, -0.1122437119483948, 0.0646820217370987, 0.0643451213836670, 0.0274611655622721, 0.4189760088920593, 0.1238514259457588, 0.1809175908565521, -0.0731239169836044, 0.1793190836906433, -0.2180405110120773, 0.4277827143669128, 0.0527673102915287, -0.0162179991602898, -0.2117550522089005, -0.0426040403544903, -0.1481980383396149, 0.1382528245449066, 0.0008893290651031, -0.2660501301288605, 0.1727329641580582, 0.1741891801357269, 0.1142739951610565, 0.0552266947925091, -0.0264019202440977, 0.2588693499565125, 0.0837645977735519, 0.3002469539642334, 0.0667965561151505, -0.1067448779940605, 0.1686243712902069, 0.3693325221538544, -0.1186798959970474, 0.4460934102535248, -0.1035947725176811, -0.0041380929760635, 0.1498180776834488, 0.0564311556518078, 0.0584748759865761, -0.0322617217898369, 0.3055855631828308, -0.1725282371044159, 0.3716783225536346, -0.2721149027347565, -0.1778147965669632, 0.0407043881714344, 0.1155634745955467, 0.2403375506401062, 0.0658557042479515, 0.3483568429946899, -0.0102081084623933, 0.1441259086132050, 0.0943039432168007, -0.0341107919812202, 0.5578862428665161, -0.0449520796537399, -0.1774059236049652, -0.0504493489861488, 0.0704803392291069, -0.0497264303267002, 0.0077480580657721, 0.2146242856979370, -0.1092687621712685, -0.1946641057729721, 0.0816167071461678, -0.3770214319229126, 0.1369549781084061, -0.0000965546278167, -0.2822242379188538, 0.0671727359294891, -0.2628807723522186, 0.2698338627815247, 0.0925765857100487, -0.2622986435890198, 0.3468094468116760, -0.0651619359850883, 0.0257353894412518, 0.0112275537103415, 0.0917680189013481, -0.1211016699671745, 0.0594036504626274, -0.2565802633762360, 0.0099334744736552, -0.2667770683765411, 0.1038292795419693, 0.3671156466007233, 0.0690140798687935, 0.4010825157165527, -0.0580216832458973, 0.2684427201747894, -0.0772218629717827, 0.0867751613259315, 0.0374994128942490, 0.2086305171251297, -0.3191573321819305, 0.2109596729278564, 0.2075860798358917, 0.4151470363140106, 0.4341364800930023, 0.1009208336472511, -0.0484883189201355, 0.0347653180360794, 0.1410926133394241, -0.0758611336350441, 0.2292481362819672, -0.2480411231517792, 0.0555061101913452, 0.0315202809870243, -0.1087059006094933, 0.1733463406562805, -0.4885003268718719, 0.2087573558092117, -0.2024524956941605, 0.1351945102214813, 0.1275127977132797, -0.2321539372205734, 0.1734801977872849, 0.0212459899485111, 0.0806407928466797, 0.0266482867300510, 0.0563443377614021, 0.1079326197504997, 0.0730179324746132, 0.0904703065752983, -0.1741268038749695, 0.1650749295949936, 0.0550701245665550, 0.2733595371246338, -0.3314662575721741, 0.0469469465315342, -0.1916122585535049, -0.0042287907563150, -0.0042468695901334, -0.2201921641826630, 0.0991428643465042, 0.0648539438843727, -0.1210762634873390, 0.2752181887626648, 0.0551069229841232, -0.2737237811088562, -0.0112024303525686, 0.1328063756227493, 0.0663264915347099, -0.0432007610797882, 0.2013474404811859, -0.0033179095480591, -0.0346162095665932, 0.0297749992460012, 0.0213367994874716, -0.1835085749626160, 0.2879458665847778, 0.3458949923515320, -0.0112244021147490, 0.0156498905271292, 0.1757550239562988, 0.0908459126949310, -0.1084225922822952, 0.0212900899350643, -0.0315592139959335, -0.3019721806049347, -0.2270759940147400, 0.1122292131185532, -0.0919741466641426, -0.0840333774685860, 0.0926647037267685, 0.1013485044240952, -0.2209634184837341, 0.0896245464682579, 0.1334464401006699, -0.1463712155818939, -0.1601055264472961, -0.0436316281557083, -0.0460664145648479, -0.0402316227555275, 0.1014065220952034, -0.1902142614126205, 0.0289248079061508, -0.0826168283820152, -0.0040766955353320, -0.0580081380903721, 0.0473290793597698, 0.1394050568342209, -0.0604936331510544, -0.1025153696537018, 0.1396581679582596, -0.0047237039543688, -0.0940367579460144, -0.0058367904275656, 0.1737811565399170, -0.1665940582752228, -0.1170224249362946, 0.1100755929946899, 0.0088325599208474, -0.1106799840927124, -0.1257386058568954, -0.0460039898753166, 0.0757954791188240, 0.1413013488054276, 0.0755549371242523, -0.1516983360052109, 0.1080729141831398, 0.2952485978603363, -0.0465851500630379, -0.0562705136835575, -0.1115892976522446, 0.1357116997241974, -0.2044947892427444, -0.0614378638565540, -0.1995215415954590, -0.3642289936542511, -0.0003072497202083, 0.0062799258157611, -0.1653576940298080, -0.0872334688901901, 0.0378910973668098, -0.0696033164858818, 0.1575257927179337, -0.0913146734237671, -0.0907144621014595, 0.1464917212724686, 0.0472592376172543, 0.0336818620562553, -0.0737184360623360, -0.1285643130540848, 0.0610052868723869, -0.0984032601118088, 0.0286200884729624, 0.0907823964953423, 0.0318398177623749, -0.0105644846335053, 0.0690710321068764, 0.0292444601655006, -0.1821819543838501, 0.0346144549548626, 0.2258550524711609, -0.0854113250970840, -0.0507644116878510, -0.0043359831906855, 0.0395206362009048, -0.0488850325345993, -0.0913280472159386, 0.3123963475227356, 0.0106465779244900, -0.1319305747747421, -0.0191937815397978, 0.0228789113461971, -0.0633765012025833, 0.1194972619414330, 0.2424120754003525, 0.0193168036639690, 0.0144348461180925, 0.0739989057183266, -0.0720319077372551, 0.0823388993740082, 0.0205813497304916, 0.0466846674680710, -0.0375222675502300, 0.0364169776439667, 0.1494185179471970, 0.1974224150180817, 0.0035704537294805, 0.2609360218048096, 0.0060820495709777, -0.0103682950139046, -0.0033147921785712, -0.1353413611650467, -0.0100141083821654, 0.0823815092444420, 0.3244530260562897, 0.0302365459501743, -0.0585445277392864, -0.0538185238838196, 0.1379975229501724, 0.2586154937744141, -0.0650008991360664, -0.0113037945702672, -0.0474084168672562, 0.0214076526463032, 0.1692472696304321, 0.0133519116789103, -0.0754674971103668, 0.0200822893530130, -0.1734366714954376, -0.1379326879978180, 0.1324085891246796, 0.0085540888831019, 0.3913302719593048, -0.0151094244793057, -0.1405692249536514, -0.0859822258353233, -0.0605461746454239, -0.1088274717330933, -0.0554266273975372, -0.0577560253441334, -0.0224790647625923, -0.0579445995390415, -0.1128964945673943, -0.0116687705740333, -0.2968907654285431, -0.0079350490123034, 0.1191075891256332, -0.0477445125579834, -0.0465224608778954, 0.3049644827842712, 0.0534387677907944, 0.0109329847618937, 0.0203137546777725, -0.0661863684654236, 0.0304807499051094, 0.0361512750387192, -0.1480565965175629, -0.0118170510977507, 0.0663134679198265, 0.0343848951160908, -0.0377118401229382, 0.1608897894620895, 0.1252723634243011, 0.0646938756108284, 0.0863874629139900, -0.0842433571815491, -0.1739764958620071, -0.0045673046261072, 0.0152123095467687, -0.0270874667912722, 0.0674501657485962, 0.0908008143305779, -0.0522166714072227, 0.0863911733031273, 0.1804124861955643, 0.1499648243188858, 0.2002521902322769, 0.0372526831924915, 0.0889537408947945, -0.0077329222112894, -0.0624566227197647, -0.0942732915282249, 0.0523106083273888, -0.0189914479851723, -0.0762448981404305, -0.0287568252533674, -0.0471094325184822, 0.2166649699211121, 0.1048299148678780, -0.1076668873429298, -0.0289327949285507, 0.2726330459117889, 0.0908501446247101, 0.0319542028009892, 0.0560332983732224, -0.3681219816207886, -0.1452306956052780, 0.2096066027879715, 0.0324688702821732, 0.2095403522253036, 0.0488129705190659, 0.0911440253257751, 0.0207530334591866, -0.0371470637619495, 0.1261070519685745, 0.0209820847958326, -0.1176585406064987, -0.1645328402519226, -0.0038092916365713, -0.1206686198711395, -0.1139011085033417, 0.0947764590382576, -0.1010994613170624, -0.2152058482170105, -0.1468271762132645, 0.0372759550809860, -0.0184537023305893, 0.1412568986415863, 0.1369265317916870, 0.2611246705055237, 0.3862948417663574, -0.0729922428727150, -0.0575585775077343, 0.1468743681907654, 0.4353533089160919, -0.0031246112193912, 0.1714197546243668, 0.2596329748630524, -0.0378787294030190, 0.2187565565109253, 0.1766223758459091, -0.4065567255020142, 0.2841486632823944, -0.0100990813225508, -0.4882567524909973, 0.2612871527671814, 0.0968600586056709, 0.1787419468164444, -0.0104008866474032, -0.1644179970026016, 0.2047803103923798, -0.0895960628986359, 0.3184569776058197, -0.0033610567916185, -0.3938744068145752, -0.2118409574031830, -0.0971953272819519, 0.1676341295242310, -0.1218446493148804, -0.0532871372997761, -0.0258583538234234, -0.2256635725498199, 0.0418127588927746, 0.1977247893810272, -0.2901370823383331, 0.1040822491049767, 0.0742400512099266, 0.0512280873954296, -0.3090234994888306, -0.0831532403826714, 0.1358508616685867, 0.0916804894804955, -0.2001009583473206, 0.1904245167970657, 0.0940060019493103, -0.1469440907239914, 0.0709101557731628, -0.1819189935922623, 0.1808461695909500, 0.0477465651929379, -0.1772407889366150, 0.0686969235539436, 0.2371494770050049, 0.0742410495877266, -0.2415832579135895, -0.1253738105297089, 0.0817549303174019, 0.0541606731712818, 0.0781525447964668, 0.1087965071201324, -0.2444767355918884, 0.4090093076229095, -0.1981438547372818, 0.3126934766769409, 0.4157349765300751, 0.0880415737628937, 0.1052876338362694, -0.0139244860038161, -0.1475640237331390, -0.1829105168581009, 0.3903117179870605, -0.1642894297838211, -0.0999215245246887, -0.1468006372451782, -0.3169958889484406, -0.2097735404968262, 0.1976220309734344, -0.0226273797452450, -0.1687589585781097, -0.1849925220012665, -0.1417637616395950, 0.2426458746194839, 0.1623392552137375, 0.4259667694568634, 0.3856594264507294, 0.2691914737224579, 0.1245747283101082, -0.2906890511512756, 0.2525777220726013, 0.0759012401103973, 0.1177161186933517, 0.3563896417617798, 0.0864762365818024, -0.1737996041774750, 0.0266732908785343, 0.1496687829494476, 0.2684620320796967, -0.0268368534743786, 0.1214092671871185, -0.1315612941980362, 0.0052653900347650, 0.2874985337257385, -0.1311481148004532, -0.0164045374840498, -0.3400994241237640, -0.3242565095424652, -0.0116225238889456, 0.2975755035877228, -0.2716252207756042, 0.2101185917854309, 0.3015885353088379, 0.2271753400564194, -0.2495761662721634, -0.1000570580363274, -0.1380933523178101, 0.1640108525753021, -0.1057054400444031, 0.2826353907585144, 0.4760508239269257, -0.0359250903129578, -0.3269641101360321, 0.1522883623838425, 0.0702284425497055, -0.3104976117610931, -0.0353056304156780, 0.0983003526926041, 0.1480676233768463, 0.2750475108623505, -0.1013670042157173, 0.0949823260307312, -0.0165499113500118, 0.0766872465610504, -0.0318501666188240, -0.1512281447649002, -0.0256367549300194, 0.0788109600543976, 0.1774605214595795, 0.0019276407547295, 0.0117825130000710, 0.0869851410388947, 0.0551882497966290, 0.0595879405736923, 0.0722197964787483, 0.0143564790487289, 0.1151568144559860, -0.1502145677804947, 0.1492801010608673, 0.0708545148372650, 0.2050674706697464, -0.1444381177425385, 0.0428306497633457, 0.0515726730227470, -0.2021831125020981, 0.0608724392950535, 0.0094876838847995, -0.0995965600013733, 0.0118624875321984, 0.0830678567290306, 0.0261477194726467, 0.0278817359358072, -0.2373431473970413, 0.2022642940282822, 0.0982550978660583, 0.0951442867517471, 0.1221919357776642, -0.1509034335613251, -0.1067463681101799, -0.3517397344112396, -0.4363681375980377, 0.0969973132014275, -0.0304886195808649, 0.1804034411907196, 0.2221667319536209, 0.0637966096401215, 0.2262746840715408, -0.0203612502664328, 0.0150838633999228, 0.2040224969387054, -0.1297856271266937, -0.1260882616043091, 0.0595458522439003, 0.2107774168252945, -0.0874077752232552, -0.1121130064129829, -0.3448059260845184, 0.0012325866846368, 0.0172983221709728, -0.0611169449985027, 0.0767912939190865, -0.0270960107445717, -0.0763744935393333, 0.0985448062419891, -0.2999207973480225, 0.1447023600339890, 0.2357009053230286, -0.0414198078215122, 0.0111623695120215, 0.0384845398366451, -0.0713204666972160, 0.2375472784042358, -0.0464228987693787, -0.2343861162662506, -0.0322195775806904, 0.1607571244239807, 0.1089947149157524, -0.0218731947243214, 0.2761079072952271, 0.0353696122765541, -0.2129736244678497, -0.1469513326883316, -0.0224425103515387, 0.0517943948507309, 0.0425980538129807, -0.0225316863507032, 0.2375042438507080, -0.3507749438285828, -0.1347233057022095, -0.2309274375438690, 0.1299595832824707, -0.2239699959754944, 0.2210125923156738, 0.2103760987520218, 0.2816981673240662, -0.0256387982517481, 0.2626012861728668, 0.1572865843772888, 0.1039543151855469, -0.1347243189811707, 0.2692757844924927, 0.1019364371895790, -0.3705602288246155, -0.3089170455932617, 0.0884056612849236, 0.1345648914575577, -0.2199740260839462, -0.3615685403347015, -0.0917475894093513, -0.1336055696010590, -0.0359256230294704, -0.1207590997219086, -0.2164660841226578, -0.1360947340726852, 0.0344287790358067, 0.1231994479894638, -0.3017511069774628, 0.2165457457304001, 0.1403142064809799, -0.2228715717792511, -0.1357147395610809, -0.2001059949398041, 0.2010625749826431, 0.1888198852539062, -0.2931124866008759, -0.2822841703891754, -0.1824618875980377, 0.1924440115690231, 0.3397168219089508, 0.0396271571516991, -0.2252533435821533, 0.1095880940556526, -0.1269942969083786, 0.0265391562134027, 0.1588696837425232, 0.3203295767307281, 0.1992023587226868, -0.0146914748474956, -0.1830707788467407, -0.0493543893098831, 0.1103833243250847, -0.1031653136014938, 0.0132418237626553, -0.0627135783433914, 0.0048762834630907, 0.2106921225786209, -0.0840255692601204, 0.0516480393707752, 0.1727047711610794, 0.1529920101165771, 0.2333222925662994, -0.1522019356489182, 0.0224408321082592, 0.2886812090873718, -0.1847817003726959, 0.0228285863995552, 0.0590506680309772, 0.0368773229420185, 0.0953816697001457, -0.0403408296406269, 0.2303078323602676, 0.2526256144046783, -0.1215730607509613, -0.0750111043453217, 0.0626374781131744, 0.2157961577177048, -0.1375819891691208, 0.3203618824481964, -0.0835679844021797, -0.2260782867670059, 0.0238107666373253, -0.0664181858301163, 0.0064006368629634, 0.2967376112937927, 0.1082192286849022, 0.1335702687501907, 0.0317143388092518, 0.0693908631801605, 0.0650255680084229, -0.1141850948333740, -0.0112829469144344, -0.2020020633935928, -0.1976913213729858, -0.1726661473512650, 0.0834035798907280, 0.0921368375420570, 0.0768083781003952, 0.0938487797975540, -0.1210710927844048, 0.0013124389806762, -0.2930372953414917, -0.1696843206882477, 0.0859161913394928, 0.0885016769170761, 0.2020447105169296, 0.0042834947817028, 0.2873875796794891, -0.0153109850361943, -0.0973726138472557, -0.2433884143829346, -0.0783951804041862, 0.3823278248310089, -0.1872069388628006, -0.1070238053798676, -0.1622664183378220, -0.1514998376369476, -0.2968759536743164, -0.2238459140062332, -0.0994425415992737, 0.1717829853296280, -0.0651083886623383, -0.0548245087265968, 0.0039776396006346, 0.0390214659273624, -0.1852777600288391, 0.2975103259086609, 0.0732781365513802, 0.0480055995285511, 0.0456242859363556, 0.1026572138071060, -0.0980367064476013, 0.2640130519866943, -0.1165008991956711, 0.1804625540971756, 0.2680236399173737, -0.2071608603000641, -0.1505203098058701, -0.3416340053081512, 0.0619951151311398, -0.0702211111783981, 0.1112610623240471, 0.2778903543949127, 0.2418843209743500, -0.3685308992862701, -0.1558386832475662, -0.0947422459721565, 0.0742303058505058, 0.0391517989337444, -0.0551777966320515, -0.0620444491505623, 0.2701412737369537, 0.0353744365274906, 0.0509394370019436, -0.2083723992109299, 0.1295237243175507, -0.1609900891780853, 0.2892110049724579, 0.0530223734676838, 0.3650989532470703, 0.0158636644482613, -0.1326312720775604, -0.0165095459669828, 0.2964917123317719, 0.1438407599925995, -0.0110116023570299, 0.3534454405307770, -0.1167707517743111, 0.1305268704891205, -0.0115654245018959, -0.4005652964115143, 0.0837554484605789, -0.1240032091736794, 0.0491683520376682, -0.1432400047779083, 0.0277947448194027, 0.1431193202733994, -0.0382719002664089, 0.2520529031753540, 0.0120032336562872, -0.0466084070503712, -0.3226225078105927, -0.2613851726055145, -0.0739613249897957, -0.1374390870332718, -0.2710516154766083, -0.3108813166618347, -0.1157927885651588, 0.2419754713773727, -0.2149715125560760, -0.2202858477830887, -0.0760742202401161, -0.2231000512838364, -0.4328929781913757, -0.2969012856483459, 0.1547610908746719, -0.3308871686458588, -0.0156789589673281, -0.1114337816834450, -0.2653902769088745, -0.0755847170948982, -0.0177357923239470, -0.2950671017169952, 0.1453423351049423, 0.3371558189392090, -0.2013840079307556, 0.0211487617343664, -0.1199888810515404, -0.1283499300479889, 0.1706843376159668, 0.1300255358219147, -0.2025729119777679, 0.1194203868508339, -0.3114324510097504, 0.0356441661715508, -0.1393247842788696, 0.0701603963971138, 0.0252779815346003, -0.0848637446761131, -0.0180160664021969, 0.0129224471747875, -0.1695184707641602, -0.0629361122846603, -0.0807350426912308, 0.1351076960563660, -0.1351344436407089, -0.2184096425771713, 0.3746501207351685, 0.0349563546478748, 0.1608784198760986, 0.1001658588647842, -0.3356107771396637, -0.1278330981731415, -0.3571803569793701, 0.4557414948940277, -0.0922709330916405, 0.4104769229888916, -0.2434448301792145, -0.0977980419993401, -0.2473012059926987, 0.0633325576782227, -0.1761644780635834, 0.2594062983989716, -0.1832997947931290, -0.2712689638137817, 0.1533046215772629, 0.0663196742534637, -0.0320580527186394, 0.2598167061805725, 0.0229544378817081, -0.3483187258243561, 0.2612130939960480, 0.1208655387163162, -0.0012474312679842, 0.0434599928557873, -0.4776922166347504, 0.0877333283424377, 0.0508821606636047, -0.0870394259691238, -0.0199599359184504, 0.0022370335645974, 0.0558854863047600, -0.2983563244342804, -0.2719621658325195, -0.2588574588298798, -0.0665429756045341, 0.2041571289300919, -0.0650634914636612, 0.4020917713642120, -0.0077384393662214, -0.0338629670441151, -0.1503026187419891, -0.0261462442576885, 0.3181805610656738, 0.0411216542124748, 0.3272154331207275, 0.0894630104303360, -0.3207505047321320, 0.0146574238315225, 0.0184150002896786, -0.1953100860118866, -0.2653453350067139, 0.0933628305792809, -0.1411661356687546, 0.1147413775324821, 0.0730200335383415, 0.0262815151363611, -0.1182744279503822, 0.0013963232049718, 0.0284557603299618, -0.2124201208353043, 0.2911792993545532, 0.2558874487876892, -0.3055889308452606, 0.1367498934268951, -0.2277250438928604, 0.2472639679908752, -0.2195529043674469, 0.0481447130441666, -0.1921702027320862, 0.1677576452493668, 0.1954989433288574, -0.1683110445737839, -0.1097055375576019, 0.0227700229734182, 0.0635966137051582, 0.2694210112094879, 0.0862600728869438, -0.2713660597801208, 0.0667766109108925, -0.0496658608317375, -0.0648006796836853, -0.0444072633981705, 0.1312193423509598, -0.0893805399537086, 0.0987372472882271, -0.0784706398844719, 0.0644933134317398, 0.0494659207761288, 0.1036501452326775, -0.0258765891194344, 0.3106978833675385, 0.1540586650371552, 0.2680308818817139, 0.1737124025821686, 0.1529531329870224, 0.2594105899333954, 0.2730908393859863, 0.3395575582981110, -0.1089257672429085, 0.1190285384654999, -0.0873864963650703, 0.2936173081398010, 0.0725236684083939, -0.3574279844760895, -0.2559643685817719, 0.3572966158390045, -0.0927326977252960, 0.0618787333369255, -0.0361125208437443, 0.0992280617356300, 0.3124153316020966, 0.2900438308715820, -0.2463835924863815, -0.2560338675975800, 0.1935900449752808, 0.2131631523370743, -0.0191018134355545, 0.2742805480957031, 0.1600130349397659, -0.0796460434794426, 0.0129013638943434, -0.1048094108700752, 0.2583076655864716, 0.1281636357307434, -0.2458990514278412, -0.0947292149066925, -0.1076096892356873, 0.1173801347613335, -0.1998888105154037, 0.0048731053248048, 0.1195479854941368, -0.0838821381330490, -0.0217340942472219, 0.1351252794265747, 0.1622060239315033, 0.2893925905227661, -0.1830085664987564, -0.3572976887226105, 0.2761773467063904, -0.0075056813657284, 0.0510884299874306, 0.0230891853570938, -0.1637821793556213, 0.0803614109754562, -0.0516062676906586, -0.0237396284937859, -0.0255851764231920, -0.1070388108491898, 0.0121454317122698, -0.0738052055239677, -0.0826242938637733, 0.1749122887849808, 0.0261133648455143, -0.0799991190433502, 0.1317997723817825, -0.1162984818220139, -0.3195173740386963, -0.2042149752378464, 0.0949326604604721, 0.1617082059383392, 0.2062762975692749, -0.2521632611751556, -0.0420344732701778, 0.1114678531885147, -0.0829940885305405, -0.1570709049701691, 0.1882264167070389, 0.0967671126127243, 0.1037146896123886, 0.0150070982053876, 0.2900490164756775, 0.3036437630653381, -0.3487244248390198, -0.4222322106361389, -0.1461511105298996, -0.1015451624989510, 0.1567308604717255, -0.1829659938812256, 0.0807922035455704, -0.0029237926937640, -0.0609863586723804, 0.0916100069880486, 0.3817767798900604, -0.2393652498722076, 0.0831090509891510, 0.1985132843255997, 0.2331991940736771, -0.2699549198150635, 0.0197895858436823, 0.1624222695827484, -0.2591975331306458, 0.0020522100385278, 0.0664776489138603, 0.0449804142117500, -0.2204171866178513, -0.2742252647876740, 0.2470764815807343, -0.0873055756092072, 0.0049226889386773, 0.2475939840078354, 0.1768178641796112, -0.3427320420742035, 0.3833383917808533, 0.1317743957042694, -0.0914523378014565, 0.1632390171289444, -0.2390858232975006, -0.1584040969610214, 0.1607823967933655, -0.2546173334121704, 0.1169483885169029, -0.1129326969385147, -0.1764464080333710, -0.2807937860488892, 0.2157090008258820, -0.0800092667341232, -0.1513566225767136, -0.2887203395366669, 0.2655035555362701, -0.1914000213146210, -0.1479639708995819, 0.0889374017715454, 0.0601253248751163, 0.3902063965797424, -0.0752953365445137, -0.2439683675765991, 0.2233273237943649, -0.0954427793622017, 0.0122410804033279, 0.0986923947930336, -0.1047410145401955, 0.4176905453205109, -0.0952977016568184, -0.2032253444194794, 0.0451862402260303, -0.3481513559818268, -0.0485078915953636, -0.4290066957473755, 0.1015331149101257, 0.1794645339250565, -0.1889486610889435, 0.3280692994594574, -0.0108753750100732, -0.3182761669158936, 0.1342946588993073, -0.0765711814165115, 0.4309153258800507, 0.1711110621690750, 0.2627985477447510, 0.0345962159335613, 0.1701440513134003, 0.3765228688716888, -0.0696529150009155, 0.3044503927230835, 0.3011271059513092, 0.0759956017136574, -0.1320399194955826, -0.1438966393470764, 0.1242864206433296, 0.0428896322846413, -0.2369346320629120, -0.0567515231668949, 0.2903838157653809, 0.3487935364246368, -0.2224857360124588, 0.0073487507179379, 0.0734788179397583, -0.0601089559495449, -0.1143361851572990, -0.4158704280853271, 0.1911883354187012, -0.3564417660236359, -0.0624425895512104, -0.3912890553474426, 0.2965289354324341, -0.2018140554428101, -0.0901861265301704, -0.1793638318777084, -0.4116049408912659, 0.2630642056465149, 0.1951217800378799, -0.0424443110823631, 0.1812725961208344, 0.0500229783356190, -0.1231999471783638, -0.1911513358354568, 0.0129757327958941, 0.1898284852504730, -0.2121250927448273, -0.0821844488382339, -0.2924584448337555, -0.1633101105690002, 0.2064262181520462, -0.1278627365827560, 0.2253233194351196, 0.3247181177139282, -0.2951322495937347, -0.0469832941889763, 0.2201802879571915, 0.1639305502176285, 0.3650447726249695, 0.1127911731600761, -0.1876531988382339, -0.2794728875160217, -0.0341105200350285, -0.1958238631486893, 0.3842483758926392, -0.1563887298107147, 0.3393925428390503, -0.2613253593444824, -0.1775592714548111, -0.3941699564456940, -0.1832429915666580, -0.0688608065247536, 0.4199614822864532, 0.2773589789867401, 0.0079775368794799, 0.0786126181483269, -0.0053231371566653, -0.0440082699060440, -0.1267279684543610, 0.0227473806589842, 0.0104383053258061, 0.1377882361412048, -0.0627176240086555, 0.2529383003711700, -0.0638824254274368, 0.1625293642282486, -0.2337851673364639, 0.0694519355893135, -0.0372804142534733, 0.0088944761082530, -0.0622394941747189, -0.0430299341678619, -0.0824341401457787, 0.0663776099681854, 0.2603941559791565, -0.0206160210072994, -0.0522456280887127, 0.1791599690914154, 0.1712885349988937, -0.2865858972072601, -0.5812352299690247, 0.2498835772275925, 0.1670213490724564, 0.0245563797652721, 0.0423762537539005, -0.0531635284423828, -0.0271196961402893, 0.1120075210928917, -0.0056599704548717, 0.1641777753829956, -0.0577523857355118, -0.0361369736492634, -0.1005357727408409, -0.1858645826578140, 0.0343593731522560, -0.0523808114230633, 0.3298697471618652, 0.1892779916524887, -0.0851648077368736, 0.0599607266485691, -0.0781294405460358, 0.1067303940653801, 0.3274714350700378, -0.1581173539161682, 0.2426423132419586, 0.2777087986469269, 0.1222030371427536, -0.0010325514012948, 0.0325001664459705, -0.1630184650421143, 0.0684404894709587, 0.0010754291433841, 0.1270454674959183, 0.1052890121936798, 0.1855117082595825, -0.0511668846011162, -0.3130317330360413, 0.0608833990991116, -0.0364319048821926, 0.0171079654246569, -0.0185812711715698, 0.1772184222936630, 0.1353227496147156, -0.0066366340033710, -0.2672750949859619, -0.0024987924844027, -0.1452849060297012, -0.1747419685125351, 0.0634556710720062, 0.1639122664928436, -0.0713315829634666, -0.1176910698413849, 0.2867937088012695, -0.0128776635974646, 0.1063765883445740, -0.0225055571645498, 0.1033990532159805, -0.0766681432723999, 0.1783103942871094, 0.0783000141382217, -0.0504614338278770, 0.0233003068715334, -0.0214329250156879, 0.1711284965276718, -0.1679468005895615, -0.6159832477569580, -0.1269069463014603, 0.3193557560443878, 0.0347480513155460, 0.0360043793916702, 0.3442544937133789, -0.2034584134817123, -0.4343067705631256, 0.0231691934168339, 0.0196715295314789, -0.1515844017267227, 0.0901410877704620, -0.0233436338603497, -0.1610106080770493, 0.0164515059441328, -0.0518553331494331, -0.0978415682911873, -0.1810438930988312, 0.0081025678664446, 0.4109402298927307, -0.2699903249740601, -0.0643370077013969, 0.1090553328394890, -0.0254678484052420, -0.1090950816869736, 0.0123482216149569, 0.0148435700684786, 0.3286090791225433, -0.2275042533874512, 0.0195533093065023, -0.0253957565873861, 0.1540145128965378, -0.0443654134869576, -0.0746425390243530, -0.3426044583320618, 0.0742903947830200, -0.0020134227816015, -0.1138771921396255, -0.0034387721680105, -0.0308979023247957, -0.0023404760286212, 0.0839337632060051, -0.0023970031179488, 0.0006184899248183, 0.1298650801181793, 0.0108351400122046, 0.0604543350636959, -0.0196239296346903, 0.0815453678369522, -0.0155368372797966, -0.0552261993288994, -0.0032102870754898, -0.0063405334949493, -0.0096790194511414, 0.0581319332122803, -0.0708233043551445, 0.0016691967612132, -0.1443654596805573, 0.0674222931265831, -0.0035804901272058, -0.0725420266389847, -0.0683345422148705, 0.0117895184084773, -0.0096754198893905, 0.1059320643544197, 0.0339221768081188, 0.0326758623123169, -0.0189730674028397, 0.1403205543756485, -0.0266963783651590, -0.0205896459519863, -0.0497786700725555, -0.2288467437028885, -0.0275038368999958, 0.0267357043921947, -0.0187988821417093, -0.0654352232813835, -0.0252334680408239, 0.0579320453107357, 0.0550785101950169, 0.1418178826570511, 0.0045674890279770, -0.0010238821851090, 0.0213671308010817, 0.0122963245958090, 0.0975676476955414, -0.0130424005910754, 0.1759368330240250, -0.0888999179005623, -0.0214883629232645, -0.0872793421149254, 0.0691060572862625, 0.0393972136080265, 0.0013227919116616, 0.0359637960791588, -0.0221187695860863, 0.0616893880069256, 0.1582112014293671, 0.0267138686031103, 0.0017861218657345, 0.0432223007082939, -0.0177767854183912, 0.0018827102612704, -0.0036601466126740, 0.1157118678092957, 0.0766702219843864, 0.1139533519744873, -0.0345357730984688, -0.0128565365448594, 0.0296970810741186, -0.0151979271322489, -0.0113064674660563, -0.0048240250907838, -0.0052809058688581, -0.1169919967651367, 0.0813111290335655, -0.2144819200038910, 0.0447868965566158, 0.0173600595444441, 0.0539274066686630, 0.0029520671814680, 0.1251006275415421, -0.0512056127190590, -0.0762258842587471, 0.0521783158183098, 0.0026520460378379, -0.2057536244392395, -0.1361899226903915, -0.0108243068680167, -0.0680830106139183, -0.0393196791410446, 0.0219633355736732, -0.0028784610331059, -0.0288224052637815, -0.0333479009568691, 0.0459249839186668, -0.0066133397631347, -0.0176887977868319, 0.0021858953405172, 0.0223993062973022, -0.0154136251658201, -0.0554717406630516, -0.0194450952112675, -0.0452671498060226, -0.0650547519326210, -0.0228130798786879, -0.0035524885170162, -0.2572959065437317, 0.0314648002386093, -0.0100513836368918, -0.0178077407181263, -0.0240726508200169, -0.0180980991572142, 0.0077999117784202, 0.0247928481549025, 0.0959608480334282, 0.0003279544180259, 0.0324833840131760, -0.0182893909513950, 0.0721947625279427, 0.1012525036931038, -0.0269870832562447, -0.0271064564585686, -0.1575607359409332, 0.0106890806928277, -0.0391374304890633, 0.0377831868827343, 0.0381362847983837, 0.0195972472429276, 0.1163129732012749, 0.0004815550055355, 0.1411887109279633, -0.0324945673346519, -0.0809877291321754, -0.1626958101987839, 0.0418114438652992, -0.0094065302982926, 0.1041139289736748, -0.0564250014722347, -0.0122722471132874, 0.0599119737744331, -0.0958070755004883, 0.0330217182636261, 0.0036709699779749, 0.0724816545844078, 0.0734109729528427, 0.0573656372725964, -0.0450143218040466, 0.0081719327718019, 0.0768515989184380, 0.0782403647899628, 0.0607152059674263, 0.0145487301051617, -0.0597014352679253, -0.0360103249549866, 0.0278262235224247, 0.0380457229912281, 0.0433943569660187, 0.0108079612255096, -0.1813424378633499, -0.1362879574298859, 0.0478974543511868, -0.0102958558127284, 0.0531895123422146, 0.0824265405535698, 0.0118634188547730, -0.0164213217794895, -0.0755608230829239, 0.2262117862701416, -0.0875156298279762, 0.0031677975784987, 0.0664578825235367, 0.0102351633831859, 0.2362760156393051, 0.1428325921297073, 0.0955555364489555, 0.0096913343295455, -0.0435347929596901, 0.0147559754550457, -0.0089870449155569, 0.0072930236347020, 0.0140313683077693, 0.0234147571027279, -0.2090368717908859, -0.0050638373941183, -0.0693547055125237, 0.0264712329953909, -0.0117421643808484, -0.1036930978298187, 0.0689020454883575, -0.0174683798104525, 0.0400410145521164, -0.3292914032936096, 0.0186231173574924, 0.0150238694623113, 0.0299034696072340, 0.0342804417014122, 0.0564509332180023, 0.0921509414911270, -0.0409089066088200, 0.1665894687175751, 0.0080421222373843, -0.0081385085359216, 0.1215412020683289, -0.0167641993612051, 0.1561386734247208, 0.1465070396661758, -0.1370663642883301, 0.0194852855056524, -0.0156314279884100, 0.0015367437154055, 0.0205973237752914, -0.0572066120803356, -0.0050851432606578, 0.0381373129785061, -0.0020920278038830, 0.0359317809343338, 0.0590902343392372, -0.1469781696796417, 0.0476806871592999, -0.0688937753438950, -0.1137117743492126, 0.0111507177352905, -0.0763639435172081, -0.0235064290463924, -0.0123849138617516, 0.0241750609129667, 0.0142308492213488, -0.1152836531400681, -0.0613757371902466, 0.0117695759981871, 0.0129603985697031, 0.0266462340950966, 0.1399228125810623, -0.0543678626418114, 0.1284762024879456, 0.1048864498734474, 0.0253104250878096, -0.0896327197551727, 0.0016985988477245, -0.0700852796435356, 0.0478178113698959, 0.0252068433910608, -0.0401875451207161, 0.0692628249526024, -0.0528428554534912, -0.0772512406110764, 0.0769063532352448, 0.0094053391367197, 0.1015100628137589, 0.1463587731122971, 0.0478922426700592, 0.0063458778895438, 0.0718130618333817, 0.0914460271596909, -0.1865868419408798, 0.0765030533075333, -0.0874815285205841, -0.0939616113901138, 0.3908950090408325, -0.2891618013381958, 0.1305934786796570, -0.2259559929370880, 0.0491260364651680, -0.0433274805545807, -0.3409883379936218, -0.0908850133419037, -0.1550578624010086, -0.2056605964899063, 0.3832681477069855, -0.4467198550701141, -0.0324955098330975, -0.2958766222000122, 0.1624484211206436, 0.0193492490798235, 0.3976511657238007, -0.2286615520715714, -0.1170225292444229, 0.1712279617786407, 0.1147595494985580, 0.0549740679562092, -0.1712219715118408, -0.0966953337192535, -0.2329246103763580, -0.0481766015291214, -0.1219453662633896, 0.3543069660663605, 0.3566798567771912, -0.1229759529232979, 0.1466887742280960, -0.4686096906661987, 0.1230564340949059, -0.1455688625574112, 0.3179444670677185, 0.3084558844566345, -0.0296041276305914, -0.3620326817035675, 0.0750023722648621, -0.0233814753592014, -0.0815131440758705, 0.1827744841575623, 0.0685956403613091, -0.2071519345045090, -0.2558907568454742, 0.2259278297424316, -0.1461469829082489, 0.4836888015270233, -0.2947855889797211, -0.0447817966341972, -0.2701323926448822, 0.1396279633045197, 0.1079548820853233, 0.3454741835594177, 0.1673488467931747, 0.0405975207686424, 0.0427778884768486, 0.0699555575847626, 0.0204438343644142, 0.0716525688767433, -0.3194354772567749, 0.1792607754468918, 0.0984196290373802, -0.1278577148914337, -0.1762999296188354, -0.1234352439641953, 0.0092295650392771, 0.1708694994449615, 0.2362109571695328, 0.1555187255144119, 0.0749551132321358, 0.0766952484846115, 0.1164763197302818, 0.1358053833246231, -0.0560340918600559, 0.2002513110637665, -0.2129830420017242, 0.3040869534015656, -0.1623055934906006, -0.0861499607563019, -0.0831044539809227, -0.1889738738536835, -0.0870284363627434, 0.0521929934620857, 0.2673971652984619, -0.3287611901760101, 0.1452142596244812, 0.0750121101737022, -0.2550878226757050, -0.0897241160273552, 0.0887204408645630, 0.0218100212514400, 0.0468277484178543, -0.0455100871622562, 0.3877398371696472, 0.0263610929250717, 0.2573951482772827, 0.2615438103675842, -0.0772648975253105, -0.2752896249294281, -0.3367428481578827, 0.0838882848620415, -0.1724063158035278, 0.1054533645510674, 0.1438596248626709, 0.1771667003631592, 0.1316575556993484, 0.1640479117631912, 0.1788388639688492, -0.0934135615825653, 0.1804143935441971, 0.0084179369732738, 0.0311015602201223, 0.0701909288764000, 0.4296090602874756, -0.3101691901683807, 0.0427796579897404, -0.3699974119663239, 0.1482513397932053, 0.0245931334793568, -0.1146423146128654, 0.0928856655955315, 0.3055564761161804, -0.2790102660655975, -0.1534479260444641, -0.0008696470176801, 0.1357876062393188, 0.0568054243922234, 0.1291918903589249, 0.0097952419891953, 0.0769261941313744, 0.1262559741735458, -0.1973983347415924, 0.1311835795640945, -0.0978488847613335, -0.0424706563353539, -0.0079828798770905, -0.2136401534080505, -0.0757431611418724, 0.0664711594581604, 0.1443512588739395, 0.2294358909130096, -0.1784379035234451, -0.0646326467394829, -0.0480952523648739, -0.0006080060848035, 0.0763231292366982, -0.0158388800919056, 0.0030256190802902, 0.0029005426913500, -0.0074374591931701, -0.0405253618955612, -0.2646758258342743, 0.0460087731480598, -0.0738949030637741, 0.2250075340270996, 0.0907311514019966, 0.0538307726383209, 0.1419034898281097, 0.0552326105535030, -0.2250270247459412, 0.0557013526558876, 0.0836642682552338, 0.1148606464266777, 0.0166160017251968, -0.2303179949522018, -0.0518842153251171, 0.0566669069230556, 0.0270500965416431, 0.0992231890559196, -0.0185269806534052, -0.1002656370401382, 0.1782540082931519, -0.0057751177810133, -0.0866798162460327, 0.2030137926340103, -0.1005878672003746, 0.0558716170489788, 0.0153282461687922, 0.0959577411413193, -0.1391051113605499, -0.1663828045129776, 0.0197420194745064, 0.1083079054951668, -0.0766619890928268, -0.1264633238315582, 0.0737715587019920, -0.0810336768627167, 0.0714191496372223, -0.1831719428300858, -0.0492912419140339, 0.0203924234956503, 0.2613204419612885, -0.0272069890052080, -0.0015503808390349, -0.1339862644672394, -0.3660750091075897, 0.0999611839652061, -0.3437066674232483, 0.0988752022385597, 0.0538265146315098, -0.1868519783020020, -0.0365160740911961, 0.0836712643504143, -0.0336341671645641, 0.0587122328579426, 0.0058461241424084, -0.1128723993897438, 0.0003154572332278, 0.1121352836489677, 0.1858336627483368, -0.0919382274150848, -0.0805497840046883, -0.0821793153882027, 0.1097028180956841, 0.2104807198047638, 0.0401584282517433, -0.1996072381734848, 0.1043429002165794, -0.1064942553639412, -0.1293979287147522, -0.1814488917589188, -0.0296198111027479, -0.1712508052587509, 0.3113866448402405, 0.1582094132900238, -0.0645773708820343, 0.3094950020313263, 0.0009749696473591, -0.1948639601469040, -0.0586020462214947, -0.2249088436365128, -0.0063392473384738, 0.0695473924279213, 0.0069903833791614, 0.0779304802417755, 0.0538081228733063, -0.0278615541756153, -0.1948610097169876, 0.0936312675476074, 0.0950545221567154, 0.2044169455766678, -0.0459120161831379, -0.0089309196919203, 0.0442540496587753, -0.1027333587408066, 0.0292128622531891, 0.2491326630115509, 0.1006062775850296, 0.0386143513023853, 0.0487964265048504, -0.1232522055506706, 0.1278326958417892, -0.3223839402198792, 0.0075410692952573, -0.0193195808678865, 0.1772068589925766, -0.0097807878628373, 0.0848694369196892, -0.2209811657667160, -0.0712698549032211, 0.0764963999390602, -0.0483650714159012, 0.0626970753073692, 0.1536802053451538, 0.2130889594554901, 0.1353418678045273, 0.0791762694716454, -0.1834257394075394, 0.0204494781792164, -0.1035015583038330, -0.2129430472850800, -0.0759823322296143, 0.1636690199375153, 0.0178191158920527, -0.1547046750783920, 0.0947378203272820, -0.0106645440682769, 0.0668434575200081, -0.0240125488489866, 0.2610757052898407, -0.0211433451622725, 0.0227120760828257, -0.1299765557050705, -0.1328523755073547, -0.0778064578771591, -0.0049055544659495, 0.0199522674083710, -0.0864735767245293, -0.0605951808393002, 0.1509232372045517, 0.0986545234918594, 0.0006143825012259, 0.0350783802568913, -0.3759819269180298, 0.2045573443174362, 0.0418473556637764, -0.0585230998694897, -0.1263702958822250, -0.0263475310057402, 0.2603325545787811, -0.0061584627255797, 0.0628048926591873, -0.2830826938152313, -0.0973057523369789, 0.0132819004356861, -0.0791795402765274, -0.1841013729572296, -0.0675664320588112, 0.3010209798812866, -0.0337938182055950, -0.1193874329328537, 0.0619094520807266, 0.2623678743839264, 0.0940542221069336, -0.1399749815464020, 0.0402566269040108, 0.0167394001036882, 0.0128539064899087, 0.0237804949283600, 0.0744334086775780, -0.2597663402557373, -0.1866228282451630, -0.1486373394727707, 0.1903408169746399, -0.0459972172975540, 0.1331016719341278, 0.2857978940010071, 0.1563887596130371, 0.1366243660449982, -0.2240368723869324, 0.0511815771460533, 0.0748838484287262, -0.0201262794435024, -0.2333665490150452, 0.0619730092585087, 0.0205320511013269, 0.0289000347256660, -0.0082076685503125, -0.0086971865966916, 0.0290482956916094, 0.0603418536484241, 0.0218090172857046, 0.1205799579620361, -0.2723322212696075, -0.3755800127983093, -0.0793943032622337, -0.2899065017700195, -0.2692123353481293, -0.2316717356443405, -0.2473200112581253, 0.0044064857065678, -0.1060147508978844, -0.2830532491207123, 0.1450575590133667, -0.0161491818726063, 0.0378929600119591, -0.1392324715852737, 0.0025623417459428, -0.0872244387865067, 0.3554105758666992, 0.1854708343744278, -0.3095873594284058, 0.0194157399237156, 0.1637898087501526, 0.0213222354650497, 0.0050473627634346, 0.2749414443969727, -0.0079901637509465, -0.0553115718066692, 0.0600794404745102, 0.0150181427598000, -0.1027827411890030, -0.0414767563343048, 0.0195739287883043, 0.0510177537798882, 0.0936644300818443, -0.1237871199846268, 0.1736519783735275, 0.4344409406185150, 0.1145314499735832, -0.2844102382659912, 0.0133457258343697, 0.0873299017548561, 0.1088008508086205, -0.1321689933538437, -0.1373465508222580, 0.0577391944825649, -0.0618373565375805, 0.0494281351566315, 0.2563709020614624, -0.2565259635448456, -0.1428747028112411, -0.2349155992269516, -0.0442261993885040, -0.3293841183185577, 0.1882191449403763, -0.1716639548540115, -0.2657641470432281, -0.0883861109614372, -0.0267578698694706, 0.1795895695686340, 0.4085475504398346, -0.4359870851039886, 0.1028054878115654, -0.2962294816970825, -0.0641590431332588, -0.1783729046583176, 0.3730541765689850, 0.1628451496362686, 0.3741578161716461, -0.1369723826646805, 0.1855554133653641, -0.1806072741746902, 0.0827741697430611, -0.2415854781866074, 0.1492363661527634, 0.0194456260651350, 0.0687402859330177, -0.0138897141441703, -0.0760099887847900, 0.0726598650217056, -0.0224607866257429, 0.1836346238851547, -0.2935042381286621, 0.3363231122493744, 0.0063375127501786, -0.1164364963769913, -0.1821265816688538, 0.3340941071510315, 0.3002327084541321, 0.0293713696300983, -0.0747258216142654, 0.0927950665354729, 0.2502197027206421, 0.0989363417029381, 0.3391405344009399, 0.0176660716533661, -0.1059644520282745, -0.0514534302055836, -0.1167932525277138, 0.0968863666057587, 0.0623419694602489, 0.1363017708063126, 0.0753949061036110, -0.0896354615688324, -0.4347856044769287, -0.1203956604003906, 0.0616372935473919, 0.0912114828824997, -0.1846162974834442, 0.2197658419609070, 0.1184053122997284, -0.3040015697479248, 0.0703596845269203, 0.4534750878810883, -0.1065620929002762, -0.2164163589477539, 0.0402067862451077, -0.0262467637658119, -0.1653189063072205, 0.2920908331871033, -0.1561794877052307, 0.0785766765475273, 0.1232364028692245, 0.1350606977939606, -0.0478097796440125, 0.0083072455599904, -0.2855893373489380, 0.1003375872969627, 0.2055352926254272, 0.1968618482351303, 0.0149943875148892, 0.0296642091125250, -0.1294375211000443, -0.2544324398040771, 0.1936072856187820, 0.0449601300060749, 0.3471694588661194, -0.0064570172689855, -0.0128655610606074, -0.0217236634343863, -0.0580291189253330, 0.0099542448297143, -0.1167267486453056, -0.1230496093630791, -0.1977601200342178, -0.2265304923057556, -0.2837378382682800, 0.3660112619400024, -0.3194966316223145, -0.0794127583503723, -0.0797646567225456, 0.1462188661098480, -0.2430165410041809, 0.1984170675277710, -0.0615867897868156, 0.1811944544315338, -0.1741028130054474, -0.1375820487737656, -0.1154375001788139, 0.0996732041239738, -0.2858346402645111, -0.0218276623636484, -0.2343807220458984, -0.0321919620037079, -0.1160810440778732, 0.0213346928358078, -0.1311186403036118, 0.2238040715456009, -0.2364287823438644, 0.1127542257308960, -0.0011722680646926, 0.0016728905029595, -0.1403637528419495, 0.2415190339088440, -0.0102569973096251, -0.1062482371926308, 0.1128980219364166, 0.0016378659056500, 0.0100601036101580, -0.0790927112102509, 0.2804402709007263, 0.0658685043454170, 0.1559300273656845, -0.1635175198316574, 0.0581633597612381, 0.0431791059672832, -0.1122792288661003, -0.0378409251570702, 0.2099280953407288, -0.0054649594239891, -0.1326289474964142, -0.1800076663494110, 0.0734834372997284, -0.0901379585266113, 0.0757049843668938, -0.1564025878906250, -0.2189086079597473, -0.1742104291915894, -0.1242310479283333, 0.1183668747544289, -0.1601010859012604, 0.1463875323534012, -0.1712712049484253, 0.0259784068912268, -0.0658744722604752, -0.2008987367153168, -0.0720548331737518, -0.1227243319153786, 0.0656535625457764, -0.3711372315883636, -0.2576450705528259, -0.1545122414827347, -0.1011050641536713, 0.2160152196884155, -0.2460338324308395, -0.1545197665691376, 0.0332667343318462, -0.0145094720646739, -0.3477076590061188, -0.1938801109790802, -0.0481232702732086, 0.3493305146694183, 0.1046415641903877, 0.0468401722609997, -0.2098648846149445, 0.0566581860184669, -0.0537957027554512, -0.2284106612205505, -0.0622034706175327, 0.0297797434031963, -0.2750665843486786, -0.0137928240001202, -0.0503679141402245, 0.2916668355464935, -0.2726716697216034, -0.1102603673934937, -0.0256214924156666, 0.0803067311644554, -0.0586673691868782, -0.1831762641668320, -0.1008600294589996, -0.1918867081403732, -0.0113799236714840, 0.1895284950733185, 0.0174918044358492, -0.1748526096343994, -0.0217938963323832, -0.2482127696275711, 0.0924998894333839, 0.1268765479326248, 0.1137392669916153, 0.2403343915939331, -0.1388644427061081, 0.2540166974067688, -0.1292906105518341, 0.0379049666225910, -0.0764879509806633, 0.1138092651963234, 0.1009173244237900, 0.0517909266054630, 0.1920418292284012, 0.0035885320976377, 0.1475755274295807, -0.2663127481937408, -0.0543424971401691, -0.0861656144261360, -0.1536621898412704, -0.2834177017211914, -0.1956074237823486, -0.0905945524573326, -0.0957619026303291, -0.1594362407922745, 0.2818249464035034, -0.0002546490868554, -0.3328031301498413, -0.0503475293517113, -0.2750953733921051, -0.2137640118598938, -0.3222707808017731, -0.0792487636208534, -0.1606274992227554, -0.1134641617536545, 0.0582686029374599, -0.3193826377391815, -0.1337155550718307, -0.0171832367777824, -0.0596415251493454, -0.0646980404853821, -0.1253381669521332, 0.0166677292436361, -0.0258677266538143, -0.0037828665226698, -0.1452656835317612, 0.1871039569377899, 0.1522907614707947, -0.1289130896329880, 0.3758391737937927, 0.1555398404598236, 0.1305789351463318, -0.1473966836929321, -0.0104850549250841, 0.1256198436021805, 0.1005713343620300, -0.1037934795022011, -0.1825864017009735, 0.3311676681041718, 0.0427949689328671, 0.2703467607498169, 0.1559398919343948, -0.1780044287443161, -0.1313199102878571, -0.1420949250459671, 0.1577738672494888, -0.1173816248774529, 0.3231774270534515, 0.0170762147754431, 0.1918513476848602, -0.0087089706212282, -0.2201098203659058, -0.2197626680135727, 0.0461607389152050, 0.0583539344370365, -0.0137324584648013, -0.1698887646198273, 0.2895784378051758, 0.0790003687143326, 0.2721277475357056, 0.1291734874248505, 0.1593854725360870, 0.0581432692706585, -0.0658257529139519, 0.0926258862018585, -0.1463840156793594, 0.1833747178316116, -0.1645916849374771, 0.0426809154450893, 0.1302156746387482, -0.0628045350313187, -0.0977621600031853, -0.0042541758157313, -0.1823146790266037, -0.0325020253658295, 0.1428283005952835, -0.2598051726818085, 0.1108808293938637, -0.0238757692277431, 0.0852513462305069, 0.0234026983380318, -0.1396565139293671, -0.0490396022796631, 0.4085116684436798, 0.0268075168132782, 0.1361335963010788, -0.0093882158398628, 0.0407349318265915, -0.2078399062156677, -0.2391532510519028, -0.1354250162839890, -0.1027499139308929, 0.0786822736263275, -0.0000973149290076, -0.1226068884134293, -0.2108478546142578, -0.1866646111011505, -0.2346721291542053, 0.0434556454420090, -0.0660431236028671, -0.0708114281296730, 0.1857873797416687, -0.2176897376775742, 0.1145879626274109, 0.1103193685412407, -0.1317983567714691, 0.0799920931458473, -0.0022406899370253, -0.0097909057512879, 0.0768342167139053, 0.1355369836091995, -0.1244701296091080, 0.0738596990704536, -0.0080077024176717, 0.0902457088232040, -0.0608738958835602, 0.2218873053789139, 0.1146342828869820, -0.2803488373756409, -0.1163802519440651, -0.1107493788003922, -0.1949422806501389, 0.1369493007659912, -0.0980348959565163, 0.2495065480470657, 0.0399310700595379, 0.0851869881153107, 0.1590145230293274, 0.1137923896312714, -0.3999544382095337, -0.3626740872859955, 0.1468173712491989, -0.3573169708251953, -0.0591806992888451, 0.0850382372736931, 0.2032756656408310, 0.0145528223365545, 0.0807460471987724, -0.1640151590108871, 0.1011864095926285, 0.0401231460273266, 0.2914320528507233, -0.1278579086065292, 0.0426087826490402, 0.1186093538999557, -0.1229588910937309, 0.0054297596216202, -0.1279567331075668, 0.0374964065849781, 0.0348448790609837, -0.1557389497756958, 0.0523671656847000, 0.0423965528607368, -0.0462845750153065, -0.0887543708086014, -0.0033061366993934, -0.3058204352855682, 0.1250083744525909, 0.1070611774921417, 0.0010021204361692, -0.3253811895847321, -0.0215980708599091, -0.3026692867279053, -0.0423877015709877, 0.2165754735469818, 0.2078546434640884, -0.0975034460425377, 0.2540196180343628, 0.0215146802365780, 0.0837334170937538, 0.0128094265237451, -0.1622374057769775, 0.0795580148696899, 0.2860597968101501, 0.0810378044843674, -0.1164360791444778, -0.0836217403411865, -0.1813300848007202, -0.2174755185842514, -0.1256473064422607, -0.2808893024921417, -0.0241662096232176, 0.3652433454990387, -0.2196482270956039, 0.0701636597514153, -0.3721007406711578, 0.2342857420444489, -0.2412709295749664, 0.0455484576523304, -0.2666569650173187, -0.0103632239624858, 0.3070732653141022, -0.1122105047106743, -0.1108706444501877, 0.1729120165109634, 0.2835789620876312, -0.1427316963672638, 0.0712428763508797, -0.2695263624191284, -0.1471407711505890, 0.0921698436141014, -0.0972976163029671, 0.0236922670155764, 0.0113561581820250, -0.3514956831932068, 0.2300502210855484, -0.0132522853091359, 0.0368796177208424, 0.2044391036033630, 0.2009566277265549, 0.1872774809598923, -0.0909335687756538, -0.2354036718606949, 0.3478811979293823, 0.1492071002721786, -0.3512726128101349, 0.2368424832820892, 0.2446833997964859, -0.0775277316570282, -0.0338168367743492, -0.7464746832847595, -0.0671023651957512, 0.2137015312910080, 0.3286170661449432, -0.0206298511475325, 0.2433291524648666, -0.1535566449165344, -0.0486186854541302, -0.2680794596672058, -0.0839018896222115, -0.1734553724527359, -0.0724917799234390, -0.0829097703099251, -0.0901966989040375, 0.2231631428003311, -0.0100845210254192, -0.0184631552547216, 0.1575698405504227, 0.0310105625540018, -0.2382138967514038, 0.2690882980823517, 0.0897603482007980, -0.0210140962153673, -0.0103017520159483, -0.0294356197118759, -0.2916600108146667, 0.1089350953698158, -0.0725780799984932, 0.1413078606128693, 0.1603943407535553, -0.1899431496858597, 0.1433693617582321, 0.0301598627120256, 0.0586495026946068, -0.2743091583251953, 0.1432870030403137, -0.0432985946536064, 0.1472880989313126, -0.1802205443382263, -0.1802416890859604, -0.0172732733190060, 0.1337241828441620, 0.1173559799790382, -0.1866054534912109, -0.2753189802169800, 0.1799207776784897, -0.2125566601753235, -0.3023111820220947, 0.1674662381410599, -0.0579531118273735, -0.2514176964759827, 0.2286117076873779, 0.0381125956773758, 0.0609943680465221, -0.1390508413314819, -0.0569387115538120, -0.1530828624963760, 0.2264108061790466, -0.0909940525889397, -0.0975917652249336, -0.2276878505945206, -0.0141638657078147, -0.2260101884603500, -0.2232349067926407, -0.0174192376434803, 0.1757671386003494, -0.1042792722582817, 0.2664321362972260, -0.1725929826498032, 0.1594566851854324, -0.1189295351505280, 0.1424980163574219, 0.0071329204365611, 0.0133692640811205, 0.0989638790488243, -0.1686134487390518, 0.0874576568603516, -0.0260293129831553, -0.1391187757253647, -0.0670131593942642, 0.2682246863842010, -0.2770994901657104, -0.0021674965973943, 0.1545474231243134, -0.0038637344259769, 0.1006082147359848, 0.2466847151517868, -0.1929124146699905, 0.1480404287576675, 0.0032082977704704, 0.1056122332811356, 0.2976160645484924, 0.0521242283284664, 0.2568727731704712, 0.2015784829854965, 0.2168889194726944, 0.1172192469239235, 0.0265602916479111, -0.2794158160686493, 0.3365380764007568, -0.2343323677778244, -0.0202578511089087, 0.2224746197462082, -0.2300985604524612, 0.0297866910696030, -0.0395516231656075, 0.0139773283153772, 0.0910068154335022, 0.1899204701185226, 0.0035832228604704, 0.0012179365148768, 0.0510118901729584, 0.1189238950610161, -0.1914801150560379, -0.1688909083604813, 0.1641248315572739, -0.1864002048969269, -0.0144273601472378, -0.0451007857918739, 0.0899398252367973, 0.1803784221410751, 0.1485852599143982, 0.0605201087892056, -0.4066277742385864, -0.2066585570573807, -0.1905870735645294, -0.1920586824417114, 0.1394489854574203, -0.4085024297237396, -0.1503119170665741, -0.0272459313273430, -0.1532762199640274, 0.0614756271243095, 0.1918478310108185, -0.1117019131779671, 0.2713290452957153, 0.2314340621232986, -0.0334658920764923, -0.1149013414978981, 0.2373973876237869, 0.2391403764486313, -0.1391461044549942, 0.0125401467084885, -0.1603946834802628, 0.1447921097278595, 0.1049402207136154, 0.0658845007419586, 0.2345595210790634, -0.1014340817928314, 0.0601751878857613, -0.0544530600309372, 0.2888837158679962, -0.0001984675909625, 0.1627253144979477, 0.0537420809268951, 0.2305674105882645, -0.1655531823635101, -0.1471285223960876, -0.1803088337182999, -0.3316423594951630, 0.1042517274618149, 0.3141799271106720, 0.3286129832267761, -0.0005695750587620, -0.0294649656862020, 0.0688407644629478, 0.1883473247289658, -0.3423475325107574, -0.1723376363515854, 0.2981305420398712, -0.1254035234451294, 0.0268376786261797, -0.1736650466918945, 0.1416199207305908, -0.3431944847106934, 0.2524045109748840, 0.2484178990125656, -0.1894523352384567, -0.3049996793270111, -0.0699514150619507, 0.0896332189440727, -0.0440489687025547, 0.1817527860403061, 0.0517521388828754, 0.1283574849367142, -0.3993149399757385, -0.0931921973824501, 0.0964335352182388, -0.1009228751063347, 0.3709987401962280, 0.0938546583056450, -0.2976937294006348, -0.1230110153555870, -0.3072742819786072, 0.1212473213672638, -0.2051107287406921, -0.0924482494592667, 0.1388588547706604, 0.4018299877643585, 0.2618724405765533, -0.1531983464956284, 0.2715700566768646, -0.1044174209237099, 0.1062136888504028, 0.3557644784450531, -0.0379784442484379, 0.2580669820308685, 0.1628705263137817, 0.3869435191154480, -0.0180999450385571, -0.1514390856027603, 0.1514445394277573, 0.1403081268072128, 0.0066389427520335, 0.0734367445111275, -0.0082601942121983, 0.2318041324615479, -0.2921890914440155, 0.3807105123996735, -0.3138929605484009, 0.1493106931447983, 0.2837306559085846, -0.3204193413257599, 0.3554510474205017, -0.2606661915779114, 0.2447384893894196, 0.2723013162612915, -0.0117371510714293, 0.2058592140674591, -0.1533535867929459, 0.1258693784475327, 0.0764653682708740, 0.2431602180004120, -0.2226171940565109, -0.2492736726999283, 0.1069217175245285, 0.0734668970108032, -0.0194953754544258, 0.0925740525126457, -0.1356860548257828, -0.0302406605333090, 0.2474144697189331, 0.0846040174365044, -0.1838359087705612, -0.2095214575529099, 0.2743977904319763, 0.2946590781211853, -0.0027263863012195, 0.2361033409833908, -0.2839575409889221, -0.0646494850516319, -0.0995433181524277, -0.0533911511301994, 0.2907549440860748, -0.0254556853324175, -0.1029032915830612, -0.1911441385746002, -0.1846578717231750, -0.0179474689066410, -0.1560838520526886, -0.2769882977008820, -0.1231346800923347, -0.1490067094564438, -0.0550465770065784, 0.0528688989579678, -0.3332368135452271, -0.1589714437723160, -0.1655143499374390, -0.0503157749772072, 0.2973076403141022, 0.0166533309966326, -0.0363831743597984, -0.2636202871799469, 0.1580755561590195, 0.3445426821708679, -0.1615354418754578, 0.2410392910242081, 0.2354831844568253, 0.1054594591259956, -0.0054353885352612, -0.0077983238734305, -0.1087209135293961, 0.3421815037727356, 0.1843808591365814, 0.2590924799442291, 0.2419859617948532, -0.1010881513357162, 0.0952430441975594, -0.0676181167364120, -0.2230286300182343, -0.2834090292453766, 0.0948357954621315, -0.2094380259513855, 0.0379030704498291, 0.2169585525989532, -0.0171511285007000, 0.0731571242213249, 0.3561519682407379, 0.1887916922569275, 0.1989997029304504, -0.3112756609916687, -0.0057773077860475, 0.2418767213821411, -0.4090923070907593, -0.1030653193593025, 0.2297022789716721, 0.2427155226469040, -0.0618464015424252, -0.1377620249986649, -0.3127061128616333, -0.2183281183242798, 0.0539370067417622, 0.3094142675399780, -0.2205390185117722, -0.0154997128993273, -0.0795261263847351, -0.0837116315960884, -0.1369769573211670, -0.0984344780445099, 0.0263700373470783, 0.0279510002583265, -0.1115285903215408, -0.0508817583322525, 0.0521645061671734, 0.3234657645225525, 0.2378266453742981, 0.0564880259335041, 0.1280399560928345, 0.0040092105045915, -0.1043074652552605, -0.0836946293711662, -0.0225022193044424, 0.0239733718335629, -0.0052257520146668, -0.0086497403681278, 0.0510514266788960, 0.1534784883260727, 0.1823529750108719, 0.2041182965040207, 0.0643172338604927, 0.3168205022811890, 0.0517828911542892, 0.2272591888904572, -0.0404516495764256, -0.0117803560569882, 0.0114053757861257, -0.0872327834367752, 0.0452587641775608, 0.0669231265783310, -0.0737047269940376, 0.3030586540699005, 0.0137247387319803, 0.1963635832071304, 0.1353681683540344, 0.4094310998916626, 0.0861471220850945, -0.0701262205839157, -0.0852825045585632, -0.1692091375589371, 0.2062789201736450, -0.1793455928564072, 0.0318725258111954, 0.0491920709609985, -0.0993299484252930, 0.1623260974884033, 0.4417542517185211, 0.1233185008168221, 0.1040483415126801, 0.0316104367375374, -0.0670475959777832, 0.1072774752974510, 0.1793098747730255, 0.2236991524696350, 0.0063116010278463, 0.0785197019577026, 0.0909901186823845, -0.1606974303722382, 0.3363870978355408, -0.0226624440401793, 0.2173431664705276, 0.3662308454513550, 0.0619070678949356, 0.0238071884959936, 0.2919526398181915, 0.3863238990306854, 0.0459470860660076, -0.0672929435968399, -0.3013193905353546, 0.0676226466894150, -0.1094367653131485, 0.1037130132317543, -0.0024143294431269, 0.2456513643264771, 0.0827514082193375, -0.1354539841413498, 0.0887308046221733, 0.0941870734095573, -0.0152666242793202, 0.0379974208772182, -0.1644900292158127, 0.0684876963496208, 0.2593895494937897, 0.0515346638858318, 0.1859178692102432, -0.0274580046534538, 0.1796046048402786, 0.0750382393598557, 0.1788035929203033, -0.0159986037760973, 0.3301278054714203, 0.1215313896536827, 0.0136774685233831, -0.1119439974427223, 0.2075210809707642, 0.0979466214776039, 0.1418945342302322, -0.2226295322179794, -0.0655766576528549, -0.0979231745004654, -0.0444214977324009, 0.0437454283237457, 0.0673224031925201, -0.0625190660357475, -0.0224375613033772, 0.1689071506261826, 0.2326469272375107, 0.0666527152061462, 0.0678665488958359, 0.0002865130372811, 0.0278248991817236, 0.1709445118904114, -0.1100518852472305, 0.1670882999897003, 0.3060239553451538, 0.0039458833634853, 0.1259928494691849, 0.0610668063163757, 0.0248591378331184, 0.2870691716670990, 0.2188559025526047, -0.1160435229539871, 0.0943459942936897, -0.2407232075929642, 0.0123683018609881, 0.0914595499634743, 0.2851963341236115, -0.0031875271815807, 0.0135296676307917, -0.0030424811411649, 0.0393650606274605, 0.1095349714159966, -0.0205784775316715, 0.0639758333563805, 0.0513770058751106, -0.0936052799224854, 0.0435587652027607, -0.1463680565357208, 0.0346028134226799, 0.0939286649227142, 0.0014370367862284, -0.0222824867814779, 0.0540265962481499, -0.0263260509818792, 0.0013096743496135, 0.0475200936198235, 0.0497948490083218, -0.0576065666973591, -0.0370946265757084, -0.0762273222208023, -0.0016355041880161, -0.0585077293217182, 0.2730347812175751, 0.0232154671102762, 0.0395961143076420, -0.0407041683793068, -0.0600607879459858, -0.0216703880578279, -0.0244529061019421, 0.0656303912401199, 0.0910635069012642, -0.1465998888015747, -0.0176146924495697, 0.0951708555221558, -0.0511746108531952, 0.0525425821542740, -0.0023731510154903, -0.0869016572833061, -0.0561352930963039, -0.1297937333583832, 0.0408184640109539, -0.0052898018620908, -0.0120207443833351, -0.0919640809297562, 0.0708803161978722, 0.0037993218284100, 0.0628622695803642, -0.0476968400180340, 0.0282994769513607, 0.0299621988087893, 0.1141713112592697, 0.0193604975938797, -0.0615530088543892, -0.0015883954474702, 0.0127189280465245, -0.0308522339910269, -0.0558625832200050, 0.0075036804191768, 0.0347760841250420, -0.0806513503193855, 0.0314672179520130, -0.0167886391282082, -0.0507922805845737, -0.0310264136642218, 0.0585495494306087, 0.0353562161326408, -0.0047880234196782, -0.2798914909362793, -0.0965339019894600, 0.0814253389835358, 0.0626729875802994, 0.0412015989422798, -0.0796129330992699, -0.1057338342070580, 0.1926683485507965, 0.0250554326921701, -0.0435445234179497, 0.0188579186797142, 0.1627637296915054, 0.0473589040338993, 0.0125718964263797, -0.0131655316799879, -0.1269600838422775, -0.0549893043935299, -0.0546561405062675, 0.2596436142921448, 0.0279674716293812, 0.1633061617612839, -0.0671686604619026, -0.1731316149234772, -0.0012218282790855, 0.0891747251152992, -0.0183145496994257, -0.0350445769727230, -0.0555911101400852, 0.1620862632989883, -0.0098287528380752, 0.0643465518951416, 0.0726441070437431, 0.0464207679033279, 0.1053015664219856, 0.0791765823960304, -0.0522138029336929, 0.0662886798381805, 0.1205524131655693, 0.0766850411891937, 0.1687512248754501, -0.0295135844498873, 0.0392728969454765, 0.0301696602255106, 0.0550624877214432, 0.0279449652880430, 0.0334383696317673, 0.0109990620985627, -0.0448119193315506, -0.0854896456003189, 0.0611255429685116, -0.0237538218498230, 0.0221717208623886, 0.0796324536204338, 0.0507461987435818, 0.0623523369431496, 0.0384564809501171, 0.2186174243688583, 0.0837812647223473, 0.0087036760523915, 0.0445957519114017, 0.0175803638994694, 0.0703194364905357, -0.0168301295489073, -0.0329967550933361, 0.0760378912091255, 0.1045707613229752, -0.1324758231639862, 0.0300746858119965, 0.0948995724320412, 0.0530033111572266, 0.0208949316293001, 0.0355112180113792, -0.0289026517421007, 0.0448925532400608, -0.0100304065272212, 0.0050743292085826, -0.0019579536747187, 0.2018146514892578, 0.0110175302252173, -0.0288934502750635, -0.0774494186043739, -0.0296017043292522, -0.0209650434553623, 0.0457598865032196, 0.0232466310262680, -0.0651794895529747, -0.0499758310616016, -0.0431574657559395, 0.0827504694461823, 0.0104680657386780, 0.1217998936772346, 0.1436924338340759, 0.0221216175705194, 0.0350174978375435, 0.0520263127982616, 0.0139590101316571, 0.0594394281506538, 0.0742814689874649, -0.0150353107601404, 0.1289537250995636, 0.0325663611292839, -0.0408467911183834, -0.0099446028470993, 0.1105010360479355, 0.0174353122711182, 0.2021217793226242, 0.0073274569585919, -0.0323607586324215, -0.0589256137609482, 0.0065565956756473, 0.0384822860360146, -0.1657973229885101, -0.0489597655832767, -0.0652587115764618, 0.1065345183014870, -0.0427335053682327, -0.0070769023150206, 0.0145127642899752, 0.0149379828944802, 0.0307844132184982, 0.1585274636745453, 0.0267873611301184, 0.0052742734551430, 0.0871160477399826, 0.0525021627545357, -0.0127470688894391, 0.0008069963660091, -0.0797861590981483, -0.0104829147458076, -0.0003185588575434, -0.0372163914144039, 0.0009965802310035, 0.0597524903714657, -0.0204430483281612, 0.0323384515941143, 0.0120156742632389, -0.0282543580979109, 0.1069517582654953, 0.0814309492707253, 0.0160632897168398, -0.0411446057260036, -0.0598446838557720, 0.0327327437698841, -0.0225223246961832, 0.0720990449190140, -0.0180050320923328, 0.2441221922636032, -0.0249718725681305, -0.0688604041934013, 0.1883927881717682, -0.0089723104611039, -0.0202622953802347, -0.0104618193581700, 0.0515634305775166, 0.1023478135466576, 0.1233840584754944, -0.0161518286913633, -0.0260840505361557, -0.0982072874903679, 0.0068885833024979, -0.0032084614504129, -0.0039758943021297, -0.0296094547957182, 0.0024470330681652, 0.0621161684393883, 0.0332662500441074, -0.0225288141518831, -0.0999331697821617, 0.0121188368648291, 0.0515748113393784, -0.0349255278706551, 0.0285355877131224, -0.0598693788051605, 0.0278697721660137, -0.0199036877602339, 0.0719020441174507, -0.0109636783599854, -0.0317380018532276, -0.1281200051307678, -0.2024019658565521, 0.0178026333451271, 0.0043619000352919, -0.1533324271440506, -0.0931849405169487, 0.0456504411995411, -0.0158090386539698, 0.0980409011244774, 0.1012869849801064, -0.0124630685895681, -0.2620097696781158, 0.1912406682968140, -0.0539955049753189, -0.0218604709953070, -0.0015454742824659, 0.0697598531842232, -0.1772234290838242, 0.2780034244060516, 0.0477527119219303, 0.2580234110355377, -0.2672043442726135, 0.2687186598777771, 0.0630797222256660, 0.3445131182670593, 0.1763588190078735, 0.1766742020845413, 0.1385004222393036, 0.0084533281624317, -0.0078627169132233, 0.1057529225945473, -0.1016711890697479, -0.0104363448917866, 0.0691160783171654, -0.1375714540481567, 0.1700254827737808, -0.2027485519647598, 0.2704512178897858, -0.0164007898420095, -0.0813265144824982, 0.1333385854959488, 0.0457509905099869, 0.3684301674365997, 0.0071271602064371, 0.1789010018110275, -0.1244876459240913, -0.0832266435027122, 0.1374954283237457, 0.1310833692550659, -0.0850530564785004, 0.2603621780872345, 0.1045396924018860, -0.1776226460933685, -0.2618829607963562, 0.1654602736234665, 0.2332869023084641, -0.0440653041005135, 0.1661417633295059, 0.1248791813850403, 0.0502827763557434, 0.1154495626688004, 0.0375584140419960, 0.1307564377784729, 0.0684890449047089, -0.0964992940425873, 0.1989006251096725, 0.0072575123049319, 0.0247154608368874, 0.1231198981404305, 0.2820604145526886, 0.3922430574893951, -0.0506615377962589, -0.0217484105378389, 0.0801235660910606, -0.0339517220854759, -0.0708962976932526, -0.0253385119140148, -0.0280962642282248, -0.1711276918649673, -0.0469539873301983, -0.0529234185814857, 0.2259170562028885, -0.0079012261703610, -0.0706264749169350, 0.0812733769416809, -0.1602606177330017, 0.0856557786464691, 0.3725513815879822, 0.0098854834213853, 0.2084258347749710, -0.1192215457558632, 0.1974591165781021, -0.0493153519928455, 0.0200993586331606, 0.1628948748111725, 0.0446101278066635, 0.0456014573574066, 0.2884129881858826, 0.0525352396070957, -0.0935625955462456, -0.1644774526357651, 0.3704714477062225, -0.3123322129249573, -0.0999773219227791, 0.0345779396593571, -0.1818457543849945, -0.0345233455300331, 0.3139175772666931, -0.0736559703946114, 0.0285127572715282, -0.3348712921142578, 0.0314402095973492, 0.0124398516491055, 0.0453803837299347, -0.0824697837233543, 0.0921115428209305, 0.0339133851230145, 0.0641011223196983, 0.0669475570321083, -0.2320177555084229, 0.0529343709349632, 0.0899260863661766, 0.0556735694408417, 0.2275834381580353, -0.0618335939943790, -0.2205607593059540, -0.1103983074426651, 0.0485755763947964, -0.1525656580924988, 0.2049955427646637, -0.0723446905612946, 0.3701179325580597, 0.2041903138160706, -0.0398671776056290, 0.4115566313266754, -0.1344208270311356, 0.1045224294066429, 0.0359287559986115, -0.0119367288425565, 0.0226115062832832, 0.1082076802849770, 0.0228227116167545, -0.1064515933394432, -0.0166113562881947, -0.0480646044015884, 0.0811719521880150, 0.0181957110762596, 0.0597690008580685, 0.1322537064552307, -0.0799079015851021, -0.0339983776211739, -0.0256869979202747, 0.1973560601472855, 0.1206967234611511, 0.0487162023782730, -0.0596994906663895, -0.0726612582802773, 0.0550884753465652, 0.0901015922427177, -0.0255290009081364, 0.0098088402301073, 0.0475043505430222, -0.1082579270005226, 0.0087461937218904, -0.0313884951174259, -0.1132553443312645, 0.0207034070044756, 0.0378320962190628, -0.0176736321300268, -0.0405583791434765, -0.1113433539867401, -0.0599418766796589, -0.1528603583574295, -0.0250328071415424, -0.0132669163867831, -0.0029156038071960, -0.0273165665566921, 0.0010046676034108, 0.0401827059686184, -0.0163776390254498, 0.1375695914030075, -0.0012633256847039, 0.0899833291769028, 0.0438438244163990, -0.0548954233527184, -0.0584297068417072, -0.0267321411520243, -0.0057417112402618, 0.0343162678182125, -0.0695096105337143, 0.1563493460416794, -0.0366091914474964, 0.0595296360552311, 0.1015653684735298, -0.0449962764978409, -0.0012892005033791, -0.0660284832119942, 0.1117475479841232, -0.0503918007016182, 0.0052339206449687, -0.0022361243609339, -0.0928191766142845, 0.1852222234010696, -0.0271369200199842, -0.0097199054434896, 0.0175394359976053, -0.0193252377212048, 0.0467906109988689, 0.0065389308147132, -0.1182899326086044, 0.0038442702498287, 0.0429876036942005, 0.0385541357100010, 0.0140491183847189, 0.0748536437749863, -0.0276028346270323, -0.0326911769807339, 0.0551198162138462, -0.0059158913791180, -0.0509365946054459, -0.0025637110229582, 0.0093855801969767, 0.0183742195367813, -0.0882270708680153, 0.0914377868175507, -0.0294713806360960, -0.0367474257946014, -0.0525906421244144, 0.0445866622030735, -0.1548675447702408, -0.0240915678441525, -0.0532417111098766, 0.0770677998661995, 0.0492853075265884, 0.0677470564842224, -0.1030132845044136, 0.0330810397863388, -0.0601968169212341, 0.0297432430088520, -0.0323554612696171, -0.1040297746658325, -0.0893327370285988, 0.0021441266871989, 0.0140106836333871, -0.0214372575283051, 0.0041703153401613, -0.0191657878458500, 0.1304478198289871, -0.0711322501301765, 0.0213440358638763, 0.1008217781782150, 0.1125546842813492, 0.0043993955478072, 0.0325280502438545, 0.0342747755348682, 0.0150372888892889, -0.0051854816265404, 0.0484954379498959, -0.0316518880426884, -0.0085286311805248, -0.0373615361750126, 0.0385935157537460, -0.0219398140907288, 0.0234711263328791, -0.0428158640861511, -0.0420891009271145, 0.0271668806672096, -0.1030935496091843, -0.0008961319108494, -0.0049267662689090, -0.1350493878126144, 0.0152421407401562, -0.0904872342944145, -0.0825598314404488, 0.1631837189197540, 0.0534453913569450, -0.1204757913947105, -0.0594448558986187, 0.0774172097444534, -0.0220404751598835, -0.0538194179534912, -0.0762291997671127, -0.0278282929211855, -0.0412898510694504, -0.1038868501782417, -0.0061332634650171, 0.0547605678439140, -0.1182588413357735, 0.0082879224792123, 0.0602578744292259, 0.1772919893264771, 0.0314228199422359, 0.0544247366487980, 0.0787445306777954, -0.0631313845515251, 0.2447473704814911, -0.0142342206090689, 0.0192907620221376, 0.0942584425210953, -0.0376227200031281, -0.0366615578532219, -0.0278526525944471, -0.0261652618646622, -0.0060635413974524, -0.0443449951708317, 0.0379301346838474, 0.0631580576300621, 0.0116617130115628, 0.0158044900745153, -0.0625338405370712, -0.0526448599994183, 0.0248874984681606, 0.0702507123351097, -0.0962752103805542, -0.0694841742515564, -0.0571514517068863, -0.0048419446684420, -0.0243938602507114, 0.1328993886709213, -0.0616194009780884, 0.0640138313174248, 0.1201692447066307, -0.1345497071743011, -0.0547733232378960, -0.0011489890748635, 0.1467135697603226, -0.0191928353160620, 0.0033231691922992, 0.0375969000160694, -0.0222945734858513, -0.0102774286642671, -0.0391749627888203, -0.0584368109703064, 0.0014798195334151, -0.0054745818488300, -0.0318264774978161, -0.0303726010024548, -0.0240479055792093, 0.0299076959490776, 0.0505051463842392, 0.0048983581364155, 0.0674978271126747, 0.1176915168762207, 0.1065607592463493, -0.0620985589921474, 0.0702886953949928, 0.0651836320757866, 0.1112878769636154, -0.0123411454260349, -0.0619931668043137, -0.1117480471730232, -0.1656765192747116, -0.0496533587574959, -0.0355203635990620, 0.0114830257371068, 0.0136807970702648, -0.0206928923726082, 0.1189285889267921, -0.0216019619256258, -0.0279555320739746, 0.0513623096048832, 0.0832595154643059, 0.0413129776716232, 0.1274396330118179, -0.0010645003058016, -0.0541776902973652, -0.0524183101952076, -0.0128235761076212, 0.0135238384827971, 0.0372389443218708, 0.0176011770963669, 0.0839861780405045, 0.0404888167977333, -0.0642755329608917, 0.0172110106796026, -0.0688267350196838, -0.0189925748854876, 0.0771724954247475, -0.0594222769141197, -0.1400745213031769, 0.0213102530688047, -0.0069399885833263, 0.0137268928810954, 0.0424834042787552, 0.0115956030786037, 0.0543175674974918, 0.0141058703884482, 0.0548725724220276, -0.0243442673236132, 0.1198980882763863, -0.1211576461791992, 0.0293404571712017, -0.2438054084777832, -0.1280256807804108, 0.0206765756011009, 0.0478901416063309, 0.0894693210721016, 0.0739021673798561, 0.1858510822057724, 0.4954261779785156, -0.1914398223161697, 0.0820150151848793, -0.0121518392115831, 0.0472009778022766, 0.3437200188636780, 0.0225394349545240, 0.0177711993455887, 0.3776119053363800, 0.3024778962135315, 0.1998280733823776, -0.0882531702518463, -0.1273412406444550, -0.0774473026394844, 0.3153635859489441, 0.4340382218360901, 0.2906143069267273, -0.0523908138275146, 0.1782821714878082, -0.0505598634481430, 0.2696994245052338, -0.1215711534023285, 0.4016552269458771, 0.3022339940071106, -0.1284203082323074, -0.1192620024085045, 0.0795747041702271, 0.0872174799442291, -0.3577739298343658, -0.0844351276755333, 0.1842831224203110, -0.0286337807774544, 0.0055015166290104, -0.1235540434718132, 0.3985316157341003, -0.3560770750045776, 0.1214244067668915, 0.1751851588487625, 0.0328434631228447, -0.0059717693366110, 0.2990452945232391, -0.0136300558224320, -0.1616306751966476, -0.1118702217936516, 0.1094139516353607, 0.0425635389983654, 0.0606490299105644, 0.1150079071521759, 0.2489626407623291, 0.0791359096765518, -0.2256228029727936, 0.2139587402343750, 0.0811669230461121, 0.2992879152297974, 0.1043944358825684, 0.4712972939014435, 0.2576890885829926, 0.0700609683990479, -0.1530374139547348, -0.0096626533195376, -0.0091109815984964, 0.2226308584213257, -0.0327544473111629, 0.0455199182033539, 0.3192666471004486, 0.1916567981243134, 0.1335531175136566, 0.0741429179906845, 0.1752020567655563, 0.2057585269212723, 0.1033379137516022, 0.2339220792055130, 0.0135973654687405, 0.2894419729709625, 0.0697024613618851, -0.1734169274568558, -0.0564217492938042, 0.2921841144561768, 0.0060979514382780, 0.0865394547581673, 0.0632074549794197, 0.2934314310550690, 0.2970638275146484, -0.3323717713356018, 0.2262857258319855, 0.1897288113832474, 0.0440200157463551, 0.0961765721440315, -0.1659081578254700, 0.0605665035545826, -0.1337138861417770, -0.0894384905695915, -0.0204920228570700, 0.0894028171896935, -0.3103647828102112, -0.1042994037270546, 0.0731192156672478, -0.0548407100141048, 0.2325465679168701, -0.1251447647809982, -0.0951332226395607, 0.4028666019439697, 0.1290494948625565, -0.1572272926568985, -0.0154625466093421, 0.1578832715749741, -0.0781102031469345, 0.0393740423023701, 0.1795473396778107, 0.1725175827741623, 0.0482995361089706, -0.1464148908853531, 0.1263761818408966, 0.3280460536479950, 0.3328895866870880, 0.1578693091869354, 0.3215260803699493, 0.3405995070934296, -0.2412261962890625, 0.0615144968032837, -0.1274423450231552, -0.0364609099924564, 0.0639515146613121, -0.0066343736834824, -0.0222831573337317, -0.0660460516810417, 0.0420679561793804, 0.0172282066196203, -0.0796124935150146, 0.0412901826202869, -0.0893278792500496, 0.0729629099369049, -0.0286063309758902, 0.1788102835416794, 0.0171699505299330, -0.0084437979385257, -0.0757203623652458, 0.0457089468836784, -0.2098072171211243, 0.0071086953394115, 0.0103488052263856, 0.0603605248034000, -0.0147155886515975, 0.0294173024594784, 0.2065655589103699, -0.0217779278755188, -0.0033011201303452, -0.0102439988404512, 0.0246020052582026, 0.0345231033861637, 0.0428926907479763, 0.2501981556415558, -0.0421080179512501, 0.1491030156612396, 0.0251536518335342, -0.1314096301794052, 0.0123534230515361, 0.2082409113645554, -0.0011029352899641, 0.0652362853288651, 0.0142675423994660, 0.0489563792943954, 0.0941583290696144, 0.1468659639358521, -0.0165707096457481, 0.0622304007411003, 0.0173039585351944, 0.1109544932842255, -0.1258712261915207, 0.0710700228810310, -0.0100730154663324, 0.0969491526484489, 0.0319676697254181, 0.0190824493765831, -0.1042824536561966, -0.1120049804449081, -0.1079252064228058, 0.0313285738229752, 0.0246481150388718, 0.0566053390502930, -0.0028221027459949, 0.0432687811553478, -0.0195311959832907, -0.0428614132106304, -0.0525197349488735, 0.0018037128029391, -0.0114734591916203, -0.1264966875314713, 0.0704372450709343, 0.0273400470614433, -0.0861093923449516, -0.0242039170116186, 0.0309437792748213, 0.0487259551882744, -0.0379814803600311, 0.1252654790878296, -0.0185043066740036, -0.0094870133325458, 0.2444714754819870, -0.0806643813848495, -0.0129337273538113, -0.2886668741703033, 0.0966593176126480, -0.0233521815389395, -0.0777845978736877, 0.0442528724670410, 0.0028871782124043, -0.0282797086983919, 0.0485899858176708, -0.0286207329481840, -0.0558509193360806, -0.0299566071480513, 0.0509267002344131, -0.0683173984289169, 0.0108663272112608, 0.0910618230700493, -0.0021288159769028, -0.0330915376543999, -0.0475144721567631, 0.0171297602355480, 0.0682353004813194, 0.1071778237819672, 0.0573395900428295, -0.1449681371450424, -0.0139128258451819, -0.0207448825240135, 0.1147768944501877, -0.0067667155526578, -0.0896329656243324, 0.1756962835788727, -0.0455870516598225, -0.0911194831132889, 0.0749887377023697, -0.0102437604218721, 0.0413082391023636, -0.0553890429437160, 0.0721667483448982, 0.0304892156273127, -0.1332153677940369, 0.0666890367865562, 0.0074035604484379, -0.0494861155748367, 0.0928438380360603, -0.0120130097493529, 0.1977515220642090, -0.0335847884416580, -0.0312605984508991, -0.0024494368117303, 0.0814717113971710, 0.0842494517564774, 0.0061309812590480, 0.0487118251621723, -0.0023085647262633, 0.1481239795684814, -0.0398612245917320, -0.0544443838298321, 0.0299966391175985, 0.0368563607335091, -0.0305501241236925, -0.0144394310191274, -0.0260997470468283, -0.0599975138902664, -0.0070397290401161, -0.0242051854729652, 0.1352381110191345, 0.0130587881430984, -0.1507968753576279, -0.0898176655173302, 0.0959035605192184, -0.0479294434189796, -0.2568964064121246, 0.0088074896484613, 0.0159259494394064, -0.1158415749669075, -0.0506008155643940, 0.0851831138134003, 0.0730880200862885, 0.0445573702454567, 0.0395005196332932, 0.0706428438425064, 0.0756915435194969, -0.1036600172519684, -0.0088250730186701, -0.1863882988691330, -0.0132595561444759, 0.0037774296943098, 0.0119045702740550, 0.0358144342899323, -0.0844274014234543, 0.0033625059295446, 0.0017987379105762, 0.0418910272419453, 0.1620980948209763, -0.0787659659981728, -0.0581003651022911, -0.0614879466593266, 0.1177937537431717, -0.0553594380617142, -0.0792311429977417, 0.0422157719731331, -0.0385347492992878, 0.0189803987741470, 0.0699868872761726, -0.0313567481935024, 0.1835425347089767, 0.0120412670075893, 0.0195962898433208, -0.0220492556691170, -0.2074671685695648, -0.0782177224755287, -0.1255721598863602, -0.0112291369587183, 0.0535503290593624, -0.0821779966354370, 0.0196698196232319, -0.0503453537821770, 0.1135337054729462, -0.0729180574417114, -0.0067221834324300, 0.0717450380325317, 0.0520835518836975, -0.1042695268988609, -0.0469484962522984, -0.0176122896373272, 0.0311247855424881, -0.0100575666874647, 0.0388619303703308, 0.1199217140674591, -0.0236597154289484, -0.0284442063421011, -0.2079398185014725, 0.0065178950317204, -0.0901595652103424, 0.1580078005790710, 0.0476088561117649, -0.0426333807408810, 0.0293035861104727, 0.0146552175283432, -0.1860092580318451, 0.0578526370227337, -0.0313131175935268, 0.1368844807147980, 0.0470735207200050, 0.0918555632233620, 0.0757708251476288, -0.1137503013014793, 0.0553686283528805, 0.0197156779468060, 0.0776851177215576, 0.0511099584400654, 0.0157479383051395, 0.0540491603314877, -0.0716836377978325, 0.0330668054521084, 0.0336626395583153, -0.0146732144057751, -0.0391484461724758, -0.0122880004346371, 0.0315156243741512, 0.0156575534492731, 0.0451259873807430, -0.1907288134098053, -0.1159773617982864, -0.0489834919571877, 0.0705508440732956, -0.0014382370281965, 0.1827008426189423, 0.0278380550444126, -0.0264706071466208, 0.0039047996979207, 0.1692038327455521, -0.0362739972770214, 0.2313127815723419, -0.2002792954444885, -0.1540565490722656, 0.0631833449006081, -0.0071344189345837, 0.0134557066485286, 0.0984939187765121, 0.2022705376148224, 0.0478170812129974, 0.1279486417770386, -0.2759642899036407, -0.2219131290912628, 0.1005991101264954, 0.0239209346473217, 0.0829309374094009, -0.3118541240692139, -0.4531418681144714, 0.2449347227811813, -0.0067878775298595, -0.0615803487598896, 0.0268191602081060, 0.0875775143504143, 0.2821528911590576, 0.1106823012232780, -0.2837355732917786, 0.0827164202928543, 0.0210764780640602, 0.2703182101249695, 0.1349383890628815, -0.0553652867674828, -0.0313766263425350, -0.2243828028440475, 0.1578350663185120, -0.1103153377771378, -0.1133013963699341, 0.2628356814384460, -0.2026006281375885, -0.0170614290982485, 0.0415685735642910, -0.0788592621684074, -0.1823834329843521, 0.0571497529745102, -0.1306998431682587, 0.0764563381671906, 0.1265856474637985, 0.1233615502715111, 0.1397798359394073, -0.0424463413655758, -0.0667064562439919, -0.1212116554379463, -0.0849091932177544, 0.1986845880746841, -0.1165350228548050, -0.2842540740966797, -0.2057462483644485, -0.2234394550323486, 0.0014510015025735, 0.1426960378885269, 0.0804334878921509, -0.1388489902019501, 0.1262875646352768, 0.2961914241313934, -0.3476836383342743, 0.1485940665006638, -0.0491709262132645, 0.3212758600711823, -0.0564150325953960, -0.2653883695602417, -0.2124892175197601, 0.2921641469001770, -0.2880904078483582, -0.1532353013753891, 0.3805351853370667, 0.1753869354724884, -0.0095683010295033, -0.3553586006164551, 0.1054002642631531, 0.4057392477989197, 0.3032839298248291, 0.0068385684862733, 0.0529406554996967, -0.0737380161881447, 0.2532405555248260, -0.2945229709148407, 0.2815858423709869, 0.2519382536411285, 0.2832068800926208, -0.0074242954142392, 0.2537408769130707, -0.0579416267573833, 0.4192709326744080, -0.0136344069615006, 0.1423214524984360, -0.0361573211848736, -0.1352701038122177, -0.2763952314853668, 0.2560262084007263, 0.4610585272312164, -0.0521316230297089, 0.0829451903700829, 0.1063476353883743, -0.0433148741722107, -0.1821698248386383, 0.3301737904548645, 0.2812560796737671, 0.0238820500671864, 0.1054209023714066, -0.2113520801067352, -0.1657276749610901, 0.0174993257969618, 0.5792710781097412, 0.1109482347965240, 0.0593060962855816, -0.0060170097276568, -0.1342828571796417, -0.2224055379629135, 0.0461189262568951, -0.1122275218367577, -0.1204854995012283, -0.3329708874225616, 0.0224374085664749, 0.2111454010009766, -0.2540293335914612, -0.2268478572368622, -0.1214142814278603, -0.1453260183334351, 0.0554243624210358, -0.1815796196460724, -0.0917746275663376, -0.0298776458948851, -0.0915112644433975, 0.1702450960874557, -0.3872315585613251, 0.0028713238425553, -0.1043987870216370, 0.2116043269634247, 0.0088258832693100, 0.0538241975009441, 0.2336968779563904, -0.0296596121042967, 0.0149077577516437, -0.0102603053674102, 0.2645701467990875, 0.1350702345371246, 0.0366794057190418, -0.0666352212429047, -0.0353937745094299, 0.0430110581219196, 0.1969388723373413, 0.0239545349031687, 0.0721183866262436, 0.0520555078983307, 0.0003849851491395, -0.0485301055014133, -0.0086898831650615, 0.0052810646593571, 0.2195425182580948, -0.0489977709949017, 0.0489006452262402, 0.0131260221824050, 0.1190257444977760, 0.0209836419671774, 0.0267761442810297, 0.2289630770683289, 0.1985962092876434, 0.1247120499610901, 0.0151826199144125, 0.0049146381206810, -0.0258014313876629, -0.0620908476412296, 0.0555912218987942, -0.0330216810107231, -0.1434248387813568, 0.0292359367012978, -0.0435097068548203, -0.1477875709533691, 0.0555836930871010, -0.1573277860879898, -0.0410769581794739, 0.1754159331321716, 0.2023699879646301, 0.0632061287760735, 0.0582668371498585, -0.0225071515887976, 0.0528283528983593, 0.0430415458977222, -0.2115791589021683, -0.2097758650779724, 0.1635313481092453, 0.0160308219492435, 0.0785956457257271, -0.2868722081184387, -0.2204848676919937, -0.1793703287839890, 0.1279697418212891, -0.2875044643878937, -0.0122292656451464, -0.0242628995329142, -0.0821140259504318, 0.0210818704217672, -0.2071268856525421, -0.1390527188777924, -0.0416607037186623, 0.1160431578755379, 0.0467761494219303, -0.1072919294238091, 0.2834194898605347, 0.1318759620189667, -0.0470848530530930, 0.1883234679698944, -0.3521794974803925, 0.0971197560429573, -0.1073641330003738, -0.0622038356959820, -0.0479745529592037, -0.1558351665735245, 0.1581584811210632, -0.0101941525936127, -0.0002950811176561, 0.0292444881051779, -0.0733168646693230, 0.0398744493722916, 0.1539528667926788, -0.0093254232779145, -0.0734612345695496, -0.2379971295595169, 0.0375178903341293, 0.0409340523183346, 0.0248322505503893, 0.1252101212739944, 0.0827413648366928, -0.0475909970700741, -0.1549031138420105, 0.1851655244827271, 0.1017674878239632, 0.0518709346652031, 0.0437619611620903, 0.0362189002335072, 0.0949857681989670, -0.1367125362157822, -0.0510458573698997, 0.0008379058563150, 0.0085650747641921, 0.0368622690439224, -0.0041276360861957, 0.1396751701831818, 0.0707805305719376, -0.0081648863852024, -0.0936300754547119, -0.1107734739780426, -0.0695751905441284, -0.2228403985500336, 0.0540210157632828, 0.0882391035556793, 0.0723042041063309, 0.0246450044214725, -0.0631432905793190, 0.0206470917910337, -0.1184418424963951, -0.2198968529701233, 0.0216622743755579, 0.0200426112860441, -0.1456314027309418, -0.0129045285284519, -0.0656041651964188, 0.0233047343790531, -0.0061187162064016, -0.0661753341555595, 0.0482091233134270, 0.0881426930427551, 0.0715336799621582, -0.0553632006049156, 